%YAML:1.0
my_svm: !!opencv-ml-svm
   svm_type: C_SVC
   kernel: { type:LINEAR }
   C: 1.
   term_criteria: { epsilon:1.1920928955078125e-007, iterations:1000 }
   var_all: 6
   var_count: 6
   class_count: 2
   class_labels: !!opencv-matrix
      rows: 1
      cols: 2
      dt: i
      data: [ -1, 0 ]
   sv_total: 1
   support_vectors:
      - [ 0., 0., 0., 0., 0., 0. ]
   decision_functions:
      -
         sv_count: 1
         rho: .Nan
         alpha: [ 1. ]
         index: [ 0 ]
