%YAML:1.0
my_svm: !!opencv-ml-svm
   svm_type: C_SVC
   kernel: { type:RBF, gamma:6.9999999999999996e-001 }
   C: 1.3999999999999999e+000
   term_criteria: { epsilon:1.1920928955078125e-007, iterations:1000 }
   var_all: 6
   var_count: 6
   class_count: 2
   class_labels: !!opencv-matrix
      rows: 1
      cols: 2
      dt: i
      data: [ 0, 1 ]
   sv_total: 2000
   support_vectors:
      - [ 8.12358398e+001, 8.38656769e+001, 2.86736917e+000,
          8.69585266e+001, 1.04707054e+002, 3.32620392e+001 ]
      - [ 7.93891907e+001, 1.02714417e+002, 7.87681885e+001,
          3.73899002e+001, 3.36236534e+001, 2.48716793e+001 ]
      - [ 8.10602417e+001, 1.19050545e+002, 1.08015991e+002,
          3.03786316e+001, 2.31543388e+001, 2.16213913e+001 ]
      - [ 8.01604233e+001, 1.34786087e+002, 1.34604294e+002,
          2.86735191e+001, 2.00962181e+001, 2.18055954e+001 ]
      - [ 7.92068558e+001, 1.44316498e+002, 1.63005707e+002,
          2.92693501e+001, 2.41169472e+001, 1.92234478e+001 ]
      - [ 6.01685410e+001, 1.34770538e+002, 1.71691742e+002,
          3.12679081e+001, 2.94652729e+001, 1.69426212e+001 ]
      - [ 5.11238937e+001, 1.23121658e+002, 1.76341507e+002,
          3.74263687e+001, 3.28130684e+001, 1.71253071e+001 ]
      - [ 5.03902473e+001, 1.11005386e+002, 1.73677673e+002,
          4.03435135e+001, 3.46029015e+001, 1.79150677e+001 ]
      - [ 5.01303596e+001, 1.04545586e+002, 1.59264938e+002,
          4.03428993e+001, 3.65900459e+001, 1.69647827e+001 ]
      - [ 4.98764496e+001, 8.69740295e+001, 1.41186447e+002,
          3.63711166e+001, 3.76241226e+001, 1.59354744e+001 ]
      - [ 6.87645111e+001, 6.96070328e+001, 1.16091743e+002,
          3.62430916e+001, 3.61248665e+001, 1.48675642e+001 ]
      - [ 5.44220123e+001, 5.85477333e+001, 7.07498550e+001,
          3.30251808e+001, 3.31354980e+001, 1.21477728e+001 ]
      - [ 6.87796402e+001, 6.62706680e+001, 4.55495644e+001,
          3.29399872e+001, 3.14016151e+001, 8.76529598e+000 ]
      - [ 7.36056061e+001, 7.38456726e+001, 1.70375957e+001,
          3.06913795e+001, 3.21080170e+001, 7.84070730e+000 ]
      - [ 7.86233521e+001, 7.78470535e+001, 1.15401669e+001,
          3.05822086e+001, 3.53398819e+001, 6.43111467e+000 ]
      - [ 8.42414856e+001, 7.93146362e+001, 7.77803516e+000,
          3.57514763e+001, 3.80327606e+001, 6.46833944e+000 ]
      - [ 8.60640793e+001, 8.07147827e+001, 4.07923746e+000,
          4.45406303e+001, 4.27028961e+001, 7.11975479e+000 ]
      - [ 7.98623428e+001, 8.12142868e+001, 3.71949387e+000,
          4.20361061e+001, 4.66718483e+001, 6.93511772e+000 ]
      - [ 9.02504654e+001, 8.09392700e+001, 5.83907557e+000,
          4.20418701e+001, 4.95447617e+001, 4.29928732e+000 ]
      - [ 8.31540527e+001, 8.02541885e+001, 7.11897707e+000,
          4.27073669e+001, 5.16155472e+001, 2.68724799e+000 ]
      - [ 7.65355759e+001, 7.99421082e+001, 6.62132120e+000,
          4.34688530e+001, 4.76178513e+001, 1.48453865e+001 ]
      - [ 7.31158829e+001, 7.59632874e+001, 6.57338428e+000,
          4.93568573e+001, 6.02246056e+001, 2.78298664e+001 ]
      - [ 7.29844131e+001, 7.41928482e+001, 6.85799456e+000,
          5.91945381e+001, 7.03739090e+001, 3.17008553e+001 ]
      - [ 7.28312531e+001, 7.23687973e+001, 8.62024879e+000,
          5.97359047e+001, 8.11643066e+001, 3.45638046e+001 ]
      - [ 6.48975372e+001, 7.13890457e+001, 7.66398525e+000,
          5.14181023e+001, 9.50037384e+001, 3.55378227e+001 ]
      - [ 8.11547318e+001, 7.96898041e+001, 4.06136370e+000,
          8.80870056e+001, 1.11526665e+002, 2.79293137e+001 ]
      - [ 7.15555344e+001, 6.94094849e+001, 9.00282478e+000,
          4.46544876e+001, 8.54062653e+001, 3.65161705e+001 ]
      - [ 6.89417191e+001, 6.75546341e+001, 8.91488171e+000,
          3.44319267e+001, 7.90990601e+001, 3.55927734e+001 ]
      - [ 5.75268326e+001, 6.57922287e+001, 8.82278538e+000,
          2.70280838e+001, 7.27073517e+001, 4.10597725e+001 ]
      - [ 6.10111923e+001, 6.44084091e+001, 8.94216251e+000,
          3.63672485e+001, 6.80201416e+001, 4.41783104e+001 ]
      - [ 6.11022682e+001, 6.33581886e+001, 1.00699768e+001,
          3.27766380e+001, 6.56234436e+001, 4.33693581e+001 ]
      - [ 6.12521324e+001, 6.30194473e+001, 1.08182287e+001,
          3.11814137e+001, 6.46335449e+001, 3.85716705e+001 ]
      - [ 5.59317856e+001, 6.44141464e+001, 9.27757454e+000,
          3.19218521e+001, 6.02712479e+001, 3.51619987e+001 ]
      - [ 6.16971054e+001, 6.86595306e+001, 1.07606211e+001,
          3.64595604e+001, 5.09660454e+001, 3.10895805e+001 ]
      - [ 6.62267914e+001, 7.09423981e+001, 1.11940565e+001,
          3.86926727e+001, 4.86240654e+001, 2.34215775e+001 ]
      - [ 6.97259293e+001, 7.27969437e+001, 1.19438276e+001,
          4.19860382e+001, 4.61999817e+001, 1.81844749e+001 ]
      - [ 7.59150085e+001, 7.38411331e+001, 1.12783403e+001,
          3.90678940e+001, 4.35420799e+001, 1.69944286e+001 ]
      - [ 7.61940384e+001, 7.36366119e+001, 1.11375055e+001,
          5.40552864e+001, 4.27189026e+001, 1.45759535e+001 ]
      - [ 7.60491028e+001, 7.04899216e+001, 1.11903830e+001,
          4.81787910e+001, 4.23000641e+001, 1.12404242e+001 ]
      - [ 7.32291870e+001, 6.41783676e+001, 1.39710770e+001,
          4.28276024e+001, 4.16837578e+001, 1.22231236e+001 ]
      - [ 5.44116592e+001, 5.64545555e+001, 1.60362377e+001,
          4.07005081e+001, 4.31265411e+001, 1.52979174e+001 ]
      - [ 4.29781227e+001, 5.03476219e+001, 1.56291456e+001,
          3.90083694e+001, 4.29065704e+001, 1.26788597e+001 ]
      - [ 2.29845352e+001, 4.48532104e+001, 1.56427631e+001,
          4.52995415e+001, 4.28808517e+001, 1.15380545e+001 ]
      - [ 3.52810555e+001, 3.74161644e+001, 1.60988026e+001,
          4.22389832e+001, 4.42618294e+001, 1.11731119e+001 ]
      - [ 5.15730324e+001, 3.55942726e+001, 1.60104599e+001,
          4.14198341e+001, 4.68545227e+001, 1.06182556e+001 ]
      - [ 6.01685410e+001, 3.72920303e+001, 9.62889862e+000,
          4.12453003e+001, 4.81232414e+001, 3.72017312e+000 ]
      - [ 3.51870422e+001, 3.72879028e+001, 1.00427198e+001,
          4.15211639e+001, 4.85393562e+001, 3.44732499e+000 ]
      - [ 2.72191200e+001, 3.91765938e+001, 1.16746159e+001,
          4.52903557e+001, 5.29018135e+001, 4.12269449e+000 ]
      - [ 5.01404457e+001, 4.18325577e+001, 1.56179428e+001,
          4.34014549e+001, 5.13825912e+001, 4.12665892e+000 ]
      - [ 6.16011162e+001, 4.38052597e+001, 1.87808590e+001,
          4.33497124e+001, 5.11185608e+001, 4.16893578e+000 ]
      - [ 5.01404457e+001, 4.41520348e+001, 2.20014286e+001,
          4.05019646e+001, 5.07321701e+001, 4.59708214e+000 ]
      - [ 6.16011162e+001, 4.39344597e+001, 2.62369232e+001,
          4.06225510e+001, 4.93951263e+001, 4.56063604e+000 ]
      - [ 7.30617981e+001, 4.21483421e+001, 3.38644180e+001,
          4.09809113e+001, 4.85784149e+001, 4.53244972e+000 ]
      - [ 6.16011238e+001, 4.87500954e+001, 8.83972702e+001,
          4.03612251e+001, 4.79989052e+001, 4.65256596e+000 ]
      - [ 6.16014137e+001, 5.35927544e+001, 1.24933617e+002,
          4.52192802e+001, 4.74138947e+001, 5.80213833e+000 ]
      - [ 6.87130356e+001, 5.01239853e+001, 1.26311653e+002,
          4.32990608e+001, 4.75994987e+001, 8.08807087e+000 ]
      - [ 6.16267128e+001, 4.74406929e+001, 1.27661324e+002,
          4.11614914e+001, 4.80240440e+001, 8.47361565e+000 ]
      - [ 6.61132584e+001, 4.56379623e+001, 1.28583694e+002,
          4.82579536e+001, 4.99377899e+001, 1.00434990e+001 ]
      - [ 8.49515228e+001, 8.34936676e+001, 8.14925289e+000,
          3.86920357e+001, 5.02331619e+001, 2.80319118e+001 ]
      - [ 8.54764404e+001, 8.49954910e+001, 8.01419163e+000,
          3.03753223e+001, 3.74209938e+001, 2.31982613e+001 ]
      - [ 8.99940796e+001, 8.53035583e+001, 9.00831985e+000,
          2.97123661e+001, 2.67051411e+001, 2.13927975e+001 ]
      - [ 9.44820480e+001, 8.51891327e+001, 1.00878267e+001,
          3.16236343e+001, 1.37288618e+001, 2.12597923e+001 ]
      - [ 8.97729797e+001, 8.52526627e+001, 1.04286528e+001,
          2.92763119e+001, 7.30343628e+000, 2.96600742e+001 ]
      - [ 8.26237869e+001, 8.53007660e+001, 1.18429174e+001,
          3.38853340e+001, 8.35057259e+000, 3.43543625e+001 ]
      - [ 8.87500000e+001, 8.56532135e+001, 1.10292187e+001,
          2.11521893e+001, 2.77833042e+001, 6.96637650e+001 ]
      - [ 9.57546997e+001, 8.61184311e+001, 1.32145748e+001,
          2.78978729e+001, 3.61868782e+001, 7.88188477e+001 ]
      - [ 9.34264450e+001, 8.83008728e+001, 1.72031727e+001,
          4.34757690e+001, 3.46995964e+001, 9.48813019e+001 ]
      - [ 9.67472000e+001, 9.36195221e+001, 1.60995064e+001,
          5.87557602e+001, 3.84192047e+001, 1.03496246e+002 ]
      - [ 1.04543770e+002, 9.93690262e+001, 1.65973949e+001,
          7.05069122e+001, 5.76048546e+001, 1.16344070e+002 ]
      - [ 1.14606743e+002, 1.07558151e+002, 1.70948048e+001,
          4.11814232e+001, 7.55071030e+001, 1.30702560e+002 ]
      - [ 1.14606743e+002, 1.15209328e+002, 1.71009941e+001,
          3.18787613e+001, 7.93145218e+001, 1.45568542e+002 ]
      - [ 1.28932602e+002, 1.24408218e+002, 1.84675045e+001,
          4.34228859e+001, 9.91814270e+001, 1.53505951e+002 ]
      - [ 1.37528107e+002, 1.34079010e+002, 1.70985699e+001,
          1.29262667e+001, 1.10783226e+002, 1.72358948e+002 ]
      - [ 1.37528122e+002, 1.43294098e+002, 1.19499807e+001,
          2.12044926e+001, 1.35852768e+002, 1.65576889e+002 ]
      - [ 1.63308502e+002, 1.49693604e+002, 1.22691221e+001,
          4.34781303e+001, 1.69080826e+002, 1.68986801e+002 ]
      - [ 1.63300980e+002, 1.56337967e+002, 1.18831673e+001,
          2.34860840e+001, 1.79866089e+002, 1.87830200e+002 ]
      - [ 1.56933807e+002, 1.60326813e+002, 1.06641121e+001,
          6.70113754e+001, 1.81824753e+002, 1.81589035e+002 ]
      - [ 1.63301559e+002, 1.64775787e+002, 1.16023121e+001,
          7.04842606e+001, 2.06576401e+002, 1.79314255e+002 ]
      - [ 1.56226456e+002, 1.67332626e+002, 1.10557528e+001,
          1.41013823e+001, 1.87808502e+002, 1.76122955e+002 ]
      - [ 1.56165115e+002, 1.70449417e+002, 2.18335533e+001,
          5.20311852e+001, 1.71578003e+002, 1.67945923e+002 ]
      - [ 1.64737625e+002, 1.73422348e+002, 3.93570862e+001,
          9.16589737e+001, 1.56874130e+002, 1.73084320e+002 ]
      - [ 1.79168945e+002, 1.74596115e+002, 9.57157669e+001,
          4.81598663e+001, 1.25457695e+002, 1.65416565e+002 ]
      - [ 1.80012985e+002, 1.60841766e+002, 1.11428268e+002,
          1.13979797e+002, 1.04092293e+002, 1.35199265e+002 ]
      - [ 1.89101120e+002, 1.42354874e+002, 1.16998238e+002,
          2.34771328e+001, 8.95358505e+001, 1.30107483e+002 ]
      - [ 2.23483154e+002, 1.23360100e+002, 1.18372925e+002,
          3.90704155e+001, 6.44100494e+001, 1.16183563e+002 ]
      - [ 2.43539261e+002, 1.04875237e+002, 1.18592545e+002,
          2.46964035e+001, 5.35831757e+001, 9.45037918e+001 ]
      - [ 5.13199009e-026, 8.57518616e+001, 1.17269821e+002,
          3.43307419e+001, 6.00572319e+001, 7.18474503e+001 ]
      - [ 1.59757910e+001, 6.73999786e+001, 1.12778824e+002,
          3.44338264e+001, 6.11109543e+001, 6.27573128e+001 ]
      - [ 3.02774544e+001, 5.20639992e+001, 2.62942734e+001,
          3.58853989e+001, 8.22976303e+001, 6.99822693e+001 ]
      - [ 3.25453796e+001, 5.56200638e+001, 1.91897087e+001,
          3.64606285e+001, 8.83521881e+001, 7.24224243e+001 ]
      - [ 7.83751755e+001, 7.57796631e+001, 4.19845533e+000,
          3.77081413e+001, 5.18664284e+001, 4.18946838e+001 ]
      - [ 8.92738876e+001, 9.67544861e+001, 3.47966156e+001,
          3.50256996e+001, 4.79798088e+001, 3.02398071e+001 ]
      - [ 9.35733795e+001, 1.01440491e+002, 7.76780701e+001,
          2.46835766e+001, 3.37139969e+001, 2.62886238e+001 ]
      - [ 1.00279991e+002, 1.17768951e+002, 1.07045235e+002,
          3.05415401e+001, 2.28732014e+001, 2.15606976e+001 ]
      - [ 1.07443810e+002, 1.34245331e+002, 1.36107681e+002,
          2.95451794e+001, 1.94542866e+001, 2.15889378e+001 ]
      - [ 0., 1.43547699e+002, 1.64053482e+002, 2.75794163e+001,
          2.32324944e+001, 1.89769783e+001 ]
      - [ 2.36376419e+002, 1.34090103e+002, 1.72767776e+002,
          2.93560467e+001, 2.83507690e+001, 1.64985847e+001 ]
      - [ 2.36376419e+002, 1.22944084e+002, 1.77342651e+002,
          3.55718613e+001, 3.17173424e+001, 1.64278984e+001 ]
      - [ 2.86518421e+001, 1.12070877e+002, 1.75044693e+002,
          4.11218147e+001, 3.36828842e+001, 1.70610256e+001 ]
      - [ 2.86523285e+001, 1.05608337e+002, 1.60799911e+002,
          4.19385796e+001, 3.57113457e+001, 1.60383854e+001 ]
      - [ 3.43802490e+001, 8.80370712e+001, 1.43042923e+002,
          3.63422318e+001, 3.67794113e+001, 1.49838915e+001 ]
      - [ 4.92686768e+001, 6.99304962e+001, 1.15709633e+002,
          3.06741810e+001, 3.54591942e+001, 1.42406902e+001 ]
      - [ 6.87669296e+001, 5.88711052e+001, 7.06177826e+001,
          3.57215347e+001, 3.26193581e+001, 1.18310490e+001 ]
      - [ 7.69876480e+001, 6.65941010e+001, 4.49945183e+001,
          3.63683167e+001, 3.10393658e+001, 8.73247433e+000 ]
      - [ 7.29364090e+001, 7.54024734e+001, 7.36953688e+000,
          4.93741531e+001, 7.01761246e+001, 3.06595955e+001 ]
      - [ 6.04271469e+001, 6.83171692e+001, 8.93001652e+000,
          3.62802925e+001, 8.06375885e+001, 3.97385979e+001 ]
      - [ 5.46351128e+001, 6.65418015e+001, 8.80540466e+000,
          4.95046272e+001, 7.57471848e+001, 4.85940552e+001 ]
      - [ 5.56610146e+001, 6.67957153e+001, 9.18038273e+000,
          4.60303993e+001, 5.98152313e+001, 4.22044754e+001 ]
      - [ 5.49802895e+001, 6.89868622e+001, 1.04129734e+001,
          3.98407402e+001, 5.43037148e+001, 3.83288498e+001 ]
      - [ 6.87929459e+001, 7.11565399e+001, 1.08492947e+001,
          3.42126541e+001, 5.07592964e+001, 2.62185669e+001 ]
      - [ 6.55420761e+001, 6.35635223e+001, 1.66943474e+001,
          4.07862968e+001, 4.26672745e+001, 1.23507462e+001 ]
      - [ 6.48514786e+001, 5.59490662e+001, 1.83974380e+001,
          3.98557892e+001, 4.35269547e+001, 1.49159279e+001 ]
      - [ 2.97692566e+001, 4.43507042e+001, 1.82795773e+001,
          4.47332001e+001, 4.27526550e+001, 1.15849009e+001 ]
      - [ 2.73547516e+001, 4.03785439e+001, 1.91625690e+001,
          5.17050629e+001, 4.29203758e+001, 1.15890779e+001 ]
      - [ 3.58146057e+001, 4.26017685e+001, 1.56840010e+001,
          4.34801521e+001, 5.10537415e+001, 3.89695001e+000 ]
      - [ 5.01404495e+001, 4.36875076e+001, 3.32438393e+001,
          4.11418839e+001, 4.93053703e+001, 4.29393768e+000 ]
      - [ 3.55202026e+001, 5.07053642e+001, 8.75649338e+001,
          4.09995728e+001, 4.85818100e+001, 4.34983683e+000 ]
      - [ 1.84940624e+001, 5.58731651e+001, 1.23944115e+002,
          4.32469978e+001, 4.78243256e+001, 5.36839104e+000 ]
      - [ 2.72211380e+001, 4.98767242e+001, 1.26197945e+002,
          4.12199631e+001, 4.79824677e+001, 8.06300449e+000 ]
      - [ 7.73159485e+001, 7.91867371e+001, 6.97032738e+000,
          7.30839005e+001, 9.93112030e+001, 4.52195854e+001 ]
      - [ 8.58613358e+001, 8.55658112e+001, 9.04993439e+000,
          3.76805992e+001, 2.55497475e+001, 2.15027847e+001 ]
      - [ 8.68976440e+001, 8.54544144e+001, 1.01285086e+001,
          2.93910046e+001, 1.31790066e+001, 2.16119728e+001 ]
      - [ 7.59513702e+001, 8.50242157e+001, 1.17910509e+001,
          2.63326645e+001, 8.53682709e+000, 2.86281490e+001 ]
      - [ 8.01311035e+001, 8.58102112e+001, 1.10535841e+001,
          2.11521034e+001, 2.64361629e+001, 6.61807861e+001 ]
      - [ 8.60872421e+001, 8.61794662e+001, 1.29965763e+001,
          2.73927040e+001, 3.66506424e+001, 7.56103516e+001 ]
      - [ 9.03392792e+001, 8.86012039e+001, 1.61260376e+001,
          3.05031471e+001, 3.74657211e+001, 9.16310120e+001 ]
      - [ 9.45241547e+001, 9.39186859e+001, 1.49694090e+001,
          5.17022591e+001, 4.82294426e+001, 1.13099174e+002 ]
      - [ 9.45752258e+001, 9.97519760e+001, 1.53870268e+001,
          3.28978157e+001, 6.76878586e+001, 1.24325851e+002 ]
      - [ 1.00267082e+002, 1.07853912e+002, 1.60820007e+001,
          2.79000530e+001, 8.49011536e+001, 1.35835526e+002 ]
      - [ 1.14606743e+002, 1.15505180e+002, 1.60867863e+001,
          2.73442535e+001, 9.32131119e+001, 1.51362686e+002 ]
      - [ 1.28932587e+002, 1.24703537e+002, 1.75598545e+001,
          4.95328979e+001, 1.14558876e+002, 1.60486694e+002 ]
      - [ 1.28932587e+002, 1.34373032e+002, 1.61778030e+001,
          5.15269966e+001, 1.27597183e+002, 1.89507019e+002 ]
      - [ 1.44690994e+002, 1.43292175e+002, 1.20278025e+001,
          5.87562065e+001, 1.57025223e+002, 1.88604462e+002 ]
      - [ 1.56237473e+002, 1.49691803e+002, 1.23400526e+001,
          1.53989441e+002, 1.84388214e+002, 1.86444016e+002 ]
      - [ 1.56363739e+002, 1.56334274e+002, 1.19792452e+001,
          3.87792969e+001, 1.92885849e+002, 2.03284393e+002 ]
      - [ 1.56476379e+002, 1.60275269e+002, 1.07387056e+001,
          9.51843414e+001, 1.95914063e+002, 1.99375259e+002 ]
      - [ 1.56439728e+002, 1.64724213e+002, 1.18150635e+001,
          8.10830612e+001, 2.17736801e+002, 1.95902756e+002 ]
      - [ 1.71910263e+002, 1.67277435e+002, 1.13733253e+001,
          3.17281113e+001, 2.01489838e+002, 1.90705261e+002 ]
      - [ 1.71910812e+002, 1.70410522e+002, 2.31886921e+001,
          5.38970184e+001, 1.86407822e+002, 1.70044052e+002 ]
      - [ 1.78162018e+002, 1.73679749e+002, 4.12708244e+001,
          1.10463646e+002, 1.67125885e+002, 1.72180023e+002 ]
      - [ 1.79073029e+002, 1.74853409e+002, 9.66971283e+001,
          8.22608795e+001, 1.32547501e+002, 1.63985748e+002 ]
      - [ 1.79866959e+002, 1.61525497e+002, 1.11755478e+002,
          2.25386028e+001, 1.10034592e+002, 1.34135544e+002 ]
      - [ 2.00561798e+002, 1.43099701e+002, 1.17346825e+002,
          2.56404800e+001, 9.47821121e+001, 1.28329269e+002 ]
      - [ 2.36376404e+002, 1.24114349e+002, 1.18719513e+002,
          4.09577179e+001, 6.85019836e+001, 1.14851540e+002 ]
      - [ 4.29775505e+001, 1.05634239e+002, 1.18933006e+002,
          2.95666962e+001, 5.41881218e+001, 9.65327148e+001 ]
      - [ 3.55793304e+001, 8.65044250e+001, 1.17396713e+002,
          3.64469223e+001, 5.50034866e+001, 7.72537918e+001 ]
      - [ 4.29777832e+001, 6.77761536e+001, 1.12482445e+002,
          3.71821556e+001, 5.34893036e+001, 6.07757988e+001 ]
      - [ 9.00053940e+001, 8.84446182e+001, 1.76712704e+001,
          4.26278534e+001, 6.46415482e+001, 3.83248940e+001 ]
      - [ 9.43436203e+001, 9.69636459e+001, 7.40698929e+001,
          3.10019264e+001, 3.35233994e+001, 2.74876957e+001 ]
      - [ 1.18904495e+002, 1.08822151e+002, 1.04771950e+002,
          3.22344627e+001, 2.18701859e+001, 2.19866295e+001 ]
      - [ 1.71910110e+002, 1.20882385e+002, 1.33452240e+002,
          3.16587677e+001, 1.79004726e+001, 2.20241032e+001 ]
      - [ 1.90533707e+002, 1.25298035e+002, 1.58410416e+002,
          3.54796028e+001, 2.10133438e+001, 1.88512650e+001 ]
      - [ 2.23483154e+002, 1.16725029e+002, 1.66166428e+002,
          3.61431389e+001, 2.54028244e+001, 1.57925224e+001 ]
      - [ 2.23483154e+002, 1.07145279e+002, 1.69856155e+002,
          4.12435493e+001, 2.86119499e+001, 1.52405519e+001 ]
      - [ 2.47837082e+002, 9.80895615e+001, 1.68068039e+002,
          4.57925110e+001, 3.08663197e+001, 1.55227041e+001 ]
      - [ 8.59550571e+000, 9.33341827e+001, 1.54310699e+002,
          4.57764206e+001, 3.32560158e+001, 1.40662012e+001 ]
      - [ 8.59550571e+000, 8.03794327e+001, 1.35443405e+002,
          4.21691704e+001, 3.45931778e+001, 1.26390429e+001 ]
      - [ 4.98846245e+001, 6.68880920e+001, 1.07266647e+002,
          3.58190041e+001, 3.36344223e+001, 1.21567965e+001 ]
      - [ 7.48749466e+001, 6.09460716e+001, 6.48397293e+001,
          3.70932693e+001, 3.12988338e+001, 1.08368473e+001 ]
      - [ 7.72349701e+001, 7.92976837e+001, 7.29322720e+000,
          3.89886627e+001, 3.72411537e+001, 7.14213657e+000 ]
      - [ 7.30984955e+001, 8.09980469e+001, 3.42619419e+000,
          3.89407616e+001, 4.84401169e+001, 8.22691536e+000 ]
      - [ 7.53017044e+001, 8.22923660e+001, 7.30822849e+000,
          4.34142838e+001, 5.25805893e+001, 4.47287512e+000 ]
      - [ 8.12679291e+001, 8.19361496e+001, 6.79311562e+000,
          3.89315643e+001, 5.01824150e+001, 2.13452816e+001 ]
      - [ 6.88290329e+001, 8.08480072e+001, 6.81999302e+000,
          3.17525330e+001, 5.53975945e+001, 2.28308868e+001 ]
      - [ 7.28637772e+001, 7.73922729e+001, 6.68010616e+000,
          4.30196953e+001, 7.11620560e+001, 2.75555267e+001 ]
      - [ 6.11190414e+001, 7.05161057e+001, 8.30414581e+000,
          5.16273689e+001, 8.74234009e+001, 4.53552475e+001 ]
      - [ 6.46828079e+001, 7.04058609e+001, 1.00991611e+001,
          4.24853172e+001, 6.28104057e+001, 4.59565468e+001 ]
      - [ 7.46128540e+001, 7.38464584e+001, 1.13987846e+001,
          4.22369194e+001, 5.12583809e+001, 2.39463558e+001 ]
      - [ 4.89600563e+001, 4.87999153e+001, 2.01142693e+001,
          3.56611519e+001, 4.23431892e+001, 1.23001595e+001 ]
      - [ 3.58078651e+001, 4.33089409e+001, 2.03098354e+001,
          3.76800079e+001, 4.19165039e+001, 1.15086288e+001 ]
      - [ 3.58146133e+001, 4.99600868e+001, 1.99517231e+001,
          4.22903862e+001, 5.12369423e+001, 3.69185638e+000 ]
      - [ 3.57829514e+001, 4.95800056e+001, 2.93873749e+001,
          4.19678650e+001, 5.06010818e+001, 4.65190983e+000 ]
      - [ 2.72191105e+001, 5.22187576e+001, 6.54700928e+001,
          4.68698883e+001, 5.00263252e+001, 5.32886791e+000 ]
      - [ 1.86061306e+001, 5.09471169e+001, 6.68654785e+001,
          4.31316338e+001, 4.92467728e+001, 5.79765224e+000 ]
      - [ 1.85502396e+001, 5.26880264e+001, 9.09761429e+001,
          4.23077469e+001, 4.87451973e+001, 6.60322237e+000 ]
      - [ 2.43539322e+002, 4.91580849e+001, 9.20694885e+001,
          4.21238785e+001, 4.82590065e+001, 8.89142418e+000 ]
      - [ 1.59023895e+001, 4.64723091e+001, 9.31277237e+001,
          4.12667046e+001, 4.76677437e+001, 1.02696056e+001 ]
      - [ 8.00284729e+001, 8.52359390e+001, 8.95326328e+000,
          3.63580627e+001, 4.45046616e+001, 2.75472050e+001 ]
      - [ 7.34591827e+001, 8.63474655e+001, 1.14246645e+001,
          1.42127104e+001, 1.04086895e+001, 3.39745674e+001 ]
      - [ 7.74401321e+001, 8.64811935e+001, 1.04059925e+001,
          2.90286179e+001, 2.20768719e+001, 6.28220329e+001 ]
      - [ 7.74334030e+001, 8.66677856e+001, 1.21039581e+001,
          3.27972908e+001, 2.98879166e+001, 7.08986664e+001 ]
      - [ 9.02729645e+001, 8.92435303e+001, 1.45454254e+001,
          2.11519661e+001, 3.31845207e+001, 8.25776062e+001 ]
      - [ 9.44994812e+001, 9.44797211e+001, 1.34992733e+001,
          9.98847885e+001, 4.83968849e+001, 1.08811974e+002 ]
      - [ 8.59684525e+001, 1.00224785e+002, 1.40832739e+001,
          7.77719727e+001, 6.45616379e+001, 1.15589554e+002 ]
      - [ 8.59570465e+001, 1.08062004e+002, 1.50085421e+001,
          3.52534556e+000, 8.22387390e+001, 1.28089798e+002 ]
      - [ 1.14606743e+002, 1.15713737e+002, 1.50233088e+001,
          3.40407219e+001, 9.62731323e+001, 1.43906494e+002 ]
      - [ 1.14606743e+002, 1.24998581e+002, 1.66346359e+001,
          1.21005829e+002, 1.19770576e+002, 1.54149994e+002 ]
      - [ 1.44691010e+002, 1.34621216e+002, 1.52610378e+001,
          6.34546394e+001, 1.37897644e+002, 1.84961197e+002 ]
      - [ 1.44691010e+002, 1.43245819e+002, 1.22370110e+001,
          2.46593227e+001, 1.67039215e+002, 1.88865326e+002 ]
      - [ 1.56253784e+002, 1.49647766e+002, 1.25455923e+001,
          1.24481995e+002, 1.91109604e+002, 1.91312714e+002 ]
      - [ 1.58543274e+002, 1.55874252e+002, 1.20767889e+001,
          7.07153931e+001, 1.99111694e+002, 2.10862167e+002 ]
      - [ 1.58780319e+002, 1.59398056e+002, 1.08002605e+001,
          1.01059898e+002, 2.02426987e+002, 2.06642365e+002 ]
      - [ 1.58908310e+002, 1.63514374e+002, 1.16314068e+001,
          1.43364075e+002, 2.16448639e+002, 2.02862350e+002 ]
      - [ 1.71910263e+002, 1.65599823e+002, 1.05226488e+001,
          1.21036865e+002, 2.02844986e+002, 1.97142593e+002 ]
      - [ 1.71910706e+002, 1.68452347e+002, 2.27166786e+001,
          8.57879639e+001, 1.88270218e+002, 1.78575073e+002 ]
      - [ 1.78117874e+002, 1.71421478e+002, 4.01476860e+001,
          1.37487549e+002, 1.69069168e+002, 1.79530914e+002 ]
      - [ 1.78967453e+002, 1.67711594e+002, 9.67535477e+001,
          1.32788971e+002, 1.32856400e+002, 1.64542191e+002 ]
      - [ 1.79247910e+002, 1.54971817e+002, 1.12092651e+002,
          4.58781929e+001, 1.14068642e+002, 1.34358429e+002 ]
      - [ 1.71910156e+002, 1.36518616e+002, 1.19082497e+002,
          4.93188019e+001, 9.81693573e+001, 1.28697968e+002 ]
      - [ 2.36376373e+002, 1.17551048e+002, 1.21297813e+002,
          3.03591709e+001, 7.18099136e+001, 1.17232025e+002 ]
      - [ 3.46433640e+001, 9.91264572e+001, 1.22122337e+002,
          3.41609039e+001, 5.68320694e+001, 1.01828934e+002 ]
      - [ 5.01798210e+001, 8.02215271e+001, 1.20828682e+002,
          4.22570114e+001, 5.24172249e+001, 7.96185074e+001 ]
      - [ 5.00141182e+001, 6.16057930e+001, 1.16380913e+002,
          4.58264923e+001, 4.62678757e+001, 5.86172218e+001 ]
      - [ 5.54846344e+001, 5.01028976e+001, 7.63373718e+001,
          5.78966827e+001, 5.19726448e+001, 5.63751640e+001 ]
      - [ 8.07974472e+001, 8.49342575e+001, 1.02755575e+001,
          6.13308945e+001, 7.53657532e+001, 3.87812538e+001 ]
      - [ 8.34856949e+001, 9.29233246e+001, 3.09296532e+001,
          3.19490204e+001, 4.73017883e+001, 3.05353107e+001 ]
      - [ 9.44886322e+001, 9.82455215e+001, 6.12595558e+001,
          3.17251625e+001, 3.36791000e+001, 2.73765526e+001 ]
      - [ 1.18904495e+002, 1.07529366e+002, 9.13717117e+001,
          3.09845734e+001, 2.21403561e+001, 2.16961346e+001 ]
      - [ 1.57584259e+002, 1.16388924e+002, 1.18842934e+002,
          3.17419415e+001, 1.87388954e+001, 2.12167969e+001 ]
      - [ 1.71910110e+002, 1.21114441e+002, 1.45012085e+002,
          3.25168114e+001, 2.15808754e+001, 1.74293556e+001 ]
      - [ 2.00561798e+002, 1.13590324e+002, 1.51916855e+002,
          3.62270393e+001, 2.52647839e+001, 1.53926620e+001 ]
      - [ 2.00561798e+002, 1.05136742e+002, 1.55259964e+002,
          4.12935905e+001, 2.85154133e+001, 1.47010460e+001 ]
      - [ 2.36376373e+002, 9.68440323e+001, 1.53357498e+002,
          4.19668808e+001, 3.10540123e+001, 1.43164835e+001 ]
      - [ 2.86520424e+001, 8.98712921e+001, 1.44043610e+002,
          4.21326485e+001, 3.32946892e+001, 1.29412069e+001 ]
      - [ 2.86523743e+001, 7.95828171e+001, 1.27143417e+002,
          3.97405930e+001, 3.45419731e+001, 1.15447054e+001 ]
      - [ 7.68034286e+001, 6.93397369e+001, 3.69860420e+001,
          3.65116043e+001, 3.00986290e+001, 8.30261707e+000 ]
      - [ 7.61846313e+001, 7.49176407e+001, 1.32732887e+001,
          3.63190193e+001, 3.08712826e+001, 7.82490158e+000 ]
      - [ 8.01578293e+001, 8.59791641e+001, 8.80488682e+000,
          4.53389244e+001, 5.61452751e+001, 7.52779055e+000 ]
      - [ 8.59458313e+001, 8.55266418e+001, 8.29608250e+000,
          4.22917137e+001, 5.43349915e+001, 1.58499956e+001 ]
      - [ 8.00929794e+001, 8.34024963e+001, 8.14599991e+000,
          3.67522278e+001, 6.06905594e+001, 2.61536236e+001 ]
      - [ 7.03626480e+001, 7.48058777e+001, 7.59414577e+000,
          5.76656151e+001, 9.87902985e+001, 4.35945244e+001 ]
      - [ 6.60783310e+001, 6.87887878e+001, 8.63377380e+000,
          7.16331940e+001, 9.31368790e+001, 5.94129944e+001 ]
      - [ 6.59773102e+001, 6.96397171e+001, 7.56147718e+000,
          6.46401138e+001, 8.92191315e+001, 5.74238892e+001 ]
      - [ 6.59253845e+001, 7.10349274e+001, 7.78619671e+000,
          5.28801918e+001, 8.27657547e+001, 5.71034927e+001 ]
      - [ 7.44781189e+001, 7.41977768e+001, 9.54154015e+000,
          4.26391525e+001, 6.38881149e+001, 3.77160263e+001 ]
      - [ 8.03890762e+001, 7.43016510e+001, 1.20258884e+001,
          3.95859795e+001, 5.17753258e+001, 2.37274761e+001 ]
      - [ 7.74648514e+001, 7.03442230e+001, 1.28001204e+001,
          3.89532204e+001, 4.72123299e+001, 2.01376019e+001 ]
      - [ 5.72996330e+001, 5.46223564e+001, 2.27602768e+001,
          3.79472198e+001, 4.20578499e+001, 1.41022291e+001 ]
      - [ 1.86212349e+001, 3.71252403e+001, 2.37064610e+001,
          3.85333519e+001, 4.01529808e+001, 1.04257393e+001 ]
      - [ 3.58121872e+001, 3.36765327e+001, 2.39556828e+001,
          3.86558990e+001, 4.14979134e+001, 9.87020874e+000 ]
      - [ 5.01404495e+001, 5.07734375e+001, 1.50459881e+001,
          4.56012611e+001, 5.23270607e+001, 6.25614405e+000 ]
      - [ 5.01404495e+001, 5.51138496e+001, 2.01092625e+001,
          4.24906654e+001, 5.35369606e+001, 5.57170153e+000 ]
      - [ 5.01404572e+001, 5.52831955e+001, 2.75962715e+001,
          4.24182281e+001, 5.35065842e+001, 7.00052929e+000 ]
      - [ 5.01404610e+001, 5.80053177e+001, 6.38990440e+001,
          4.34019966e+001, 5.27711563e+001, 7.58758020e+000 ]
      - [ 3.57478333e+001, 5.81237907e+001, 8.94998550e+001,
          4.14130440e+001, 5.07073936e+001, 8.34311771e+000 ]
      - [ 2.72388153e+001, 5.12470818e+001, 9.14881897e+001,
          3.89814682e+001, 4.80501938e+001, 1.16292858e+001 ]
      - [ 1.83879452e+001, 4.85327797e+001, 9.19335327e+001,
          3.87221718e+001, 4.72732582e+001, 1.73698864e+001 ]
      - [ 8.57071075e+001, 8.87986603e+001, 1.29743013e+001,
          2.82255611e+001, 2.80274029e+001, 2.32147198e+001 ]
      - [ 9.00935211e+001, 8.87644730e+001, 1.24318523e+001,
          2.81622696e+001, 2.04179497e+001, 2.17520466e+001 ]
      - [ 7.73985291e+001, 8.67223816e+001, 1.21157246e+001,
          2.83748760e+001, 3.70133705e+001, 8.10116501e+001 ]
      - [ 9.02547379e+001, 8.91547089e+001, 1.47115164e+001,
          4.81793480e+001, 4.52734184e+001, 9.49399490e+001 ]
      - [ 9.02407150e+001, 9.44491272e+001, 1.35258493e+001,
          7.85183487e+001, 6.00972939e+001, 1.22534035e+002 ]
      - [ 8.59749832e+001, 9.98654785e+001, 1.42188873e+001,
          3.51152267e+001, 7.41774292e+001, 1.32997345e+002 ]
      - [ 8.59589310e+001, 1.08119629e+002, 1.55023069e+001,
          4.33634796e+001, 9.71508560e+001, 1.46468170e+002 ]
      - [ 1.14606743e+002, 1.15773155e+002, 1.55746880e+001,
          3.88027039e+001, 1.14813469e+002, 1.62989563e+002 ]
      - [ 1.14606743e+002, 1.25144974e+002, 1.72421818e+001,
          4.23778534e+001, 1.29415771e+002, 1.73798615e+002 ]
      - [ 1.44691010e+002, 1.34647659e+002, 1.60401669e+001,
          1.28058655e+002, 1.41453262e+002, 1.99407761e+002 ]
      - [ 1.44690994e+002, 1.43318207e+002, 1.33496771e+001,
          5.88160477e+001, 1.60629562e+002, 2.06770584e+002 ]
      - [ 1.56223801e+002, 1.49771744e+002, 1.36172972e+001,
          1.22393623e+002, 1.83495865e+002, 2.07337845e+002 ]
      - [ 1.56390564e+002, 1.56028152e+002, 1.30648050e+001,
          1.55059464e+002, 1.95373108e+002, 2.19659027e+002 ]
      - [ 1.59075394e+002, 1.62236572e+002, 1.21390867e+001,
          1.29262680e+002, 2.08557922e+002, 2.11912567e+002 ]
      - [ 1.61557236e+002, 1.63850983e+002, 1.10343018e+001,
          1.63366791e+002, 2.01123428e+002, 2.05489441e+002 ]
      - [ 1.61756119e+002, 1.66363815e+002, 2.33843079e+001,
          9.98847885e+001, 1.87893799e+002, 1.84831131e+002 ]
      - [ 1.71910767e+002, 1.68517685e+002, 3.74971428e+001,
          6.22811050e+001, 1.75146057e+002, 1.78603043e+002 ]
      - [ 1.64652344e+002, 1.63424957e+002, 9.05871506e+001,
          2.93771667e+001, 1.42027603e+002, 1.63062271e+002 ]
      - [ 1.79293320e+002, 1.50063568e+002, 1.11221481e+002,
          1.76269360e+001, 1.21059204e+002, 1.37925690e+002 ]
      - [ 1.57570572e+002, 1.36234375e+002, 1.22498756e+002,
          9.37908020e+001, 9.94951630e+001, 1.28355286e+002 ]
      - [ 0., 1.17599777e+002, 1.26405830e+002, 4.01497574e+001,
          7.22362289e+001, 1.15217438e+002 ]
      - [ 5.10683861e+001, 9.89971771e+001, 1.29395111e+002,
          7.16820297e+001, 5.91449165e+001, 9.87342453e+001 ]
      - [ 5.02807617e+001, 8.04266357e+001, 1.28879074e+002,
          5.01977768e+001, 5.36493340e+001, 7.82010956e+001 ]
      - [ 4.96620331e+001, 6.22196579e+001, 1.26398079e+002,
          4.95363045e+001, 4.52985802e+001, 5.97065926e+001 ]
      - [ 4.98862000e+001, 5.18417091e+001, 9.61155472e+001,
          5.84397240e+001, 4.88060608e+001, 5.60807838e+001 ]
      - [ 4.93419762e+001, 4.91491890e+001, 7.19082947e+001,
          6.69302673e+001, 5.23914375e+001, 5.49075775e+001 ]
      - [ 9.02089233e+001, 9.88267212e+001, 5.49102211e+001,
          3.19626694e+001, 3.22892609e+001, 2.67952309e+001 ]
      - [ 1.00279617e+002, 1.08950386e+002, 8.46762619e+001,
          2.83996372e+001, 2.21944485e+001, 2.33712215e+001 ]
      - [ 1.07443810e+002, 1.18781342e+002, 1.11986694e+002,
          2.82360401e+001, 1.95237236e+001, 2.21527386e+001 ]
      - [ 2.36376404e+002, 1.08215927e+002, 1.48947342e+002,
          3.75356789e+001, 2.93761101e+001, 1.46604681e+001 ]
      - [ 3.43790131e+001, 8.21975861e+001, 1.23488266e+002,
          3.74640732e+001, 3.54660835e+001, 1.12601357e+001 ]
      - [ 6.01685410e+001, 7.14170227e+001, 9.93628769e+001,
          3.67429962e+001, 3.47387505e+001, 1.02692757e+001 ]
      - [ 7.46523590e+001, 6.52433395e+001, 5.58708115e+001,
          3.70856018e+001, 3.29176674e+001, 8.46495819e+000 ]
      - [ 7.65429993e+001, 8.00499344e+001, 3.20319462e+000,
          4.79788628e+001, 5.03766861e+001, 7.27132988e+000 ]
      - [ 9.45084076e+001, 8.41507645e+001, 8.50048351e+000,
          4.58049469e+001, 5.50303421e+001, 2.93742013e+000 ]
      - [ 8.92385712e+001, 8.79079208e+001, 9.47345638e+000,
          4.56723633e+001, 5.81262512e+001, 8.94749737e+000 ]
      - [ 9.45239258e+001, 8.73305740e+001, 8.88529968e+000,
          4.12410507e+001, 5.80615540e+001, 2.30237751e+001 ]
      - [ 8.91219330e+001, 8.54753799e+001, 8.78088474e+000,
          4.20491905e+001, 6.57241974e+001, 3.09530754e+001 ]
      - [ 7.74688873e+001, 7.64739227e+001, 8.94530964e+000,
          4.65762062e+001, 7.08741226e+001, 3.90183144e+001 ]
      - [ 8.03667374e+001, 7.47539673e+001, 1.27220421e+001,
          4.45796547e+001, 5.30824013e+001, 2.59234085e+001 ]
      - [ 6.87467651e+001, 5.37666016e+001, 2.58461914e+001,
          3.84723511e+001, 3.94076805e+001, 1.23826704e+001 ]
      - [ 4.87119637e+001, 4.63531532e+001, 2.64016857e+001,
          3.56023293e+001, 3.86473885e+001, 1.20960579e+001 ]
      - [ 8.59551239e+000, 3.97108231e+001, 2.67358704e+001,
          3.77540131e+001, 3.88293152e+001, 1.21358891e+001 ]
      - [ 2.72190990e+001, 3.07857132e+001, 2.61030750e+001,
          3.78794136e+001, 4.08361893e+001, 1.13456783e+001 ]
      - [ 5.01404457e+001, 4.49124718e+001, 9.37504196e+000,
          4.15558128e+001, 5.01201744e+001, 6.16475773e+000 ]
      - [ 6.16011276e+001, 5.69130974e+001, 1.49123955e+001,
          4.57419739e+001, 5.47250099e+001, 7.27575922e+000 ]
      - [ 6.15980835e+001, 5.81523209e+001, 2.60288372e+001,
          4.36313553e+001, 5.61048508e+001, 7.49105453e+000 ]
      - [ 6.15990753e+001, 6.02520256e+001, 6.31814957e+001,
          4.43570518e+001, 5.50972900e+001, 7.86478662e+000 ]
      - [ 5.72603455e+001, 5.87211380e+001, 8.88479004e+001,
          4.34373512e+001, 5.12905121e+001, 8.59952450e+000 ]
      - [ 5.00825195e+001, 5.43033791e+001, 8.99099655e+001,
          4.11296310e+001, 4.84469109e+001, 9.36076736e+000 ]
      - [ 4.29781914e+001, 5.03912430e+001, 9.06918488e+001,
          3.88837128e+001, 4.54792252e+001, 1.08905106e+001 ]
      - [ 2.99569912e+001, 4.68142891e+001, 9.05820313e+001,
          3.82206764e+001, 4.22051582e+001, 1.61831017e+001 ]
      - [ 3.01857719e+001, 4.37362328e+001, 6.99432373e+001,
          3.86154900e+001, 4.25368690e+001, 1.99576035e+001 ]
      - [ 7.86269226e+001, 8.06271210e+001, 2.63806992e+001,
          3.94708977e+001, 6.46387787e+001, 3.69421959e+001 ]
      - [ 7.86474152e+001, 8.39340668e+001, 2.68670139e+001,
          3.88094635e+001, 3.75495605e+001, 2.91953201e+001 ]
      - [ 8.28200684e+001, 8.63290482e+001, 2.72761402e+001,
          3.16626282e+001, 2.72506580e+001, 2.56621094e+001 ]
      - [ 8.92065887e+001, 8.81349182e+001, 2.73742867e+001,
          2.81472588e+001, 2.21660786e+001, 2.28556309e+001 ]
      - [ 9.49058609e+001, 8.73788834e+001, 1.14955139e+001,
          3.52545853e+001, 1.07908154e+001, 2.70364513e+001 ]
      - [ 8.28991699e+001, 8.62068710e+001, 1.12143641e+001,
          1.99995651e+001, 9.72785568e+000, 3.46842461e+001 ]
      - [ 7.73958893e+001, 8.61623688e+001, 1.09604712e+001,
          2.80428581e+001, 1.44256668e+001, 3.90689812e+001 ]
      - [ 7.73968506e+001, 8.59180069e+001, 9.99008942e+000,
          3.88057175e+001, 2.57704506e+001, 6.44141388e+001 ]
      - [ 9.02501907e+001, 8.85939713e+001, 1.42951164e+001,
          3.40561256e+001, 5.31081009e+001, 1.10587669e+002 ]
      - [ 9.02362061e+001, 9.39017944e+001, 1.30346909e+001,
          5.74919205e+001, 6.91389542e+001, 1.35236816e+002 ]
      - [ 8.59847107e+001, 9.89912567e+001, 1.38442564e+001,
          6.79870071e+001, 8.06346130e+001, 1.51930557e+002 ]
      - [ 1.00280891e+002, 1.07684464e+002, 1.57859554e+001,
          6.59891357e+001, 1.07092751e+002, 1.60828995e+002 ]
      - [ 1.14606743e+002, 1.15551567e+002, 1.59959936e+001,
          1.55115204e+002, 1.30979355e+002, 1.77079758e+002 ]
      - [ 1.14606750e+002, 1.24909683e+002, 1.74058170e+001,
          6.93187180e+001, 1.46150833e+002, 1.86799377e+002 ]
      - [ 1.44691010e+002, 1.34353668e+002, 1.62633171e+001,
          1.18720612e+002, 1.57340363e+002, 2.13065903e+002 ]
      - [ 1.44691010e+002, 1.43010864e+002, 1.37752886e+001,
          1.18663574e+002, 1.67149887e+002, 2.16043701e+002 ]
      - [ 1.56193436e+002, 1.49140610e+002, 1.40605135e+001,
          1.25651848e+002, 1.86377182e+002, 2.18553375e+002 ]
      - [ 1.56336761e+002, 1.55365433e+002, 1.34692850e+001,
          2.11520737e+002, 2.03692490e+002, 2.20777542e+002 ]
      - [ 1.58878036e+002, 1.57610916e+002, 1.11318216e+001,
          1.65665451e+002, 2.06181976e+002, 2.18581314e+002 ]
      - [ 1.59079773e+002, 1.60546829e+002, 1.18289442e+001,
          1.49263092e+002, 2.05115799e+002, 2.13666748e+002 ]
      - [ 1.61467560e+002, 1.61654617e+002, 1.08571959e+001,
          1.52741486e+002, 1.94601990e+002, 2.10140259e+002 ]
      - [ 1.59437073e+002, 1.63643341e+002, 2.26108418e+001,
          1.08110596e+002, 1.77417847e+002, 1.85136505e+002 ]
      - [ 1.71910263e+002, 1.65278061e+002, 3.46026268e+001,
          7.40318069e+001, 1.67680832e+002, 1.73859970e+002 ]
      - [ 1.64447189e+002, 1.59444107e+002, 8.48093719e+001,
          7.40322571e+001, 1.36538879e+002, 1.55100204e+002 ]
      - [ 1.80027847e+002, 1.41381027e+002, 1.06729507e+002,
          9.29482803e+001, 1.13017044e+002, 1.36089890e+002 ]
      - [ 1.71910110e+002, 1.32760513e+002, 1.19409279e+002,
          1.12811050e+002, 8.93820877e+001, 1.27648743e+002 ]
      - [ 0., 1.19317291e+002, 1.27118835e+002, 8.22580624e+000,
          6.51900330e+001, 1.12840019e+002 ]
      - [ 7.16292114e+001, 1.00988220e+002, 1.34798050e+002,
          4.22136078e+001, 5.46622734e+001, 9.05514832e+001 ]
      - [ 5.09198837e+001, 8.27933121e+001, 1.38375626e+002,
          4.69936485e+001, 5.40203323e+001, 7.41114044e+001 ]
      - [ 5.01182747e+001, 6.46710892e+001, 1.39563751e+002,
          4.23312950e+001, 4.50591621e+001, 5.57287369e+001 ]
      - [ 4.99111671e+001, 5.54014397e+001, 1.17578529e+002,
          4.58337021e+001, 4.85950775e+001, 5.03027916e+001 ]
      - [ 4.97646904e+001, 5.74974022e+001, 1.00151344e+002,
          4.93282127e+001, 5.14932365e+001, 4.85913467e+001 ]
      - [ 4.93156967e+001, 5.09402504e+001, 8.62599487e+001,
          4.47099152e+001, 5.20456924e+001, 5.10284920e+001 ]
      - [ 6.23414955e+001, 5.84709091e+001, 3.66487274e+001,
          3.01532402e+001, 4.24422646e+001, 4.54782829e+001 ]
      - [ 6.88373947e+001, 6.07901497e+001, 3.11358929e+001,
          2.79957428e+001, 4.15072098e+001, 4.15362396e+001 ]
      - [ 7.00825424e+001, 6.42507019e+001, 2.34626484e+001,
          2.79530067e+001, 3.93041916e+001, 3.77131157e+001 ]
      - [ 7.76396790e+001, 7.61156616e+001, 4.36883068e+000,
          2.59434700e+001, 4.50719910e+001, 4.13038406e+001 ]
      - [ 8.59661484e+001, 1.06503494e+002, 6.74984818e+001,
          2.92562656e+001, 2.48042068e+001, 2.37571011e+001 ]
      - [ 1.07443810e+002, 1.13262520e+002, 9.39549942e+001,
          2.76855774e+001, 2.26173191e+001, 2.13226891e+001 ]
      - [ 1.07443810e+002, 1.18947304e+002, 1.22584312e+002,
          2.83048477e+001, 2.47239380e+001, 1.71409779e+001 ]
      - [ 0., 1.13132896e+002, 1.28122940e+002, 3.07187614e+001,
          2.80630627e+001, 1.56402540e+001 ]
      - [ 0., 1.06304031e+002, 1.31315369e+002, 3.31972237e+001,
          3.10443153e+001, 1.48387470e+001 ]
      - [ 0., 9.89508896e+001, 1.30032776e+002, 3.52179794e+001,
          3.33739929e+001, 1.38128281e+001 ]
      - [ 4.29775238e+001, 9.02350540e+001, 1.26945107e+002,
          3.55384216e+001, 3.55697632e+001, 1.26004143e+001 ]
      - [ 5.15050964e+001, 8.27485199e+001, 1.13409019e+002,
          3.66054497e+001, 3.68851242e+001, 1.08843107e+001 ]
      - [ 7.34317017e+001, 7.52413940e+001, 9.26326294e+001,
          3.65889320e+001, 3.60905418e+001, 9.75321674e+000 ]
      - [ 7.85567398e+001, 7.93391342e+001, 1.38428319e+000,
          4.23152809e+001, 3.95393028e+001, 5.33676672e+000 ]
      - [ 9.02802353e+001, 8.90315857e+001, 9.09387684e+000,
          4.95352936e+001, 6.01029510e+001, 2.32974663e+001 ]
      - [ 8.35596542e+001, 8.25093765e+001, 4.41441441e+000,
          5.87827530e+001, 1.13695824e+002, 3.03450699e+001 ]
      - [ 7.91170120e+001, 7.67759399e+001, 5.04260063e+000,
          4.69635162e+001, 1.08386055e+002, 5.64130630e+001 ]
      - [ 8.03225098e+001, 7.86635437e+001, 9.09468937e+000,
          5.97529297e+001, 6.51491852e+001, 3.59474182e+001 ]
      - [ 7.48796692e+001, 6.05779457e+001, 2.67782383e+001,
          3.78102188e+001, 3.97241859e+001, 1.20759563e+001 ]
      - [ 5.73033714e+001, 5.68194313e+001, 6.88277588e+001,
          3.64823074e+001, 3.83299751e+001, 1.11044378e+001 ]
      - [ 4.87078667e+001, 4.89833221e+001, 6.91732101e+001,
          3.53742905e+001, 3.77166290e+001, 1.07234287e+001 ]
      - [ 1.84370670e+001, 4.20784111e+001, 6.94404678e+001,
          3.87699814e+001, 3.79178467e+001, 1.07732162e+001 ]
      - [ 2.72190990e+001, 3.33071938e+001, 6.92365341e+001,
          3.69024658e+001, 3.94631119e+001, 1.04563475e+001 ]
      - [ 2.72191010e+001, 3.34406853e+001, 1.54370642e+001,
          4.09358788e+001, 4.34292679e+001, 6.83413124e+000 ]
      - [ 5.01404457e+001, 5.18475685e+001, 1.21669550e+001,
          3.79960594e+001, 5.20102234e+001, 8.14813042e+000 ]
      - [ 7.30618134e+001, 6.25790367e+001, 1.63517513e+001,
          4.68020439e+001, 5.63843727e+001, 8.11933136e+000 ]
      - [ 6.16011162e+001, 6.45165100e+001, 1.83961506e+001,
          4.68480263e+001, 5.76820488e+001, 7.01848841e+000 ]
      - [ 7.31392822e+001, 6.44467545e+001, 2.41636658e+001,
          4.45894928e+001, 5.77868080e+001, 7.55184221e+000 ]
      - [ 7.34222717e+001, 6.63374405e+001, 6.18400497e+001,
          4.46317711e+001, 5.64375801e+001, 8.13503647e+000 ]
      - [ 6.44865112e+001, 6.34968376e+001, 8.76903458e+001,
          4.72122459e+001, 5.13236389e+001, 1.07653866e+001 ]
      - [ 6.87251129e+001, 5.85735664e+001, 8.85828705e+001,
          4.70106049e+001, 4.74813080e+001, 1.21327028e+001 ]
      - [ 5.56975822e+001, 5.40079765e+001, 8.94604874e+001,
          4.45252533e+001, 4.35789185e+001, 1.36448002e+001 ]
      - [ 4.92806053e+001, 5.07794495e+001, 8.99745865e+001,
          3.88181953e+001, 4.06484032e+001, 1.54049435e+001 ]
      - [ 4.29783363e+001, 4.94121132e+001, 8.99007263e+001,
          3.54287529e+001, 3.90889702e+001, 1.89610996e+001 ]
      - [ 4.29777298e+001, 4.58693085e+001, 6.96037674e+001,
          3.23253860e+001, 4.04265327e+001, 2.35819168e+001 ]
      - [ 9.03705368e+001, 8.37298508e+001, 3.01070080e+001,
          2.79162655e+001, 2.56264305e+001, 2.66104965e+001 ]
      - [ 9.58802032e+001, 8.81854095e+001, 3.04233627e+001,
          2.73414974e+001, 1.67866840e+001, 2.26983395e+001 ]
      - [ 9.59011688e+001, 9.05448227e+001, 1.77169456e+001,
          2.89369659e+001, 1.50795946e+001, 2.30643673e+001 ]
      - [ 9.02526169e+001, 8.62683716e+001, 1.14669533e+001,
          2.16245937e+001, 4.33115845e+001, 8.48835907e+001 ]
      - [ 9.02504044e+001, 8.86850281e+001, 1.43709421e+001,
          3.99874191e+001, 6.04106789e+001, 1.12698723e+002 ]
      - [ 9.02406769e+001, 9.39594498e+001, 1.31269007e+001,
          7.05069113e+000, 8.07208099e+001, 1.36438263e+002 ]
      - [ 8.60027618e+001, 9.87206802e+001, 1.39853258e+001,
          4.10595932e+001, 9.56403046e+001, 1.57684525e+002 ]
      - [ 1.00280914e+002, 1.07505287e+002, 1.57586641e+001,
          4.81827087e+001, 1.22542625e+002, 1.66211639e+002 ]
      - [ 1.14606743e+002, 1.15048141e+002, 1.61387596e+001,
          1.21013016e+002, 1.52457977e+002, 1.88179337e+002 ]
      - [ 1.14606750e+002, 1.24404816e+002, 1.78091450e+001,
          5.99231873e+001, 1.59098236e+002, 1.92609100e+002 ]
      - [ 1.44691010e+002, 1.33726791e+002, 1.69372463e+001,
          5.98982124e+001, 1.71795380e+002, 2.15973160e+002 ]
      - [ 1.44691010e+002, 1.42377518e+002, 1.47434492e+001,
          1.37464859e+002, 1.77428589e+002, 2.19134079e+002 ]
      - [ 1.56182983e+002, 1.48175690e+002, 1.50711937e+001,
          6.69815979e+001, 1.88445740e+002, 2.25109451e+002 ]
      - [ 1.56308914e+002, 1.54044464e+002, 1.44891624e+001,
          1.17567375e+002, 2.00607422e+002, 2.22696609e+002 ]
      - [ 1.58840317e+002, 1.55557266e+002, 1.27423906e+001,
          1.41013382e+002, 2.00886139e+002, 2.21060699e+002 ]
      - [ 1.59021317e+002, 1.57973145e+002, 1.34371853e+001,
          1.76267288e+002, 1.88728058e+002, 2.11243561e+002 ]
      - [ 1.51764404e+002, 1.58429504e+002, 1.20874557e+001,
          5.18163986e+001, 1.82096939e+002, 2.11054626e+002 ]
      - [ 1.51709961e+002, 1.59754135e+002, 2.23661957e+001,
          8.69454422e+001, 1.62171829e+002, 1.87400421e+002 ]
      - [ 1.62008728e+002, 1.60625885e+002, 3.00060310e+001,
          1.22188507e+002, 1.53768478e+002, 1.75383606e+002 ]
      - [ 1.56244843e+002, 1.53792297e+002, 7.63757553e+001,
          1.18695816e+002, 1.27017960e+002, 1.51990082e+002 ]
      - [ 1.63427414e+002, 1.39635223e+002, 9.93405838e+001,
          1.01059906e+002, 1.04066345e+002, 1.34685043e+002 ]
      - [ 1.57438324e+002, 1.35627625e+002, 1.13520309e+002,
          9.06000519e+001, 8.23376846e+001, 1.25126625e+002 ]
      - [ 0., 1.26757332e+002, 1.22984322e+002, 3.64239540e+001,
          6.31407547e+001, 1.08724701e+002 ]
      - [ 4.29775658e+001, 1.13164352e+002, 1.33909912e+002,
          2.61121807e+001, 5.46361084e+001, 8.49808578e+001 ]
      - [ 2.86525421e+001, 9.97183075e+001, 1.40471436e+002,
          3.27931824e+001, 5.27561913e+001, 7.10003128e+001 ]
      - [ 3.47654800e+001, 8.63880615e+001, 1.46377930e+002,
          2.92251148e+001, 4.33639793e+001, 5.37590485e+001 ]
      - [ 3.54511261e+001, 7.73873596e+001, 1.33873306e+002,
          3.29001274e+001, 4.65015831e+001, 4.78741837e+001 ]
      - [ 4.94353409e+001, 7.51803284e+001, 1.22877693e+002,
          3.54020844e+001, 4.81895142e+001, 4.69595032e+001 ]
      - [ 4.98604469e+001, 6.34756432e+001, 1.14347275e+002,
          3.13457527e+001, 4.70671997e+001, 4.95395050e+001 ]
      - [ 5.00082169e+001, 5.69472580e+001, 1.05778641e+002,
          3.03869915e+001, 4.67874298e+001, 5.11826744e+001 ]
      - [ 5.00012817e+001, 5.53348274e+001, 9.31941299e+001,
          2.92671280e+001, 4.23029900e+001, 5.06447792e+001 ]
      - [ 5.56290588e+001, 5.35499001e+001, 8.10692368e+001,
          2.37533817e+001, 3.56092606e+001, 4.81994209e+001 ]
      - [ 6.16836929e+001, 5.23631477e+001, 6.68856964e+001,
          2.57241611e+001, 3.24311829e+001, 4.40237961e+001 ]
      - [ 6.17009697e+001, 5.57526588e+001, 5.49267464e+001,
          2.60056667e+001, 3.12899666e+001, 3.96268921e+001 ]
      - [ 6.16595993e+001, 6.02420387e+001, 4.22619057e+001,
          2.70063610e+001, 3.09670010e+001, 3.72725449e+001 ]
      - [ 6.59698715e+001, 6.45847855e+001, 2.78646507e+001,
          3.17192268e+001, 3.17035522e+001, 3.74100800e+001 ]
      - [ 9.45157700e+001, 1.02065445e+002, 7.82221222e+001,
          3.17038307e+001, 2.79721184e+001, 2.46366024e+001 ]
      - [ 1.07443810e+002, 1.04479019e+002, 1.02089447e+002,
          3.08115025e+001, 2.87768097e+001, 2.12249718e+001 ]
      - [ 7.16292114e+001, 9.57317810e+001, 1.07933525e+002,
          3.42680779e+001, 3.12266026e+001, 1.39482450e+001 ]
      - [ 4.29775276e+001, 9.07400131e+001, 1.07334702e+002,
          3.51701546e+001, 3.31302834e+001, 1.28046932e+001 ]
      - [ 7.18233719e+001, 8.40811081e+001, 1.05229881e+002,
          3.85878754e+001, 3.53769341e+001, 1.10463066e+001 ]
      - [ 7.87826309e+001, 7.96505814e+001, 9.37499771e+001,
          3.85557022e+001, 3.68881302e+001, 7.98022461e+000 ]
      - [ 7.32899017e+001, 7.50062103e+001, 7.51998062e+001,
          3.75003281e+001, 3.61039505e+001, 7.23801708e+000 ]
      - [ 6.88341599e+001, 7.15067139e+001, 3.68646355e+001,
          3.65063591e+001, 3.39600868e+001, 7.01005745e+000 ]
      - [ 7.71706238e+001, 7.42402725e+001, 2.32699146e+001,
          3.63092194e+001, 3.17900963e+001, 5.75325394e+000 ]
      - [ 9.45299072e+001, 9.02313843e+001, 9.23767376e+000,
          4.90642471e+001, 6.04390793e+001, 1.38853064e+001 ]
      - [ 9.01731339e+001, 8.65160904e+001, 9.88467598e+000,
          5.52524948e+001, 7.37935562e+001, 3.40845566e+001 ]
      - [ 8.75058594e+001, 8.10856400e+001, 8.48320389e+000,
          6.80035172e+001, 8.53432388e+001, 3.23198738e+001 ]
      - [ 7.61780930e+001, 7.84132996e+001, 1.14225483e+001,
          5.05251122e+001, 6.13456917e+001, 3.10211143e+001 ]
      - [ 7.74129028e+001, 6.86796036e+001, 2.08223095e+001,
          3.87949524e+001, 4.52960129e+001, 2.25081139e+001 ]
      - [ 6.87397766e+001, 5.88267899e+001, 3.21669617e+001,
          3.68164139e+001, 3.93356781e+001, 1.36322241e+001 ]
      - [ 5.73033752e+001, 5.95895309e+001, 9.37625122e+001,
          3.41590576e+001, 3.85670891e+001, 1.12513418e+001 ]
      - [ 3.58146095e+001, 5.12845306e+001, 9.42026749e+001,
          3.31543846e+001, 3.80528374e+001, 1.04818897e+001 ]
      - [ 1.59822178e+001, 4.41454773e+001, 9.46049576e+001,
          3.96798019e+001, 3.81009521e+001, 1.06727839e+001 ]
      - [ 1.85295563e+001, 3.48437538e+001, 9.45913086e+001,
          4.11047592e+001, 3.93586845e+001, 1.04961205e+001 ]
      - [ 2.72191010e+001, 3.72378502e+001, 8.99738770e+001,
          3.88979378e+001, 4.23364677e+001, 9.49807644e+000 ]
      - [ 6.16011162e+001, 4.96392632e+001, 1.18188696e+001,
          4.20237198e+001, 4.80202026e+001, 7.86767197e+000 ]
      - [ 8.02247009e+001, 6.87778702e+001, 1.67842083e+001,
          4.99522552e+001, 5.60255737e+001, 8.30909538e+000 ]
      - [ 7.30618210e+001, 7.14177094e+001, 1.75102730e+001,
          4.91203461e+001, 5.76588821e+001, 6.98364878e+000 ]
      - [ 8.02240601e+001, 6.78790970e+001, 2.88461952e+001,
          4.74384079e+001, 5.67183342e+001, 8.80772305e+000 ]
      - [ 7.42359695e+001, 6.43943253e+001, 3.23361397e+001,
          4.78992462e+001, 5.41708908e+001, 1.10043154e+001 ]
      - [ 6.87398148e+001, 5.84997826e+001, 3.80389709e+001,
          4.85480766e+001, 5.04778633e+001, 1.27311954e+001 ]
      - [ 6.44975357e+001, 5.27422562e+001, 4.14299660e+001,
          4.70626183e+001, 4.62643585e+001, 1.39453316e+001 ]
      - [ 5.50034409e+001, 4.72047577e+001, 4.45346031e+001,
          4.37015495e+001, 4.20816956e+001, 1.53880224e+001 ]
      - [ 4.98049507e+001, 4.37634010e+001, 4.49133644e+001,
          3.96272125e+001, 3.83387756e+001, 1.68357449e+001 ]
      - [ 5.00990639e+001, 4.37659454e+001, 3.92369576e+001,
          3.29474258e+001, 3.62921867e+001, 2.40587654e+001 ]
      - [ 9.45069885e+001, 8.24944000e+001, 3.10499725e+001,
          1.86678753e+001, 1.71792507e+001, 2.58507996e+001 ]
      - [ 1.04714951e+002, 8.51415787e+001, 3.12001991e+001,
          2.26486111e+001, 1.28221149e+001, 2.62084255e+001 ]
      - [ 7.74141312e+001, 8.68220062e+001, 9.65787601e+000,
          2.60402355e+001, 2.03086014e+001, 4.86016426e+001 ]
      - [ 8.17233887e+001, 8.67521439e+001, 8.67245960e+000,
          3.05280170e+001, 3.26421356e+001, 7.44289551e+001 ]
      - [ 8.16553268e+001, 8.74171753e+001, 9.72336483e+000,
          2.19971695e+001, 4.31374283e+001, 9.04572449e+001 ]
      - [ 9.02491379e+001, 9.51690674e+001, 1.09002790e+001,
          5.64955292e+001, 8.10075607e+001, 1.37984283e+002 ]
      - [ 1.00280846e+002, 9.96656342e+001, 1.19798508e+001,
          1.21036858e+002, 9.26857986e+001, 1.55097717e+002 ]
      - [ 1.00280891e+002, 1.07859711e+002, 1.38000250e+001,
          1.15161308e+002, 1.22584366e+002, 1.63667572e+002 ]
      - [ 1.14606743e+002, 1.14989479e+002, 1.43468628e+001,
          1.99779034e+001, 1.53301010e+002, 1.81817993e+002 ]
      - [ 1.14606750e+002, 1.24164406e+002, 1.61214428e+001,
          2.46764755e+001, 1.56081940e+002, 1.84989227e+002 ]
      - [ 1.44691010e+002, 1.32963654e+002, 1.55661440e+001,
          1.33104416e+002, 1.77933243e+002, 2.14802460e+002 ]
      - [ 1.56174835e+002, 1.46679977e+002, 1.49843655e+001,
          1.27119007e+001, 1.85712723e+002, 2.24193253e+002 ]
      - [ 1.56260895e+002, 1.51811447e+002, 1.45866432e+001,
          2.69194641e+001, 1.99016953e+002, 2.24302307e+002 ]
      - [ 1.58713882e+002, 1.52914963e+002, 1.35057564e+001,
          1.88018532e+001, 1.96068802e+002, 2.22172470e+002 ]
      - [ 1.58938843e+002, 1.54809631e+002, 1.41978130e+001,
          5.39439735e+001, 1.79329819e+002, 2.17959824e+002 ]
      - [ 1.59033829e+002, 1.54750183e+002, 1.26625614e+001,
          7.05076218e+001, 1.71190948e+002, 2.15142670e+002 ]
      - [ 1.48787292e+002, 1.55645645e+002, 2.15233192e+001,
          1.37488480e+002, 1.45331802e+002, 1.85068390e+002 ]
      - [ 1.47712402e+002, 1.56394135e+002, 2.72707920e+001,
          1.15175568e+002, 1.38505188e+002, 1.72721848e+002 ]
      - [ 1.56199570e+002, 1.48789352e+002, 6.69220657e+001,
          4.22893143e+001, 1.16678123e+002, 1.51044495e+002 ]
      - [ 1.63314346e+002, 1.38795837e+002, 9.06653442e+001,
          3.27673302e+001, 9.56555023e+001, 1.33874161e+002 ]
      - [ 1.63319977e+002, 1.39101669e+002, 1.06385246e+002,
          5.52304153e+001, 7.48685532e+001, 1.24269966e+002 ]
      - [ 1.71910110e+002, 1.34660202e+002, 1.17012451e+002,
          6.46313400e+001, 5.49580307e+001, 1.00815369e+002 ]
      - [ 2.05236695e-038, 1.25351440e+002, 1.29366043e+002,
          3.25370674e+001, 5.01561852e+001, 8.39972687e+001 ]
      - [ 2.36376419e+002, 1.16172394e+002, 1.37140381e+002,
          2.70154839e+001, 4.71365433e+001, 6.89115524e+001 ]
      - [ 9.45289917e+001, 8.89539566e+001, 8.23802185e+000,
          5.29071732e+001, 6.22398376e+001, 2.22086296e+001 ]
      - [ 8.12013168e+001, 7.82900314e+001, 9.57716942e+000,
          5.56278496e+001, 8.11227570e+001, 2.93029461e+001 ]
      - [ 8.11232300e+001, 7.71052628e+001, 9.25896931e+000,
          4.93055840e+001, 8.40202408e+001, 2.69301548e+001 ]
      - [ 8.41562653e+001, 8.27595901e+001, 4.22701550e+000,
          8.10686035e+001, 1.20176353e+002, 3.54588203e+001 ]
      - [ 8.01437836e+001, 7.48548813e+001, 1.47379532e+001,
          3.95548935e+001, 5.33791504e+001, 2.84940453e+001 ]
      - [ 9.02772675e+001, 8.57408752e+001, 7.20241404e+000,
          4.15648918e+001, 6.42833405e+001, 2.60059776e+001 ]
      - [ 8.32046738e+001, 8.45824127e+001, 8.46386337e+000,
          5.17883606e+001, 6.79973679e+001, 3.04758396e+001 ]
      - [ 7.86976013e+001, 7.50247574e+001, 1.46425447e+001,
          5.61926308e+001, 7.57955780e+001, 2.98193130e+001 ]
      - [ 8.03306580e+001, 7.93841858e+001, 1.41321650e+001,
          3.79774475e+001, 5.67227058e+001, 3.33883438e+001 ]
      - [ 8.01897354e+001, 7.48308029e+001, 1.61033077e+001,
          3.89588013e+001, 4.93719978e+001, 3.06481934e+001 ]
      - [ 8.10851517e+001, 8.49023056e+001, 1.10478172e+001,
          4.25760956e+001, 5.41557236e+001, 3.90827637e+001 ]
      - [ 8.30051422e+001, 8.34055710e+001, 7.03060579e+000,
          4.22447433e+001, 6.28229790e+001, 2.48577995e+001 ]
      - [ 7.90315475e+001, 8.17490540e+001, 8.75593185e+000,
          4.01036224e+001, 6.56620178e+001, 2.94580708e+001 ]
      - [ 7.90253143e+001, 7.94806366e+001, 1.10981483e+001,
          3.78681679e+001, 6.82960663e+001, 3.11823120e+001 ]
      - [ 7.75235748e+001, 7.20341949e+001, 1.79286823e+001,
          4.90737839e+001, 8.26682968e+001, 2.79772625e+001 ]
      - [ 7.80283127e+001, 7.87203751e+001, 6.50498676e+000,
          5.32843285e+001, 9.60478897e+001, 3.13166313e+001 ]
      - [ 8.03326035e+001, 7.82200241e+001, 1.34591360e+001,
          3.18999767e+001, 5.11105766e+001, 3.20359230e+001 ]
      - [ 8.03396301e+001, 8.00937347e+001, 6.66690779e+000,
          6.33611565e+001, 1.07872452e+002, 6.00578308e+001 ]
      - [ 7.88173294e+001, 8.03597260e+001, 5.69056225e+000,
          4.25799637e+001, 5.73802567e+001, 2.27040920e+001 ]
      - [ 7.96400146e+001, 7.82473221e+001, 8.30296898e+000,
          3.64089584e+001, 5.87068901e+001, 2.66563530e+001 ]
      - [ 7.30892715e+001, 7.52759857e+001, 1.19034081e+001,
          3.57111168e+001, 6.01766624e+001, 2.77321262e+001 ]
      - [ 7.77999725e+001, 7.10232315e+001, 1.75086384e+001,
          3.90171547e+001, 6.11490784e+001, 2.76902103e+001 ]
      - [ 7.96844254e+001, 7.79784470e+001, 7.06442308e+000,
          5.39072952e+001, 9.21241989e+001, 2.78288536e+001 ]
      - [ 7.92047043e+001, 8.00467377e+001, 6.58980083e+000,
          5.74861870e+001, 9.57411194e+001, 2.85186424e+001 ]
      - [ 8.03708878e+001, 7.67102280e+001, 1.37492409e+001,
          3.41728630e+001, 4.56920395e+001, 2.67895260e+001 ]
      - [ 7.79885864e+001, 7.91434021e+001, 8.25166988e+000,
          3.98948746e+001, 6.29173470e+001, 3.79038849e+001 ]
      - [ 7.32469711e+001, 7.61270294e+001, 8.81457901e+000,
          4.00195274e+001, 5.14248314e+001, 2.05599842e+001 ]
      - [ 7.30947113e+001, 7.22297897e+001, 1.30736876e+001,
          3.98743629e+001, 5.20398064e+001, 2.09364719e+001 ]
      - [ 7.88052292e+001, 7.65811539e+001, 7.68687963e+000,
          5.52029533e+001, 9.75537567e+001, 2.78066406e+001 ]
      - [ 7.97799606e+001, 7.91434631e+001, 6.63402939e+000,
          6.61407318e+001, 9.99589310e+001, 3.00061817e+001 ]
      - [ 8.25220108e+001, 8.13031006e+001, 5.09974337e+000,
          5.28989792e+001, 1.08645233e+002, 3.62976913e+001 ]
      - [ 8.05933456e+001, 7.85007935e+001, 8.28708839e+000,
          3.40670853e+001, 6.35464745e+001, 3.41103783e+001 ]
      - [ 7.46908722e+001, 6.97830048e+001, 1.50553331e+001,
          3.27795525e+001, 3.35375824e+001, 2.03758087e+001 ]
      - [ 8.10082855e+001, 8.07452545e+001, 3.65828776e+000,
          6.18935242e+001, 1.00790649e+002, 5.25457687e+001 ]
      - [ 8.01742477e+001, 7.75516968e+001, 6.80403090e+000,
          4.09262428e+001, 6.89623947e+001, 4.29445992e+001 ]
      - [ 8.12453232e+001, 7.43757629e+001, 9.95815659e+000,
          3.92388191e+001, 5.51711922e+001, 2.61262627e+001 ]
      - [ 7.56334000e+001, 7.73603134e+001, 9.27639103e+000,
          4.38434601e+001, 4.99934616e+001, 1.66877708e+001 ]
      - [ 7.33377609e+001, 7.50072708e+001, 1.09466505e+001,
          4.35311394e+001, 4.87579308e+001, 1.75390282e+001 ]
      - [ 7.87757950e+001, 7.51291199e+001, 9.55769920e+000,
          5.63622589e+001, 1.05064690e+002, 2.70136414e+001 ]
      - [ 7.42017746e+001, 7.51737900e+001, 9.65316677e+000,
          3.74740181e+001, 5.52716064e+001, 3.30701141e+001 ]
      - [ 7.41361923e+001, 7.30579758e+001, 1.08659458e+001,
          3.16411552e+001, 4.35570908e+001, 2.79339409e+001 ]
      - [ 6.87776337e+001, 7.08731461e+001, 1.40853853e+001,
          3.12349834e+001, 3.43710823e+001, 2.21850891e+001 ]
      - [ 7.88650513e+001, 8.08021088e+001, 2.92842793e+000,
          6.81226578e+001, 1.17956841e+002, 3.86121521e+001 ]
      - [ 7.64152451e+001, 7.63715210e+001, 6.94828224e+000,
          4.17741241e+001, 7.04362946e+001, 4.53093071e+001 ]
      - [ 7.72111740e+001, 7.25853195e+001, 1.01274281e+001,
          3.99308510e+001, 5.54300194e+001, 2.68901844e+001 ]
      - [ 7.87524490e+001, 7.35865479e+001, 1.35633869e+001,
          5.99859657e+001, 1.09326111e+002, 2.84245968e+001 ]
      - [ 8.12353058e+001, 8.09151993e+001, 5.93784904e+000,
          6.69630508e+001, 1.02159935e+002, 3.25844727e+001 ]
      - [ 7.35494156e+001, 7.11692200e+001, 1.18886566e+001,
          4.22826881e+001, 4.72477913e+001, 2.95302181e+001 ]
      - [ 7.34665375e+001, 6.89489822e+001, 1.28611641e+001,
          3.52263908e+001, 3.80291862e+001, 2.52930679e+001 ]
      - [ 6.14603233e+001, 6.69230423e+001, 1.52708349e+001,
          3.27838821e+001, 3.13559895e+001, 2.05035648e+001 ]
      - [ 7.85793381e+001, 7.76705933e+001, 7.14819193e+000,
          4.72244225e+001, 7.87303009e+001, 4.68031502e+001 ]
      - [ 7.51152649e+001, 7.48321533e+001, 7.70758677e+000,
          4.10802040e+001, 6.71525879e+001, 4.17632942e+001 ]
      - [ 6.43401031e+001, 6.58893356e+001, 1.69867134e+001,
          4.00786705e+001, 4.63070679e+001, 2.51358433e+001 ]
      - [ 6.18964767e+001, 6.24104538e+001, 1.96451988e+001,
          4.09437447e+001, 4.33085480e+001, 2.04030342e+001 ]
      - [ 7.67825699e+001, 7.56949692e+001, 1.20558128e+001,
          4.57043991e+001, 5.36571083e+001, 1.49601145e+001 ]
      - [ 7.86344604e+001, 7.78994141e+001, 4.79297590e+000,
          6.74282379e+001, 1.07546303e+002, 3.15670376e+001 ]
      - [ 8.03353958e+001, 8.01327896e+001, 5.94500875e+000,
          6.58377380e+001, 9.40989075e+001, 3.58773575e+001 ]
      - [ 6.04146881e+001, 6.73085251e+001, 1.22540836e+001,
          3.84164772e+001, 4.27791748e+001, 2.96361389e+001 ]
      - [ 6.06282234e+001, 6.50251007e+001, 1.29108210e+001,
          3.61474495e+001, 3.49324226e+001, 2.41453056e+001 ]
      - [ 6.91220703e+001, 6.65344162e+001, 1.27128344e+001,
          4.46684608e+001, 6.79751205e+001, 4.05765572e+001 ]
      - [ 7.71155624e+001, 6.88625717e+001, 1.10214224e+001,
          4.09458885e+001, 5.09188042e+001, 3.05170898e+001 ]
      - [ 6.43110886e+001, 6.37151146e+001, 1.73105373e+001,
          4.49247894e+001, 4.49500427e+001, 2.75813007e+001 ]
      - [ 7.74758224e+001, 7.53137894e+001, 1.37296944e+001,
          6.23261032e+001, 1.05843460e+002, 3.47306366e+001 ]
      - [ 7.65572433e+001, 7.72620087e+001, 4.72056770e+000,
          5.82926788e+001, 1.05079033e+002, 3.34437294e+001 ]
      - [ 8.02717819e+001, 7.92645264e+001, 5.66533232e+000,
          5.74646912e+001, 9.24989090e+001, 3.64466629e+001 ]
      - [ 7.99881897e+001, 7.73512878e+001, 8.68685436e+000,
          4.69524193e+001, 8.24756546e+001, 5.13823433e+001 ]
      - [ 7.73716888e+001, 7.46456909e+001, 9.67057705e+000,
          3.64855995e+001, 7.07948990e+001, 4.83630981e+001 ]
      - [ 8.17911148e+001, 7.46572495e+001, 1.14762783e+001,
          4.79512100e+001, 5.60111160e+001, 1.70917206e+001 ]
      - [ 7.71514740e+001, 7.46557617e+001, 1.84507008e+001,
          5.67741966e+001, 1.02246498e+002, 3.65639305e+001 ]
      - [ 7.70457611e+001, 7.67501907e+001, 6.50068045e+000,
          5.75506973e+001, 1.01987122e+002, 3.56576271e+001 ]
      - [ 7.91074753e+001, 8.22814941e+001, 3.75501370e+000,
          4.47873726e+001, 7.92200851e+001, 3.44475060e+001 ]
      - [ 7.67053146e+001, 7.54920349e+001, 9.07583809e+000,
          4.11814537e+001, 7.71079559e+001, 5.16680412e+001 ]
      - [ 6.88150940e+001, 6.76824951e+001, 1.06723194e+001,
          3.64266434e+001, 5.75597115e+001, 4.65754776e+001 ]
      - [ 7.31636734e+001, 6.24064255e+001, 1.36223497e+001,
          4.17784920e+001, 4.79953384e+001, 3.51505241e+001 ]
      - [ 7.30780487e+001, 7.40263977e+001, 1.05382290e+001,
          5.06723709e+001, 5.50983582e+001, 1.73606434e+001 ]
      - [ 7.62747803e+001, 7.65398407e+001, 8.08738327e+000,
          4.80404587e+001, 9.88915787e+001, 3.71209641e+001 ]
      - [ 7.63505936e+001, 7.84359665e+001, 8.80833244e+000,
          4.39388847e+001, 8.44259338e+001, 4.44243546e+001 ]
      - [ 7.92032471e+001, 8.19912338e+001, 2.81456590e+000,
          5.53559799e+001, 1.05503700e+002, 4.58003807e+001 ]
      - [ 7.91117935e+001, 8.12763290e+001, 2.03306937e+000,
          5.51847115e+001, 1.10616058e+002, 4.58565140e+001 ]
      - [ 6.58358536e+001, 7.24689102e+001, 1.14383373e+001,
          5.26943703e+001, 5.29013214e+001, 1.94835129e+001 ]
      - [ 7.82632523e+001, 7.66790924e+001, 1.14277697e+001,
          4.59136810e+001, 9.49254837e+001, 3.89235420e+001 ]
      - [ 8.28995590e+001, 8.31615753e+001, 2.33591413e+000,
          4.00331383e+001, 7.91962128e+001, 3.65152359e+001 ]
      - [ 8.53323059e+001, 8.48887405e+001, 5.07683229e+000,
          6.57865524e+001, 9.01498184e+001, 3.67547150e+001 ]
      - [ 6.58505859e+001, 7.10977249e+001, 9.71470547e+000,
          4.66255417e+001, 5.22033691e+001, 1.98569145e+001 ]
      - [ 8.25243530e+001, 8.21061554e+001, 5.08444118e+000,
          4.00716286e+001, 6.47240753e+001, 2.90450687e+001 ]
      - [ 8.28344269e+001, 8.29553299e+001, 3.76061225e+000,
          4.21214790e+001, 7.34015503e+001, 3.14803619e+001 ]
      - [ 7.90399170e+001, 7.37020950e+001, 1.71830368e+001,
          5.05321960e+001, 7.48363800e+001, 2.75911980e+001 ]
      - [ 8.05490341e+001, 8.15050888e+001, 4.78629398e+000,
          4.93493881e+001, 6.28232498e+001, 2.72399769e+001 ]
      - [ 8.43364105e+001, 8.28977432e+001, 7.96322823e+000,
          6.76416473e+001, 8.69574280e+001, 3.53544998e+001 ]
      - [ 7.40507660e+001, 7.44835205e+001, 1.38409729e+001,
          5.64659309e+001, 8.01783600e+001, 3.01970119e+001 ]
      - [ 8.45659943e+001, 8.30183411e+001, 4.59917402e+000,
          5.59445267e+001, 8.24707794e+001, 3.07060623e+001 ]
      - [ 8.01355057e+001, 7.91845016e+001, 1.28494768e+001,
          5.99651337e+001, 8.63494110e+001, 2.80244522e+001 ]
      - [ 8.46494522e+001, 8.28530121e+001, 5.12540865e+000,
          6.41418686e+001, 8.23885956e+001, 2.86802311e+001 ]
      - [ 7.19871216e+001, 7.48061371e+001, 5.13197851e+000,
          6.81950226e+001, 9.56950150e+001, 3.69649696e+001 ]
      - [ 7.27638779e+001, 7.48728790e+001, 2.99350643e+000,
          6.31850624e+001, 9.09902878e+001, 3.85667648e+001 ]
      - [ 7.27576141e+001, 7.45027847e+001, 3.32636929e+000,
          6.27092819e+001, 8.60809402e+001, 3.87046089e+001 ]
      - [ 7.26547318e+001, 7.41278152e+001, 3.74366665e+000,
          5.62394371e+001, 7.86742096e+001, 3.77264214e+001 ]
      - [ 7.07129440e+001, 6.46589127e+001, 1.60647697e+001,
          4.54780235e+001, 5.69411392e+001, 2.50011883e+001 ]
      - [ 7.45312424e+001, 7.57362061e+001, 6.85780811e+000,
          2.80717220e+001, 3.18887596e+001, 3.25454559e+001 ]
      - [ 7.68639679e+001, 7.61310654e+001, 6.82065916e+000,
          3.63830681e+001, 3.62400780e+001, 2.98545551e+001 ]
      - [ 7.70868530e+001, 7.68206635e+001, 7.61575317e+000,
          2.12381897e+001, 3.80215225e+001, 5.94039803e+001 ]
      - [ 7.64525528e+001, 8.08817291e+001, 6.65958643e+000,
          4.09929428e+001, 4.74591446e+001, 2.54622211e+001 ]
      - [ 7.16541595e+001, 7.33947830e+001, 5.96417332e+000,
          5.42725372e+001, 8.96610107e+001, 3.67369041e+001 ]
      - [ 7.18143616e+001, 7.31231003e+001, 4.01181936e+000,
          5.05269470e+001, 6.85852203e+001, 3.52150192e+001 ]
      - [ 6.59072723e+001, 6.04714165e+001, 1.76512127e+001,
          4.14735069e+001, 5.15951195e+001, 2.21516151e+001 ]
      - [ 7.32327118e+001, 7.27071228e+001, 8.42892075e+000,
          4.35032539e+001, 6.53640060e+001, 2.59272041e+001 ]
      - [ 7.70156479e+001, 7.98793564e+001, 7.41392088e+000,
          3.63088417e+001, 4.01583710e+001, 2.81173439e+001 ]
      - [ 8.10766602e+001, 8.15714035e+001, 8.85631657e+000,
          3.53373528e+001, 3.64158783e+001, 2.63042297e+001 ]
      - [ 7.09506226e+001, 6.74852371e+001, 8.00180435e+000,
          4.37290878e+001, 7.34048157e+001, 2.46101570e+001 ]
      - [ 6.59001312e+001, 5.63064919e+001, 1.85909767e+001,
          4.32607117e+001, 4.44188385e+001, 2.09145260e+001 ]
      - [ 7.38809738e+001, 7.08459854e+001, 9.09591675e+000,
          3.29720154e+001, 5.67166710e+001, 2.60136490e+001 ]
      - [ 7.34758301e+001, 7.58584747e+001, 8.26342106e+000,
          3.96032295e+001, 6.83722000e+001, 3.64284821e+001 ]
      - [ 7.42678452e+001, 7.57640839e+001, 4.41586256e+000,
          4.34422188e+001, 3.09390182e+001, 2.67245083e+001 ]
      - [ 7.92863083e+001, 7.81421204e+001, 9.42298412e+000,
          5.66225510e+001, 7.51467361e+001, 2.47761917e+001 ]
      - [ 7.18158493e+001, 7.20376663e+001, 5.69855833e+000,
          5.30868492e+001, 8.10212173e+001, 2.78084774e+001 ]
      - [ 7.35130692e+001, 6.84187241e+001, 9.45022774e+000,
          3.66504135e+001, 4.86035194e+001, 2.71683769e+001 ]
      - [ 7.42610550e+001, 7.42464142e+001, 8.50852871e+000,
          3.85582809e+001, 6.22945442e+001, 3.87232399e+001 ]
      - [ 7.35498047e+001, 7.76190262e+001, 7.07896185e+000,
          3.19419708e+001, 4.10783234e+001, 5.31324692e+001 ]
      - [ 8.59249954e+001, 8.27102509e+001, 5.25809145e+000,
          5.16052284e+001, 7.63493347e+001, 3.23003960e+001 ]
      - [ 7.27343674e+001, 7.30755234e+001, 5.40006113e+000,
          5.50139275e+001, 8.75026245e+001, 3.43545303e+001 ]
      - [ 6.58502350e+001, 6.87436600e+001, 1.15203257e+001,
          4.33860130e+001, 5.51549530e+001, 3.42302666e+001 ]
      - [ 7.41324615e+001, 7.13061218e+001, 2.09445000e+001,
          3.18099060e+001, 3.93537102e+001, 2.59167252e+001 ]
      - [ 6.57667389e+001, 6.62244568e+001, 1.02117357e+001,
          3.66032982e+001, 4.38946724e+001, 2.74438229e+001 ]
      - [ 7.53972702e+001, 7.26592941e+001, 9.36719131e+000,
          3.65731735e+001, 5.86486244e+001, 3.92637215e+001 ]
      - [ 8.14205399e+001, 7.68734894e+001, 8.77728271e+000,
          3.72641945e+001, 7.50204544e+001, 4.49646835e+001 ]
      - [ 7.43226624e+001, 7.65308609e+001, 3.49678493e+000,
          3.77155190e+001, 4.47322426e+001, 4.85222816e+001 ]
      - [ 6.97277451e+001, 7.06254959e+001, 9.74393845e+000,
          3.42491264e+001, 6.24875221e+001, 4.09857559e+001 ]
      - [ 7.30070801e+001, 7.13958740e+001, 1.34695196e+001,
          3.18926811e+001, 5.69265594e+001, 3.67245560e+001 ]
      - [ 7.68465576e+001, 6.72513428e+001, 1.46253128e+001,
          4.14346733e+001, 4.70431900e+001, 3.15810909e+001 ]
      - [ 7.32955475e+001, 7.08787079e+001, 1.05780821e+001,
          3.42321091e+001, 5.45294647e+001, 3.94608345e+001 ]
      - [ 8.14449387e+001, 7.55020676e+001, 1.01564589e+001,
          3.64459190e+001, 7.07327271e+001, 4.47691422e+001 ]
      - [ 7.91522827e+001, 7.81704102e+001, 9.15763569e+000,
          4.93547058e+001, 8.31123962e+001, 4.45838127e+001 ]
      - [ 7.35264053e+001, 7.28851242e+001, 1.22425985e+001,
          3.95235596e+001, 3.91338997e+001, 2.74190636e+001 ]
      - [ 7.63279037e+001, 7.53469620e+001, 1.02686586e+001,
          3.04188919e+001, 3.53385811e+001, 2.65756092e+001 ]
      - [ 7.17927017e+001, 7.35570297e+001, 3.16481018e+000,
          3.85796356e+001, 7.91405792e+001, 4.21718712e+001 ]
      - [ 7.83417511e+001, 7.62814789e+001, 5.77643299e+000,
          5.01879845e+001, 5.96180038e+001, 4.13934326e+001 ]
      - [ 7.32714233e+001, 6.89984741e+001, 1.02492142e+001,
          3.52382736e+001, 4.90713463e+001, 3.56600227e+001 ]
      - [ 7.42356110e+001, 7.50112534e+001, 9.42655277e+000,
          5.42355194e+001, 5.15111618e+001, 3.35528526e+001 ]
      - [ 7.72631912e+001, 7.76087189e+001, 9.16790009e+000,
          3.05466576e+001, 3.89825630e+001, 2.56781750e+001 ]
      - [ 7.35011597e+001, 7.63280029e+001, 5.91895771e+000,
          2.70882664e+001, 3.82771645e+001, 5.60343018e+001 ]
      - [ 7.33625870e+001, 6.80635910e+001, 9.94313145e+000,
          4.00707703e+001, 4.44802780e+001, 3.33931656e+001 ]
      - [ 8.18683167e+001, 7.98949890e+001, 1.07939978e+001,
          4.80677452e+001, 5.63441505e+001, 3.33224487e+001 ]
      - [ 7.42073212e+001, 7.54329681e+001, 4.65971279e+000,
          3.04866772e+001, 3.62748413e+001, 3.84433670e+001 ]
      - [ 7.86046219e+001, 7.19396820e+001, 1.39213629e+001,
          4.93717842e+001, 6.22517433e+001, 2.48862839e+001 ]
      - [ 8.13536911e+001, 7.70043030e+001, 9.90958023e+000,
          4.03851776e+001, 5.58403931e+001, 2.27647133e+001 ]
      - [ 6.62111588e+001, 7.08244247e+001, 9.88142395e+000,
          3.69083519e+001, 4.35126114e+001, 2.23412457e+001 ]
      - [ 7.31421204e+001, 7.58940430e+001, 1.36946821e+001,
          4.46595421e+001, 4.58690300e+001, 3.46063957e+001 ]
      - [ 7.06092987e+001, 7.44779739e+001, 3.99998212e+000,
          6.83552704e+001, 1.01432076e+002, 4.62754707e+001 ]
      - [ 7.47240372e+001, 7.78912125e+001, 3.78109288e+000,
          5.04092331e+001, 9.28465881e+001, 3.87506752e+001 ]
      - [ 7.89183960e+001, 7.97165146e+001, 4.91699743e+000,
          6.20695839e+001, 1.00517502e+002, 4.78865662e+001 ]
      - [ 7.45331879e+001, 7.54752274e+001, 5.01637268e+000,
          3.29463005e+001, 3.34394302e+001, 2.84744644e+001 ]
      - [ 7.41457138e+001, 7.44172897e+001, 6.00436640e+000,
          2.97416229e+001, 3.65864754e+001, 3.53305779e+001 ]
      - [ 7.47559128e+001, 7.63226624e+001, 3.44457316e+000,
          3.57889023e+001, 3.72830429e+001, 3.59567184e+001 ]
      - [ 7.55120239e+001, 7.49253464e+001, 4.95096350e+000,
          3.62958031e+001, 3.73597031e+001, 4.18556252e+001 ]
      - [ 7.34882431e+001, 7.36028214e+001, 5.93671465e+000,
          3.30034027e+001, 4.03209419e+001, 4.73224411e+001 ]
      - [ 7.31940308e+001, 7.29164658e+001, 6.74036789e+000,
          3.38238487e+001, 4.30031586e+001, 5.33995590e+001 ]
      - [ 6.87715225e+001, 6.64165268e+001, 1.52681465e+001,
          3.90174141e+001, 5.73997459e+001, 2.34879932e+001 ]
      - [ 7.60584412e+001, 7.23895264e+001, 1.54519854e+001,
          4.48146019e+001, 6.30775375e+001, 2.45924664e+001 ]
      - [ 8.34047623e+001, 7.60119858e+001, 1.38291550e+001,
          4.94345779e+001, 6.51619949e+001, 2.57532978e+001 ]
      - [ 8.08201370e+001, 8.20295029e+001, 5.06555891e+000,
          6.11260185e+001, 1.07076164e+002, 3.89196434e+001 ]
      - [ 7.34212646e+001, 6.92262039e+001, 9.36198997e+000,
          4.11994057e+001, 4.30760307e+001, 2.62577515e+001 ]
      - [ 9.12397766e+001, 8.41383133e+001, 1.08982325e+001,
          4.79294281e+001, 7.44471741e+001, 2.51767311e+001 ]
      - [ 7.36115799e+001, 7.58410339e+001, 3.48584723e+000,
          3.96733398e+001, 4.02579803e+001, 3.83254662e+001 ]
      - [ 6.87808762e+001, 7.27828674e+001, 5.80232430e+000,
          3.08258705e+001, 4.53067665e+001, 5.13504829e+001 ]
      - [ 6.87243805e+001, 5.95651741e+001, 1.69065590e+001,
          4.47217445e+001, 4.61337547e+001, 2.28421574e+001 ]
      - [ 6.87995987e+001, 6.72447281e+001, 1.39809408e+001,
          4.23305092e+001, 5.25058556e+001, 2.19431858e+001 ]
      - [ 7.31712418e+001, 7.24547806e+001, 1.40915890e+001,
          4.55074730e+001, 5.79088402e+001, 2.31557331e+001 ]
      - [ 7.14997635e+001, 7.28929520e+001, 1.01849260e+001,
          3.31303291e+001, 4.19240875e+001, 1.67628498e+001 ]
      - [ 7.46711426e+001, 8.27714767e+001, 1.33138103e+001,
          3.99385872e+001, 4.81299133e+001, 2.75040321e+001 ]
      - [ 8.20914230e+001, 8.18757858e+001, 3.20995808e+000,
          6.96352539e+001, 1.18546188e+002, 3.41491127e+001 ]
      - [ 7.04677505e+001, 7.07101822e+001, 8.34055996e+000,
          3.19814205e+001, 4.65152016e+001, 2.59382076e+001 ]
      - [ 8.00036926e+001, 8.24487457e+001, 8.41119766e+000,
          6.10216751e+001, 9.05598679e+001, 2.47586403e+001 ]
      - [ 7.75840149e+001, 7.69038239e+001, 4.11063576e+000,
          3.17619686e+001, 3.81534767e+001, 3.32103271e+001 ]
      - [ 7.72842178e+001, 7.50409698e+001, 3.87068725e+000,
          3.17445927e+001, 4.05509567e+001, 3.75358696e+001 ]
      - [ 6.87767792e+001, 7.32574387e+001, 5.40156412e+000,
          3.73007774e+001, 4.01840782e+001, 4.28228302e+001 ]
      - [ 6.87855606e+001, 6.91145096e+001, 9.60518742e+000,
          3.63904877e+001, 3.33747673e+001, 1.90456486e+001 ]
      - [ 7.17364502e+001, 7.15688782e+001, 9.69731140e+000,
          4.35821915e+001, 3.44027023e+001, 2.19593143e+001 ]
      - [ 7.62121582e+001, 8.11125259e+001, 1.07451344e+001,
          5.16755905e+001, 6.48904877e+001, 3.30247879e+001 ]
      - [ 6.44914856e+001, 6.49541397e+001, 1.06856775e+001,
          3.25042763e+001, 3.13027267e+001, 1.63556061e+001 ]
      - [ 8.16958084e+001, 8.33425293e+001, 4.34071922e+000,
          7.62177048e+001, 1.16950027e+002, 3.76534996e+001 ]
      - [ 7.86090698e+001, 7.74398956e+001, 4.42919350e+000,
          4.02821884e+001, 3.89993248e+001, 2.16472206e+001 ]
      - [ 7.30750427e+001, 7.58095856e+001, 3.83980799e+000,
          4.23383484e+001, 4.31574364e+001, 3.32851791e+001 ]
      - [ 7.30349731e+001, 7.36567688e+001, 5.12433052e+000,
          4.30539474e+001, 4.54596443e+001, 3.78965988e+001 ]
      - [ 7.46674881e+001, 7.12379150e+001, 9.62347603e+000,
          3.86683807e+001, 3.97610626e+001, 1.75725498e+001 ]
      - [ 6.95590515e+001, 6.99386215e+001, 8.86341953e+000,
          3.85361214e+001, 2.84745369e+001, 2.12023582e+001 ]
      - [ 7.72425003e+001, 7.53499756e+001, 8.39246178e+000,
          4.43675537e+001, 3.53027611e+001, 2.44789925e+001 ]
      - [ 7.99818268e+001, 7.99726715e+001, 7.65476561e+000,
          4.60607719e+001, 4.62445068e+001, 2.42082310e+001 ]
      - [ 8.47467194e+001, 8.07897339e+001, 7.39757252e+000,
          4.72848282e+001, 5.49974937e+001, 2.29757290e+001 ]
      - [ 7.91387482e+001, 8.23466492e+001, 1.07099438e+001,
          4.83029900e+001, 7.17196960e+001, 3.38819122e+001 ]
      - [ 6.58270721e+001, 6.95506439e+001, 1.50369959e+001,
          3.75769463e+001, 6.13650742e+001, 5.00683022e+001 ]
      - [ 7.28767624e+001, 7.23318024e+001, 6.53685570e+000,
          3.65670853e+001, 4.85832405e+001, 3.90862808e+001 ]
      - [ 6.87822418e+001, 7.06259995e+001, 7.95561409e+000,
          3.30742149e+001, 4.65515671e+001, 4.60406570e+001 ]
      - [ 6.90447540e+001, 7.06624756e+001, 6.64699364e+000,
          3.67965355e+001, 4.86734505e+001, 2.13306503e+001 ]
      - [ 7.47155685e+001, 7.10149994e+001, 7.31190014e+000,
          4.00686150e+001, 4.24095154e+001, 1.92758942e+001 ]
      - [ 7.02143631e+001, 7.03385696e+001, 8.39648819e+000,
          3.99093971e+001, 3.78984375e+001, 1.68401947e+001 ]
      - [ 7.61637115e+001, 7.70003586e+001, 8.89533043e+000,
          3.57032928e+001, 3.25610237e+001, 2.64195442e+001 ]
      - [ 7.17560349e+001, 7.81339645e+001, 1.36832285e+001,
          4.00132370e+001, 5.71540565e+001, 3.61682205e+001 ]
      - [ 7.78040695e+001, 7.68011627e+001, 7.95165873e+000,
          3.62086372e+001, 5.02819138e+001, 2.76691132e+001 ]
      - [ 7.77020721e+001, 7.52905273e+001, 4.45872021e+000,
          4.00717926e+001, 4.96345291e+001, 3.07948627e+001 ]
      - [ 7.03310623e+001, 7.38588715e+001, 3.86037040e+000,
          4.60955963e+001, 5.16564636e+001, 3.82940712e+001 ]
      - [ 7.01753540e+001, 7.16140671e+001, 6.50320196e+000,
          3.87218742e+001, 5.33887177e+001, 4.20222206e+001 ]
      - [ 8.39315033e+001, 8.33474350e+001, 7.35814428e+000,
          5.50644073e+001, 8.76270447e+001, 2.81108398e+001 ]
      - [ 8.31176071e+001, 8.37514877e+001, 5.78952980e+000,
          5.09301376e+001, 9.85763626e+001, 2.86162777e+001 ]
      - [ 7.33424835e+001, 6.41727753e+001, 1.37281656e+001,
          4.21058044e+001, 4.54120636e+001, 2.17097149e+001 ]
      - [ 7.18738022e+001, 7.60072327e+001, 8.80042362e+000,
          3.66177025e+001, 6.86528854e+001, 4.58363647e+001 ]
      - [ 7.82507172e+001, 7.58130188e+001, 7.68530512e+000,
          4.11275482e+001, 6.13996506e+001, 3.98994446e+001 ]
      - [ 7.75310287e+001, 7.54665527e+001, 5.63133621e+000,
          4.59898148e+001, 5.73703461e+001, 3.45714836e+001 ]
      - [ 7.74467316e+001, 7.43633728e+001, 4.03202868e+000,
          5.04840202e+001, 5.62481918e+001, 3.90448074e+001 ]
      - [ 7.91015472e+001, 8.36210022e+001, 8.09903812e+000,
          5.14857521e+001, 6.53306274e+001, 2.49652767e+001 ]
      - [ 7.91234970e+001, 8.33669891e+001, 1.41419535e+001,
          3.99355621e+001, 5.29251289e+001, 2.31047592e+001 ]
      - [ 8.35586319e+001, 8.46130753e+001, 9.44187641e+000,
          5.27002831e+001, 7.84023895e+001, 2.82936592e+001 ]
      - [ 8.43707352e+001, 8.46931152e+001, 8.06605053e+000,
          5.50824471e+001, 9.02337952e+001, 2.91471882e+001 ]
      - [ 7.59629211e+001, 7.51892395e+001, 7.43011951e+000,
          4.97020645e+001, 6.57131042e+001, 4.07966652e+001 ]
      - [ 7.21854477e+001, 7.48153458e+001, 5.36063051e+000,
          5.13987465e+001, 6.07839775e+001, 3.83894653e+001 ]
      - [ 7.03453674e+001, 7.25335464e+001, 4.72825384e+000,
          2.90762806e+001, 5.17113609e+001, 4.20374565e+001 ]
      - [ 6.17824669e+001, 6.24455490e+001, 9.78666782e+000,
          3.91761093e+001, 5.17726898e+001, 3.75872269e+001 ]
      - [ 6.18718376e+001, 6.24744759e+001, 5.23599291e+000,
          4.09180717e+001, 5.09151230e+001, 3.31232643e+001 ]
      - [ 6.49466629e+001, 6.35334702e+001, 5.32417870e+000,
          3.88398209e+001, 4.62159348e+001, 2.78300362e+001 ]
      - [ 8.00099487e+001, 8.28316803e+001, 1.59843264e+001,
          4.48533440e+001, 5.09017067e+001, 2.36195850e+001 ]
      - [ 8.44721985e+001, 8.47222672e+001, 6.04922771e+000,
          6.36287498e+001, 9.02802353e+001, 3.78816338e+001 ]
      - [ 7.27779160e+001, 7.34259415e+001, 4.58995390e+000,
          4.35497284e+001, 5.88736115e+001, 4.56972961e+001 ]
      - [ 7.04541321e+001, 7.22032928e+001, 5.15496874e+000,
          2.85240211e+001, 5.26287308e+001, 4.68203011e+001 ]
      - [ 6.42407990e+001, 6.49283829e+001, 1.11122293e+001,
          3.99071999e+001, 5.56616783e+001, 3.09326763e+001 ]
      - [ 8.02211609e+001, 8.38695831e+001, 8.14003086e+000,
          4.77725716e+001, 5.99476814e+001, 2.56408882e+001 ]
      - [ 8.46108780e+001, 8.56724777e+001, 7.26331663e+000,
          5.42075653e+001, 8.05487137e+001, 3.68626251e+001 ]
      - [ 7.76579971e+001, 7.92724686e+001, 8.12234211e+000,
          4.59002838e+001, 1.01782181e+002, 5.62693710e+001 ]
      - [ 7.23081436e+001, 7.52151337e+001, 4.88450718e+000,
          3.40032768e+001, 6.29181252e+001, 4.36720352e+001 ]
      - [ 8.33923798e+001, 8.53953705e+001, 6.94951534e+000,
          4.21553307e+001, 6.95765152e+001, 2.91225967e+001 ]
      - [ 8.58580170e+001, 8.43703156e+001, 8.55664921e+000,
          4.11844368e+001, 5.60329704e+001, 2.34149857e+001 ]
      - [ 8.47763443e+001, 8.64580078e+001, 8.00730038e+000,
          4.82194023e+001, 7.36953201e+001, 3.66836166e+001 ]
      - [ 7.78441696e+001, 7.98097763e+001, 9.59167671e+000,
          4.58489761e+001, 9.08654861e+001, 4.41604118e+001 ]
      - [ 7.05265884e+001, 6.67483215e+001, 1.05927343e+001,
          4.12373199e+001, 5.48704567e+001, 2.57262783e+001 ]
      - [ 7.57116776e+001, 7.75581360e+001, 7.73438644e+000,
          4.21875763e+001, 6.57314835e+001, 4.29985962e+001 ]
      - [ 7.22809677e+001, 7.56923828e+001, 5.16266060e+000,
          3.41748199e+001, 5.95369835e+001, 4.50521698e+001 ]
      - [ 8.83991852e+001, 8.45414429e+001, 7.76720762e+000,
          3.64258995e+001, 5.32797966e+001, 2.46805897e+001 ]
      - [ 8.55971680e+001, 8.74280701e+001, 8.96355343e+000,
          4.80798988e+001, 6.77558212e+001, 3.81074219e+001 ]
      - [ 8.43299103e+001, 8.48832932e+001, 5.09954071e+000,
          4.88229637e+001, 6.75610504e+001, 4.45787964e+001 ]
      - [ 7.98753510e+001, 7.96288681e+001, 2.77567220e+000,
          7.63276672e+001, 1.24849861e+002, 3.42191887e+001 ]
      - [ 7.57179794e+001, 7.84731216e+001, 7.98315048e+000,
          3.53384628e+001, 6.25086021e+001, 4.84115181e+001 ]
      - [ 7.29788208e+001, 7.62803574e+001, 5.45962906e+000,
          3.98929100e+001, 5.93208923e+001, 5.22203636e+001 ]
      - [ 7.91555557e+001, 8.22589188e+001, 1.64188137e+001,
          3.64243431e+001, 4.78065872e+001, 2.40425434e+001 ]
      - [ 8.88101959e+001, 8.82495117e+001, 1.01190281e+001,
          4.73613014e+001, 6.10097656e+001, 3.05509319e+001 ]
      - [ 8.30757217e+001, 8.52883606e+001, 6.85351706e+000,
          4.72908783e+001, 5.70288277e+001, 3.36681290e+001 ]
      - [ 7.96302719e+001, 7.97394333e+001, 4.36254597e+000,
          6.10073738e+001, 8.33136520e+001, 3.13356724e+001 ]
      - [ 7.30134583e+001, 7.69866562e+001, 5.81447649e+000,
          3.76182060e+001, 5.66351051e+001, 5.79998856e+001 ]
      - [ 8.30358047e+001, 8.54587555e+001, 8.06820583e+000,
          4.49863167e+001, 5.12210350e+001, 3.05710468e+001 ]
      - [ 7.30594788e+001, 7.89298019e+001, 1.24464865e+001,
          3.97819252e+001, 7.18153229e+001, 4.27930183e+001 ]
      - [ 8.87280350e+001, 8.52018204e+001, 8.21353436e+000,
          4.83162575e+001, 5.12154312e+001, 3.06262226e+001 ]
      - [ 6.61103592e+001, 5.74626045e+001, 1.84102058e+001,
          3.80144958e+001, 5.29135056e+001, 1.79902763e+001 ]
      - [ 6.87320175e+001, 6.55420990e+001, 1.12138233e+001,
          4.34262390e+001, 5.86945190e+001, 2.18957710e+001 ]
      - [ 7.31515961e+001, 7.07343063e+001, 9.79450989e+000,
          5.08987389e+001, 6.78573303e+001, 2.69496288e+001 ]
      - [ 8.87033005e+001, 8.74074326e+001, 9.47783184e+000,
          5.40846024e+001, 6.06210976e+001, 2.63179970e+001 ]
      - [ 7.33221588e+001, 7.40309677e+001, 8.86076832e+000,
          5.51396675e+001, 7.90847626e+001, 2.93655434e+001 ]
      - [ 7.58751602e+001, 7.62565384e+001, 6.16774654e+000,
          6.22199783e+001, 8.66288986e+001, 2.92204170e+001 ]
      - [ 9.59696350e+001, 8.85251083e+001, 1.24455166e+001,
          5.61543274e+001, 6.74415665e+001, 3.21215477e+001 ]
      - [ 9.52629623e+001, 8.78520813e+001, 1.10507030e+001,
          4.23873024e+001, 6.61299286e+001, 3.22499390e+001 ]
      - [ 7.29952164e+001, 7.48636322e+001, 5.30426168e+000,
          5.88381462e+001, 9.87052536e+001, 3.81708908e+001 ]
      - [ 7.17756805e+001, 7.42850037e+001, 5.35836840e+000,
          6.32952499e+001, 1.02704269e+002, 4.12683487e+001 ]
      - [ 7.71301880e+001, 7.85464478e+001, 1.85610085e+001,
          4.13277130e+001, 6.35238419e+001, 3.79013824e+001 ]
      - [ 7.28599930e+001, 7.60396652e+001, 5.26183939e+000,
          5.37332001e+001, 7.30787201e+001, 2.89597244e+001 ]
      - [ 8.31933289e+001, 8.33509979e+001, 1.54734859e+001,
          4.13699188e+001, 6.40489883e+001, 3.56563377e+001 ]
      - [ 8.16629715e+001, 8.27847595e+001, 7.77955866e+000,
          4.47375221e+001, 6.35507698e+001, 3.84837074e+001 ]
      - [ 7.19230042e+001, 7.49693222e+001, 4.95610142e+000,
          5.85685081e+001, 8.63319931e+001, 3.17303391e+001 ]
      - [ 7.74787445e+001, 7.65422058e+001, 1.19379950e+001,
          5.28777771e+001, 7.81711349e+001, 4.39804764e+001 ]
      - [ 7.97617416e+001, 7.69902496e+001, 1.74944439e+001,
          4.32707558e+001, 6.77996750e+001, 3.98405685e+001 ]
      - [ 7.27810974e+001, 6.87992935e+001, 1.20722628e+001,
          4.85038490e+001, 7.23520813e+001, 2.88012142e+001 ]
      - [ 7.72279587e+001, 7.46900482e+001, 7.90714550e+000,
          6.68200378e+001, 8.31925125e+001, 3.00831890e+001 ]
      - [ 7.83563843e+001, 7.75738220e+001, 4.15733767e+000,
          5.42527084e+001, 8.66063080e+001, 2.92984715e+001 ]
      - [ 7.87349930e+001, 7.93478317e+001, 2.42497501e+001,
          4.47431488e+001, 6.25179405e+001, 3.17738895e+001 ]
      - [ 7.78223724e+001, 7.49614639e+001, 1.63135052e+001,
          4.93622665e+001, 7.52344589e+001, 4.05865250e+001 ]
      - [ 7.86126633e+001, 7.36793594e+001, 2.01283836e+001,
          4.56211777e+001, 6.46423340e+001, 3.45384560e+001 ]
      - [ 7.19907913e+001, 6.58260498e+001, 1.20227079e+001,
          4.42912521e+001, 7.09867783e+001, 3.07793751e+001 ]
      - [ 7.27439346e+001, 6.99356384e+001, 1.02473068e+001,
          5.73716507e+001, 7.47477188e+001, 3.20245972e+001 ]
      - [ 7.90206528e+001, 7.89350510e+001, 2.81862926e+000,
          5.41272545e+001, 7.86265640e+001, 2.30160599e+001 ]
      - [ 8.30567932e+001, 8.18967361e+001, 7.89099836e+000,
          5.39819069e+001, 7.00031815e+001, 3.52324409e+001 ]
      - [ 7.74254227e+001, 7.86732330e+001, 5.99616241e+000,
          3.86065178e+001, 5.41871300e+001, 3.51283836e+001 ]
      - [ 7.45999985e+001, 7.93247604e+001, 6.66219521e+000,
          3.86626549e+001, 5.18780289e+001, 3.11804276e+001 ]
      - [ 7.82664185e+001, 7.23588028e+001, 1.33112698e+001,
          5.52039146e+001, 7.84029160e+001, 3.87501297e+001 ]
      - [ 7.34276276e+001, 7.01089630e+001, 1.54895420e+001,
          4.33562622e+001, 6.84026108e+001, 3.28469582e+001 ]
      - [ 7.29524155e+001, 7.33229141e+001, 7.04654121e+000,
          4.57296181e+001, 7.47635269e+001, 2.97030563e+001 ]
      - [ 7.91596527e+001, 8.05179901e+001, 2.89573264e+000,
          6.60071869e+001, 1.04766632e+002, 5.53165092e+001 ]
      - [ 8.30923996e+001, 8.13167572e+001, 5.66054726e+000,
          2.57285309e+001, 4.88276443e+001, 4.57825546e+001 ]
      - [ 6.57089081e+001, 6.50313034e+001, 1.10850868e+001,
          4.03042679e+001, 6.31587334e+001, 3.91498795e+001 ]
      - [ 6.48034897e+001, 6.18724060e+001, 1.54733391e+001,
          4.58964882e+001, 5.74395409e+001, 3.32947502e+001 ]
      - [ 7.96276321e+001, 7.64386978e+001, 1.88986397e+001,
          4.81875877e+001, 6.00639458e+001, 2.94343014e+001 ]
      - [ 7.71027603e+001, 7.78153687e+001, 5.03795004e+000,
          4.81054153e+001, 6.04159737e+001, 3.45375404e+001 ]
      - [ 7.75278549e+001, 6.88152237e+001, 1.41513014e+001,
          6.19564056e+001, 7.61829758e+001, 4.00851784e+001 ]
      - [ 7.88505325e+001, 7.99184189e+001, 2.51191521e+000,
          7.29773483e+001, 1.08355850e+002, 5.55404129e+001 ]
      - [ 7.18197937e+001, 7.21838989e+001, 3.99222445e+000,
          3.37369461e+001, 7.56143112e+001, 4.76584396e+001 ]
      - [ 6.19244499e+001, 6.12982864e+001, 1.10022564e+001,
          4.10035210e+001, 5.98521614e+001, 3.41506157e+001 ]
      - [ 7.74183884e+001, 7.40075378e+001, 2.00966949e+001,
          4.18306046e+001, 5.70084305e+001, 3.21832657e+001 ]
      - [ 7.75834427e+001, 7.64892349e+001, 8.59996986e+000,
          4.58981018e+001, 5.80724144e+001, 3.26332817e+001 ]
      - [ 7.86332474e+001, 8.07353973e+001, 5.95640564e+000,
          3.51577301e+001, 3.64393387e+001, 4.31180611e+001 ]
      - [ 7.88052216e+001, 8.03249817e+001, 6.28041410e+000,
          3.15232296e+001, 2.69379253e+001, 3.79705238e+001 ]
      - [ 7.01982727e+001, 6.71511536e+001, 5.22855759e+000,
          3.66165390e+001, 6.16107483e+001, 4.04663963e+001 ]
      - [ 6.48021393e+001, 6.27434311e+001, 7.22044230e+000,
          4.01625710e+001, 5.88961525e+001, 3.79133034e+001 ]
      - [ 7.76308365e+001, 7.51573257e+001, 1.66194611e+001,
          4.36204033e+001, 6.19772110e+001, 3.16427135e+001 ]
      - [ 7.62397919e+001, 7.44786224e+001, 9.36625004e+000,
          4.15231552e+001, 5.38858871e+001, 3.36882935e+001 ]
      - [ 7.66621780e+001, 7.40728149e+001, 7.49877024e+000,
          3.65091476e+001, 5.00679932e+001, 3.37431450e+001 ]
      - [ 7.75923843e+001, 7.81048889e+001, 5.14193392e+000,
          3.63623047e+001, 2.92395000e+001, 3.77220230e+001 ]
      - [ 7.43164673e+001, 7.67622070e+001, 4.05297709e+000,
          2.71203251e+001, 5.55711098e+001, 4.87823448e+001 ]
      - [ 8.02028885e+001, 8.19896545e+001, 5.44542503e+000,
          3.05349140e+001, 3.70145607e+001, 4.39154778e+001 ]
      - [ 6.88018723e+001, 6.86658630e+001, 9.36024094e+000,
          4.57495346e+001, 6.07149315e+001, 3.66425896e+001 ]
      - [ 6.51218033e+001, 6.70711746e+001, 8.27947712e+000,
          2.93789463e+001, 3.19724655e+001, 2.31947231e+001 ]
      - [ 7.07326279e+001, 7.59736099e+001, 4.85058641e+000,
          2.69726620e+001, 4.65750809e+001, 4.28700180e+001 ]
      - [ 7.57935638e+001, 7.68584442e+001, 5.19184685e+000,
          3.49346962e+001, 3.24596748e+001, 3.79165688e+001 ]
      - [ 8.02028885e+001, 8.19899139e+001, 5.39087296e+000,
          3.27671623e+001, 4.45138893e+001, 4.30883331e+001 ]
      - [ 8.12114487e+001, 8.03490677e+001, 4.91623878e+000,
          4.73549843e+001, 8.13179016e+001, 3.10532284e+001 ]
      - [ 7.68295517e+001, 7.34928741e+001, 1.41316032e+001,
          3.65644646e+001, 5.89456825e+001, 3.35067291e+001 ]
      - [ 7.34328384e+001, 6.24282722e+001, 1.69898872e+001,
          3.87851791e+001, 5.09041023e+001, 2.95297890e+001 ]
      - [ 7.58765945e+001, 7.97306061e+001, 5.56004381e+000,
          3.79711151e+001, 3.54314270e+001, 3.22302780e+001 ]
      - [ 8.02028885e+001, 8.19900742e+001, 5.31181097e+000,
          3.96523705e+001, 4.58193626e+001, 3.76416893e+001 ]
      - [ 7.74024277e+001, 8.00865173e+001, 4.32145262e+000,
          4.90821953e+001, 7.69360733e+001, 2.92683315e+001 ]
      - [ 7.74365921e+001, 7.93588333e+001, 1.18848772e+001,
          4.92120743e+001, 5.65477486e+001, 2.50290833e+001 ]
      - [ 7.28932190e+001, 7.58235855e+001, 5.35496664e+000,
          3.63714714e+001, 5.49224930e+001, 4.69261131e+001 ]
      - [ 7.70901718e+001, 7.71286621e+001, 5.35978174e+000,
          3.36583633e+001, 2.63995800e+001, 3.33940582e+001 ]
      - [ 8.11158371e+001, 8.09632568e+001, 9.93273354e+000,
          4.68761902e+001, 5.83183060e+001, 2.81035919e+001 ]
      - [ 6.86098022e+001, 6.25255280e+001, 1.07521687e+001,
          4.48312187e+001, 7.32836685e+001, 3.53462448e+001 ]
      - [ 7.32440262e+001, 7.60901184e+001, 6.18017912e+000,
          3.11064548e+001, 5.37886314e+001, 4.23342896e+001 ]
      - [ 6.89363861e+001, 7.64373703e+001, 6.39098644e+000,
          3.21554222e+001, 3.80172691e+001, 3.35816460e+001 ]
      - [ 7.56206131e+001, 7.80907288e+001, 3.56378341e+000,
          4.00609169e+001, 3.61084938e+001, 2.88896408e+001 ]
      - [ 7.58765945e+001, 7.97196350e+001, 5.11940813e+000,
          4.23838921e+001, 4.20961571e+001, 4.00399513e+001 ]
      - [ 6.86435242e+001, 6.56854324e+001, 9.37061691e+000,
          4.46302223e+001, 6.54917679e+001, 2.83863068e+001 ]
      - [ 7.69480743e+001, 7.71257019e+001, 6.33650589e+000,
          3.27308197e+001, 5.06427193e+001, 3.98856277e+001 ]
      - [ 7.45031738e+001, 7.73986893e+001, 6.48153973e+000,
          3.27494926e+001, 3.59859161e+001, 3.17632561e+001 ]
      - [ 7.58763428e+001, 7.96316071e+001, 5.48039389e+000,
          3.26395569e+001, 3.97059822e+001, 4.65285149e+001 ]
      - [ 8.02362137e+001, 8.07941132e+001, 4.12998867e+000,
          4.26378746e+001, 8.43355255e+001, 4.37048721e+001 ]
      - [ 8.31211700e+001, 8.16308365e+001, 1.06354027e+001,
          4.91393814e+001, 6.58909760e+001, 3.79798813e+001 ]
      - [ 6.57289200e+001, 6.33089409e+001, 1.81500301e+001,
          3.98446426e+001, 5.33924866e+001, 2.93909397e+001 ]
      - [ 6.56372757e+001, 6.69264145e+001, 1.17539511e+001,
          4.36279907e+001, 5.33234138e+001, 2.88223133e+001 ]
      - [ 7.43314590e+001, 7.87447815e+001, 6.86545038e+000,
          3.98972664e+001, 4.99911613e+001, 4.18106689e+001 ]
      - [ 8.05497971e+001, 7.92079315e+001, 7.65530443e+000,
          3.26393585e+001, 3.60503120e+001, 3.60580635e+001 ]
      - [ 7.56146698e+001, 7.75152283e+001, 5.81795740e+000,
          4.45826340e+001, 3.52217827e+001, 3.35496216e+001 ]
      - [ 7.32448502e+001, 6.60240631e+001, 1.82483025e+001,
          3.98799248e+001, 4.74344940e+001, 1.79558735e+001 ]
      - [ 6.49058762e+001, 6.57989578e+001, 1.46826229e+001,
          3.75629768e+001, 4.33723412e+001, 3.32774124e+001 ]
      - [ 5.72877693e+001, 6.94728699e+001, 8.43327999e+000,
          4.11672668e+001, 4.70310707e+001, 3.58241920e+001 ]
      - [ 7.55840912e+001, 7.69481506e+001, 7.54745865e+000,
          3.38116684e+001, 3.79182053e+001, 3.65948524e+001 ]
      - [ 7.59952393e+001, 6.85873795e+001, 1.64682732e+001,
          4.21586723e+001, 5.33950272e+001, 2.49402885e+001 ]
      - [ 8.17425766e+001, 8.14811325e+001, 7.98149347e+000,
          2.84727631e+001, 5.00197868e+001, 4.05700340e+001 ]
      - [ 8.57412109e+001, 8.16301575e+001, 7.63012171e+000,
          3.14580650e+001, 3.92981606e+001, 3.64629860e+001 ]
      - [ 8.31016998e+001, 8.10817566e+001, 7.33644581e+000,
          3.39353523e+001, 3.29976044e+001, 3.53568344e+001 ]
      - [ 7.31706238e+001, 7.78980560e+001, 7.19921350e+000,
          3.17849503e+001, 3.68194199e+001, 2.66727371e+001 ]
      - [ 7.86834183e+001, 7.70298615e+001, 7.58783674e+000,
          4.20313683e+001, 3.95243073e+001, 3.18457527e+001 ]
      - [ 7.30049896e+001, 7.66187210e+001, 8.59204292e+000,
          4.14976997e+001, 4.31377754e+001, 4.04016228e+001 ]
      - [ 7.20760269e+001, 7.83926010e+001, 9.09075546e+000,
          2.35019970e+001, 4.15357704e+001, 5.69819832e+001 ]
      - [ 7.35002823e+001, 7.08619156e+001, 1.29380980e+001,
          4.67333908e+001, 5.65538864e+001, 2.84338417e+001 ]
      - [ 7.86306000e+001, 7.44733887e+001, 1.09926891e+001,
          4.44168167e+001, 5.39630547e+001, 2.44567146e+001 ]
      - [ 8.34104004e+001, 8.13381958e+001, 7.35387897e+000,
          4.11696510e+001, 5.77358475e+001, 4.02918930e+001 ]
      - [ 8.57553940e+001, 8.06577530e+001, 7.07808399e+000,
          3.49599152e+001, 5.09921036e+001, 3.96785011e+001 ]
      - [ 8.04063568e+001, 7.86097260e+001, 7.00690985e+000,
          4.14414749e+001, 5.13467560e+001, 3.25455322e+001 ]
      - [ 7.16593704e+001, 7.74417191e+001, 7.06609011e+000,
          3.62032433e+001, 5.11335297e+001, 3.33353729e+001 ]
      - [ 7.09379730e+001, 7.66908112e+001, 8.17345238e+000,
          3.40837746e+001, 5.09866333e+001, 3.77849045e+001 ]
      - [ 7.25690613e+001, 7.64610443e+001, 9.31622982e+000,
          4.18452950e+001, 5.42627602e+001, 4.67440948e+001 ]
      - [ 7.34368134e+001, 7.26003723e+001, 9.79122066e+000,
          4.43827629e+001, 5.62248077e+001, 2.86800652e+001 ]
      - [ 7.30701752e+001, 6.63225861e+001, 1.59072466e+001,
          2.93691425e+001, 5.04699020e+001, 3.76940117e+001 ]
      - [ 7.30813751e+001, 7.38657455e+001, 1.06469994e+001,
          4.92750778e+001, 8.35532379e+001, 3.77850380e+001 ]
      - [ 6.74819946e+001, 6.44454346e+001, 1.07085476e+001,
          7.07091217e+001, 9.00415039e+001, 5.38228226e+001 ]
      - [ 6.84790955e+001, 6.62486038e+001, 1.00249844e+001,
          5.52233887e+001, 8.52441330e+001, 5.13788414e+001 ]
      - [ 7.40259399e+001, 7.17112045e+001, 9.65671730e+000,
          5.20394859e+001, 5.85627670e+001, 3.25420761e+001 ]
      - [ 7.87876968e+001, 7.58126602e+001, 7.99099970e+000,
          4.09598160e+001, 5.22494926e+001, 2.55851936e+001 ]
      - [ 7.22032166e+001, 6.81127243e+001, 1.60314941e+001,
          4.58530693e+001, 6.12397270e+001, 4.15609322e+001 ]
      - [ 7.31287994e+001, 7.24578857e+001, 8.84912872e+000,
          4.93077087e+001, 6.73861465e+001, 4.31192474e+001 ]
      - [ 6.85639801e+001, 6.75028458e+001, 1.40370626e+001,
