%YAML:1.0
my_svm: !!opencv-ml-svm
   svm_type: C_SVC
   kernel: { type:RBF, gamma:1.0000000000000001e-05 }
   C: 1.0000000000000001e-01
   term_criteria: { epsilon:1.1920928955078125e-07, iterations:1000 }
   var_all: 6
   var_count: 6
   class_count: 2
   class_labels: !!opencv-matrix
      rows: 1
      cols: 2
      dt: i
      data: [ 0, 1 ]
   sv_total: 2000
   support_vectors:
      - [ 4.29775276e+01, 8.27089005e+01, 8.78009720e+01, 3.74945221e+01,
          3.41302948e+01, 1.42112026e+01 ]
      - [ 6.04017563e+01, 6.62449570e+01, 1.01648674e+02, 4.47982292e+01,
          4.21370201e+01, 1.50093317e+01 ]
      - [ 2.53567413e+02, 2.60158386e+01, 1.02994232e+02, 3.67877541e+01,
          3.14002438e+01, 1.83004665e+01 ]
      - [ 8.31102982e+01, 8.20100861e+01, 5.30093193e+00, 5.26655960e+01,
          8.59789963e+01, 7.94246140e+01 ]
      - [ 6.11022720e+01, 6.33581848e+01, 1.00699701e+01, 3.27765694e+01,
          6.56233063e+01, 4.33696175e+01 ]
      - [ 5.73064461e+01, 9.04736176e+01, 1.55954178e+02, 3.57206688e+01,
          6.76034164e+01, 4.63610039e+01 ]
      - [ 6.60957489e+01, 8.01918182e+01, 7.31234512e+01, 5.26220207e+01,
          7.83221283e+01, 4.51723747e+01 ]
      - [ 3.55854568e+01, 5.07025833e+01, 1.99400387e+01, 4.48752747e+01,
          5.97193642e+01, 4.01697006e+01 ]
      - [ 7.15751266e+01, 7.36717987e+01, 1.49893789e+01, 2.23478622e+01,
          4.47252750e+00, 3.11892643e+01 ]
      - [ 8.29923630e+01, 8.19401245e+01, 3.35957170e+00, 2.58346348e+01,
          6.01070137e+01, 6.36427193e+01 ]
      - [ 7.56247101e+01, 7.09265671e+01, 4.15742416e+01, 6.11217384e+01,
          8.21451721e+01, 4.24162369e+01 ]
      - [ 8.65961227e+01, 8.52228088e+01, 1.79831848e+01, 3.79045258e+01,
          9.26088486e+01, 5.12349281e+01 ]
      - [ 8.59537048e+01, 1.05904366e+02, 2.42113934e+01, 1.46889404e+02,
          1.18291771e+02, 1.30375290e+02 ]
      - [ 7.87757797e+01, 7.51291122e+01, 9.55768967e+00, 5.63627472e+01,
          1.05064499e+02, 2.70139732e+01 ]
      - [ 3.45591774e+01, 4.15222588e+01, 1.14395218e+02, 3.20961113e+01,
          3.29710464e+01, 1.23411989e+01 ]
      - [ 8.13569794e+01, 8.26516571e+01, 2.09828320e+01, 2.93495846e+01,
          6.90109587e+00, 3.26575775e+01 ]
      - [ 6.89169312e+01, 7.28795090e+01, 1.07079945e+01, 6.95104980e+01,
          1.06883011e+02, 2.67873878e+01 ]
      - [ 9.02519226e+01, 8.37963028e+01, 7.95142288e+01, 2.55105705e+01,
          4.06252747e+01, 2.95716057e+01 ]
      - [ 5.54846344e+01, 5.01028938e+01, 7.63373566e+01, 5.78966751e+01,
          5.19725037e+01, 5.63754883e+01 ]
      - [ 7.06092987e+01, 7.44779663e+01, 3.99996901e+00, 6.83548965e+01,
          1.01432045e+02, 4.62757874e+01 ]
      - [ 7.88914108e+01, 8.29511566e+01, 9.91949558e+00, 4.44263077e+01,
          7.86817627e+01, 6.25325699e+01 ]
      - [ 7.54868546e+01, 6.38630295e+01, 2.09903126e+01, 7.63818512e+01,
          9.69858322e+01, 4.12109070e+01 ]
      - [ 8.05433655e+01, 8.31159134e+01, 4.29334402e+00, 6.59435425e+01,
          1.14030533e+02, 8.93557663e+01 ]
      - [ 4.87418289e+01, 6.52076263e+01, 1.96563129e+01, 2.58049889e+01,
          2.65899372e+01, 2.41285496e+01 ]
      - [ 3.00854321e+01, 6.96858215e+01, 2.22979832e+01, 4.92645874e+01,
          5.52466278e+01, 1.09094696e+02 ]
      - [ 8.30472260e+01, 8.73765488e+01, 6.61933279e+00, 1.30437790e+02,
          8.84370270e+01, 1.05646172e+02 ]
      - [ 1.40127731e+02, 1.39881973e+02, 1.70492725e+01, 1.25737328e+02,
          2.10973633e+02, 1.54106476e+02 ]
      - [ 7.34591751e+01, 8.63474579e+01, 1.14246569e+01, 1.42129307e+01,
          1.04085550e+01, 3.39747581e+01 ]
      - [ 6.84673462e+01, 9.47775726e+01, 1.04467636e+02, 3.88090477e+01,
          7.51136551e+01, 4.58953133e+01 ]
      - [ 7.74447021e+01, 7.88450394e+01, 7.54508448e+00, 5.90880356e+01,
          1.12486946e+02, 7.44345245e+01 ]
      - [ 7.03626328e+01, 7.48058701e+01, 7.59413910e+00, 5.76656952e+01,
          9.87902298e+01, 4.35948486e+01 ]
      - [ 8.38288269e+01, 7.68015976e+01, 1.44967442e+01, 4.90624542e+01,
          8.90911331e+01, 4.89116631e+01 ]
      - [ 7.30365143e+01, 9.41078186e+01, 9.39380188e+01, 2.55754566e+01,
          2.98037472e+01, 3.31161423e+01 ]
      - [ 6.04048119e+01, 7.63835220e+01, 9.54809418e+01, 3.74862328e+01,
          2.73750973e+01, 5.41299362e+01 ]
      - [ 7.98753433e+01, 7.96288681e+01, 2.77566385e+00, 7.63274918e+01,
          1.24849854e+02, 3.42195473e+01 ]
      - [ 6.11522751e+01, 6.47651978e+01, 7.84750443e+01, 3.38624992e+01,
          3.76497993e+01, 4.12028656e+01 ]
      - [ 7.30948639e+01, 6.45506973e+01, 1.31429586e+01, 3.81548691e+01,
          3.19777813e+01, 4.15820408e+00 ]
      - [ 7.67057724e+01, 7.20617065e+01, 8.80850601e+00, 6.98490982e+01,
          1.23767281e+02, 3.02519321e+01 ]
      - [ 6.86097794e+01, 7.51357574e+01, 6.37633133e+01, 5.19323807e+01,
          8.86437149e+01, 4.61579971e+01 ]
      - [ 7.48565369e+01, 7.77754669e+01, 6.50408697e+00, 5.64661980e+01,
          1.07168411e+02, 3.32817650e+01 ]
      - [ 8.29760437e+01, 8.53153915e+01, 5.94423199e+00, 3.42235298e+01,
          7.58599396e+01, 7.93396683e+01 ]
      - [ 7.89034042e+01, 7.94147034e+01, 6.55240297e+00, 6.58735123e+01,
          1.10811172e+02, 2.85480843e+01 ]
      - [ 7.32085266e+01, 6.71950302e+01, 1.84745388e+01, 6.34353981e+01,
          8.71069870e+01, 4.43906403e+01 ]
      - [ 7.41078568e+01, 6.71306839e+01, 9.46278839e+01, 6.57957306e+01,
          9.08253708e+01, 4.39628906e+01 ]
      - [ 8.13732300e+01, 7.93923721e+01, 3.72073746e+00, 4.59916496e+01,
          8.07888947e+01, 4.71907120e+01 ]
      - [ 6.26713600e+01, 6.50612183e+01, 9.95450783e+00, 4.58386993e+01,
          9.15808868e+01, 5.54019623e+01 ]
      - [ 6.58888092e+01, 6.90690231e+01, 8.40168571e+00, 3.39502487e+01,
          5.68197289e+01, 6.15218925e+01 ]
      - [ 6.34684906e+01, 9.14415283e+01, 1.08453140e+02, 5.14771614e+01,
          9.85524368e+01, 3.80401154e+01 ]
      - [ 8.20183716e+01, 8.24403992e+01, 2.30630994e+00, 7.50742950e+01,
          1.39995834e+02, 4.41031837e+01 ]
      - [ 7.16514206e+01, 6.68470688e+01, 6.32104149e+01, 3.92692108e+01,
          7.43917465e+01, 4.87565575e+01 ]
      - [ 4.98604431e+01, 6.34756393e+01, 1.14347275e+02, 3.13457336e+01,
          4.70671082e+01, 4.95396080e+01 ]
      - [ 7.12393646e+01, 7.22391129e+01, 3.03794594e+01, 4.82810669e+01,
          1.01548256e+02, 4.71831703e+01 ]
      - [ 7.88586960e+01, 6.97511063e+01, 2.69967232e+01, 2.23548450e+01,
          3.33606644e+01, 7.33502274e+01 ]
      - [ 6.17085991e+01, 6.81847153e+01, 1.35537109e+01, 2.82497902e+01,
          6.67553101e+01, 5.93111115e+01 ]
      - [ 8.31623688e+01, 9.09141312e+01, 1.45130119e+01, 4.93271675e+01,
          1.38286331e+02, 1.44635986e+02 ]
      - [ 6.44112396e+01, 7.46525574e+01, 1.07899826e+02, 3.49802055e+01,
          3.92905312e+01, 2.32530518e+01 ]
      - [ 7.18197708e+01, 7.21838913e+01, 3.99221635e+00, 3.37373886e+01,
          7.56142502e+01, 4.76587143e+01 ]
      - [ 1.18888359e+02, 9.70843277e+01, 4.86083870e+01, 2.71521015e+01,
          3.88850250e+01, 6.34579353e+01 ]
      - [ 6.16011238e+01, 6.61185608e+01, 2.87285690e+01, 2.59032745e+01,
          3.25430794e+01, 6.13503151e+01 ]
      - [ 5.15489998e+01, 7.68854065e+01, 1.31928925e+02, 3.26209259e+01,
          7.20068512e+01, 4.48854027e+01 ]
      - [ 7.97294388e+01, 7.75824966e+01, 4.53897190e+00, 8.90206528e+01,
          1.03654869e+02, 6.43067780e+01 ]
      - [ 7.92248230e+01, 7.86056900e+01, 3.99249649e+00, 1.06935478e+02,
          1.13670166e+02, 6.61876907e+01 ]
      - [ 8.59553452e+01, 8.46089783e+01, 9.43624344e+01, 3.57237930e+01,
          5.18087578e+01, 3.68459129e+01 ]
      - [ 9.01767502e+01, 9.07312317e+01, 4.42416687e+01, 3.36439743e+01,
          4.04299164e+01, 3.80694427e+01 ]
      - [ 6.59773178e+01, 6.96397095e+01, 7.56147051e+00, 6.46401520e+01,
          8.92191086e+01, 5.74241028e+01 ]
      - [ 7.30618134e+01, 6.33625679e+01, 2.11777325e+01, 3.05367432e+01,
          3.18047485e+01, 6.09335938e+01 ]
      - [ 7.76289291e+01, 7.27618332e+01, 1.04405956e+01, 7.48318939e+01,
          8.93338318e+01, 4.19043274e+01 ]
      - [ 8.15081024e+01, 8.31370316e+01, 5.88659716e+00, 3.85661163e+01,
          7.92673264e+01, 6.29212379e+01 ]
      - [ 7.02432938e+01, 6.99628143e+01, 4.27635612e+01, 4.65584602e+01,
          6.85569153e+01, 4.50039482e+01 ]
      - [ 5.01009407e+01, 4.23507195e+01, 5.65330658e+01, 3.29599991e+01,
          3.56174164e+01, 2.64014988e+01 ]
      - [ 8.13368149e+01, 6.39715271e+01, 6.12427216e+01, 3.98565750e+01,
          4.39845200e+01, 3.07965679e+01 ]
      - [ 4.31063309e+01, 5.80592842e+01, 1.12360771e+02, 3.50699196e+01,
          5.10445023e+01, 2.62983208e+01 ]
      - [ 7.58469925e+01, 7.49781113e+01, 6.53385878e+00, 6.93081131e+01,
          7.51556396e+01, 4.39656944e+01 ]
      - [ 2.00561798e+02, 9.78638077e+01, 7.92486877e+01, 3.21549492e+01,
          3.14771557e+01, 1.88917656e+01 ]
      - [ 6.24241447e+01, 4.81251106e+01, 5.12435074e+01, 4.09136391e+01,
          2.80860615e+01, 2.60284901e+01 ]
      - [ 6.02577438e+01, 6.78822098e+01, 1.47321434e+01, 2.25629349e+01,
          1.13523417e+01, 1.86227646e+01 ]
      - [ 6.48334198e+01, 6.34923553e+01, 2.04913654e+01, 2.54606419e+01,
          3.79994507e+01, 4.78604240e+01 ]
      - [ 7.92060013e+01, 7.23647614e+01, 2.31415005e+01, 3.56576958e+01,
          8.34879150e+01, 5.06953354e+01 ]
      - [ 7.16343994e+01, 5.92044449e+01, 3.92960014e+01, 4.45748978e+01,
          8.65922241e+01, 4.30550003e+01 ]
      - [ 6.86471176e+01, 7.67761307e+01, 8.67239914e+01, 5.75894661e+01,
          6.84034271e+01, 4.08523102e+01 ]
      - [ 5.73567009e+01, 5.89371071e+01, 3.34187050e+01, 6.34352798e+01,
          7.78134537e+01, 4.57155228e+01 ]
      - [ 6.18923988e+01, 5.13859940e+01, 3.34433174e+01, 4.83056793e+01,
          6.99419861e+01, 4.39972420e+01 ]
      - [ 4.92196159e+01, 4.25104828e+01, 7.19964981e+01, 6.13731079e+01,
          4.32697029e+01, 4.89399185e+01 ]
      - [ 7.28747330e+01, 6.93529892e+01, 1.96309528e+01, 6.91452789e+01,
          8.34769974e+01, 4.28807144e+01 ]
      - [ 8.04643326e+01, 8.11658096e+01, 3.33984041e+00, 7.96516190e+01,
          1.40735016e+02, 3.87057533e+01 ]
      - [ 6.58915024e+01, 6.41790085e+01, 4.02519226e+01, 7.27609787e+01,
          1.06820938e+02, 3.01321869e+01 ]
      - [ 6.88093796e+01, 7.05896606e+01, 6.71096954e+01, 3.30844841e+01,
          4.32156792e+01, 1.58751669e+01 ]
      - [ 4.89087830e+01, 8.52505417e+01, 1.29980164e+02, 2.37181816e+01,
          4.17426949e+01, 2.82203751e+01 ]
      - [ 6.90094681e+01, 7.57460632e+01, 8.50780182e+01, 5.28881493e+01,
          7.92930679e+01, 5.20825958e+01 ]
      - [ 7.29991302e+01, 6.99402771e+01, 9.12874794e+00, 7.06931076e+01,
          1.25516891e+02, 3.04412365e+01 ]
      - [ 6.76338806e+01, 6.48166809e+01, 1.04586420e+01, 6.01307755e+01,
          9.11284027e+01, 5.54537582e+01 ]
      - [ 8.29190979e+01, 7.72955017e+01, 1.31474857e+01, 6.93714523e+01,
          9.13642883e+01, 4.89628601e+01 ]
      - [ 2.25170670e+01, 3.92849083e+01, 2.34918137e+01, 3.76572914e+01,
          5.29469528e+01, 2.85621796e+01 ]
      - [ 7.30973282e+01, 8.04099731e+01, 1.04799088e+02, 3.63068962e+01,
          3.04857769e+01, 1.70558090e+01 ]
      - [ 7.72104874e+01, 7.12783661e+01, 1.54756918e+01, 3.03747101e+01,
          8.41096878e+01, 4.68488770e+01 ]
      - [ 6.58857498e+01, 6.86311264e+01, 9.81430664e+01, 7.21902924e+01,
          1.02143776e+02, 2.81684132e+01 ]
      - [ 7.93157120e+01, 9.68555603e+01, 1.33407303e+02, 2.49393940e+01,
          2.43347359e+01, 2.27003059e+01 ]
      - [ 8.08990555e+01, 8.48914642e+01, 4.87361193e+00, 3.41863785e+01,
          7.41199188e+01, 7.42468567e+01 ]
      - [ 6.87578735e+01, 7.43215942e+01, 1.13186245e+01, 8.11674576e+01,
          7.10963593e+01, 9.16695786e+01 ]
      - [ 7.88052139e+01, 7.65811462e+01, 7.68686819e+00, 5.52030945e+01,
          9.75536652e+01, 2.78068352e+01 ]
      - [ 6.87216110e+01, 7.26515274e+01, 7.27959061e+01, 5.64619141e+01,
          7.91712875e+01, 5.24205399e+01 ]
      - [ 8.25220032e+01, 8.13030853e+01, 5.09973431e+00, 5.28991013e+01,
          1.08645073e+02, 3.62979698e+01 ]
      - [ 8.35596542e+01, 8.25093689e+01, 4.41440487e+00, 5.87827644e+01,
          1.13695808e+02, 3.03452435e+01 ]
      - [ 8.58462601e+01, 1.05205437e+02, 5.51400757e+01, 3.41621017e+01,
          5.04120712e+01, 4.82664909e+01 ]
      - [ 9.45465622e+01, 9.81839828e+01, 5.91304245e+01, 3.40389404e+01,
          5.41174355e+01, 5.29383774e+01 ]
      - [ 7.71514816e+01, 7.46557541e+01, 1.84506912e+01, 5.67743416e+01,
          1.02246437e+02, 3.65641441e+01 ]
      - [ 6.01685410e+01, 8.38380051e+01, 1.20277565e+02, 3.66274719e+01,
          6.15325966e+01, 4.47244225e+01 ]
      - [ 3.55011559e+01, 5.14205284e+01, 1.13801132e+02, 4.33786964e+01,
          3.82434807e+01, 1.25151711e+01 ]
      - [ 6.15812263e+01, 7.51242371e+01, 7.75804672e+01, 3.29345741e+01,
          2.83655548e+01, 3.08808250e+01 ]
      - [ 9.02529373e+01, 8.70678101e+01, 5.79141378e+00, 2.55009365e+01,
          2.34223022e+01, 5.50275345e+01 ]
      - [ 5.32238998e+01, 6.14103279e+01, 1.42749224e+01, 5.40878220e+01,
          1.05431969e+02, 2.00474777e+01 ]
      - [ 9.02582855e+01, 9.40757523e+01, 1.09956293e+01, 3.17504292e+01,
          1.41014114e+02, 1.26875847e+02 ]
      - [ 7.31511154e+01, 6.60128632e+01, 3.19507332e+01, 6.07787819e+01,
          1.04865555e+02, 2.78526020e+01 ]
      - [ 8.28700104e+01, 8.26703568e+01, 7.94490004e+00, 3.62778091e+01,
          7.61319885e+01, 8.01440353e+01 ]
      - [ 5.44174232e+01, 6.76344376e+01, 9.95072632e+01, 3.50373573e+01,
          4.36668129e+01, 3.94563446e+01 ]
      - [ 8.17202530e+01, 8.34763184e+01, 4.15440607e+00, 6.68463211e+01,
          1.17721680e+02, 4.05566406e+01 ]
      - [ 8.92457733e+01, 7.48600922e+01, 8.20524063e+01, 4.45951538e+01,
          5.92476692e+01, 1.97162895e+01 ]
      - [ 5.75268440e+01, 6.57922211e+01, 8.82277584e+00, 2.70280876e+01,
          7.27072601e+01, 4.10599823e+01 ]
      - [ 8.03354034e+01, 8.01327820e+01, 5.94500208e+00, 6.58376083e+01,
          9.40988007e+01, 3.58776398e+01 ]
      - [ 9.45323105e+01, 9.92434692e+01, 2.36478539e+01, 3.97907295e+01,
          2.00062618e+01, 1.77393990e+01 ]
      - [ 6.01685410e+01, 5.35924606e+01, 2.61393127e+01, 2.34369717e+01,
          2.59861832e+01, 5.28149681e+01 ]
      - [ 8.13258896e+01, 7.18584366e+01, 2.30384102e+01, 3.52679901e+01,
          8.44954529e+01, 5.35822639e+01 ]
      - [ 6.16609726e+01, 7.14503937e+01, 1.09308388e+02, 7.26866684e+01,
          1.04179436e+02, 3.18337193e+01 ]
      - [ 6.93185425e+01, 7.53406830e+01, 6.50406723e+01, 3.03896046e+01,
          6.88787613e+01, 4.28132591e+01 ]
      - [ 7.70968628e+01, 8.05673904e+01, 5.95601940e+00, 6.93155746e+01,
          1.03241089e+02, 6.79780426e+01 ]
      - [ 6.16011086e+01, 7.09105988e+01, 2.18756123e+01, 2.11544075e+01,
          7.10061646e+01, 9.17052689e+01 ]
      - [ 5.44369011e+01, 4.79303246e+01, 4.58310509e+01, 3.55866280e+01,
          4.96699409e+01, 2.58171825e+01 ]
      - [ 7.33663406e+01, 8.99644470e+01, 5.71968689e+01, 5.39824219e+01,
          6.07584915e+01, 5.13559494e+01 ]
      - [ 7.45653687e+01, 7.55654831e+01, 6.51229239e+00, 8.29421310e+01,
          1.31966064e+02, 2.90608559e+01 ]
      - [ 6.60412750e+01, 7.00259552e+01, 8.06699657e+00, 2.82166405e+01,
          5.18639069e+01, 4.94994240e+01 ]
      - [ 7.70457687e+01, 7.67501831e+01, 6.50066996e+00, 5.75505791e+01,
          1.01987061e+02, 3.56577530e+01 ]
      - [ 9.46181641e+01, 7.89141159e+01, 1.82342796e+01, 2.12761002e+01,
          2.01937542e+01, 4.03521805e+01 ]
      - [ 8.40175171e+01, 8.47122955e+01, 6.24420357e+00, 8.22610474e+01,
          9.71947861e+01, 1.17848717e+02 ]
      - [ 7.63963852e+01, 8.16370621e+01, 6.66654778e+00, 3.16024513e+01,
          7.24404221e+01, 7.96532059e+01 ]
      - [ 5.72846451e+01, 6.62898331e+01, 1.15506142e+02, 2.80326195e+01,
          2.13055439e+01, 3.00368690e+01 ]
      - [ 8.88338852e+01, 9.06306763e+01, 1.23940172e+01, 3.55387154e+01,
          1.10428093e+02, 1.71457596e+02 ]
      - [ 7.92613602e+01, 8.12927704e+01, 3.51653886e+00, 8.81746902e+01,
          1.40771851e+02, 5.73815918e+01 ]
      - [ 7.30758209e+01, 7.06838074e+01, 3.92006149e+01, 7.04892960e+01,
          7.61506958e+01, 3.91908073e+01 ]
      - [ 8.28429489e+01, 8.20684357e+01, 7.21663857e+00, 2.35023060e+01,
          6.34292374e+01, 6.00684395e+01 ]
      - [ 3.57706947e+01, 5.52181053e+01, 1.42831131e+02, 1.76273785e+01,
          4.10576401e+01, 4.88599205e+01 ]
      - [ 6.87606659e+01, 7.07102356e+01, 7.99629736e+00, 2.23350658e+01,
          6.00733757e+01, 6.67854462e+01 ]
      - [ 6.26428909e+01, 6.75052490e+01, 9.89794540e+00, 6.42805634e+01,
          8.69514236e+01, 3.97951927e+01 ]
      - [ 7.91118011e+01, 8.12763138e+01, 2.03306079e+00, 5.51847038e+01,
          1.10615952e+02, 4.58566475e+01 ]
      - [ 7.68764343e+01, 7.68466110e+01, 5.59077787e+00, 2.22661858e+01,
          3.23006630e+01, 5.00572281e+01 ]
      - [ 1.04773094e+02, 9.88552170e+01, 1.96070347e+01, 3.26420403e+01,
          3.27606163e+01, 4.02832527e+01 ]
      - [ 7.16358566e+01, 8.82776184e+01, 8.66842957e+01, 3.04295998e+01,
          1.44815950e+01, 1.94300995e+01 ]
      - [ 7.21495743e+01, 6.00062790e+01, 2.33324032e+01, 6.98529358e+01,
          1.08158813e+02, 3.09855385e+01 ]
      - [ 8.29518738e+01, 8.39718170e+01, 4.43926287e+00, 6.10303917e+01,
          1.06000626e+02, 9.72683792e+01 ]
      - [ 6.86366119e+01, 7.56427383e+01, 1.65014992e+01, 2.47594376e+01,
          6.35845299e+01, 1.03116417e+02 ]
      - [ 2.99629688e+01, 4.49676552e+01, 3.30923882e+01, 3.65809097e+01,
          2.31114979e+01, 2.61630688e+01 ]
      - [ 4.29775276e+01, 1.20121849e+02, 1.41495575e+02, 3.03186016e+01,
          3.07277241e+01, 1.54371986e+01 ]
      - [ 7.17013092e+01, 7.09657211e+01, 3.28501167e+01, 7.31305695e+01,
          1.03259056e+02, 3.62542801e+01 ]
      - [ 2.47837082e+02, 8.74085770e+01, 1.17687782e+02, 3.21987495e+01,
          2.47353745e+01, 1.16898565e+01 ]
      - [ 7.43267670e+01, 7.68408813e+01, 3.82848644e+00, 5.52336845e+01,
          1.00763191e+02, 4.24663277e+01 ]
      - [ 4.29770546e+01, 5.48541031e+01, 8.96974869e+01, 3.89482002e+01,
          5.57427750e+01, 2.33615398e+01 ]
      - [ 6.87269974e+01, 5.65902138e+01, 4.87398834e+01, 4.49261093e+01,
          5.28584824e+01, 2.64619160e+01 ]
      - [ 3.58146248e+01, 5.37926178e+01, 2.23134823e+01, 2.62913055e+01,
          2.60510693e+01, 2.07786064e+01 ]
      - [ 6.87828064e+01, 7.10398865e+01, 9.81930923e+00, 2.92818069e+01,
          3.68900261e+01, 4.86586113e+01 ]
      - [ 7.69049759e+01, 7.71261597e+01, 5.11450481e+00, 3.85337524e+01,
          2.48530579e+01, 3.44195328e+01 ]
      - [ 6.89186020e+01, 6.75545273e+01, 2.24001694e+01, 4.70423012e+01,
          8.54425278e+01, 4.63409691e+01 ]
      - [ 7.87901077e+01, 8.08989792e+01, 3.88521156e+01, 2.48684635e+01,
          5.80759811e+01, 7.21414108e+01 ]
      - [ 8.12357254e+01, 6.43013763e+01, 6.49552307e+01, 3.98365059e+01,
          4.41895752e+01, 2.66605244e+01 ]
      - [ 6.46660080e+01, 6.63931274e+01, 1.09111223e+01, 3.88454132e+01,
          2.45777912e+01, 1.36879168e+01 ]
      - [ 6.60896225e+01, 6.43529816e+01, 1.21019020e+01, 7.13337784e+01,
          8.83940582e+01, 5.33048859e+01 ]
      - [ 8.30250854e+01, 8.33704987e+01, 8.60014725e+00, 3.85074921e+01,
          8.94598083e+01, 1.10983788e+02 ]
      - [ 5.12245636e+01, 4.98745499e+01, 3.09806995e+01, 3.95766602e+01,
          3.65324173e+01, 4.45019054e+00 ]
      - [ 7.57331543e+01, 7.40978851e+01, 8.94686413e+00, 6.09727592e+01,
          1.13846992e+02, 3.58931046e+01 ]
      - [ 7.90942154e+01, 7.96929321e+01, 3.72228551e+00, 6.83484802e+01,
          1.22381386e+02, 5.47611046e+01 ]
      - [ 0., 1.09723091e+02, 1.57623352e+02, 2.63376598e+01,
          2.79095516e+01, 5.73532867e+01 ]
      - [ 8.43364105e+01, 8.28977356e+01, 7.96321917e+00, 6.76412582e+01,
          8.69573364e+01, 3.53546829e+01 ]
      - [ 6.60783234e+01, 6.87887802e+01, 8.63376713e+00, 7.16329498e+01,
          9.31368256e+01, 5.94132233e+01 ]
      - [ 8.43827896e+01, 8.20458832e+01, 6.36844921e+00, 3.77457314e+01,
          7.98583450e+01, 6.02969894e+01 ]
      - [ 9.88465424e+01, 9.26388626e+01, 1.07100296e+01, 4.79939613e+01,
          5.49193153e+01, 1.73811150e+01 ]
      - [ 1.07443817e+02, 7.29916916e+01, 1.06689117e+02, 3.30121651e+01,
          2.00886040e+01, 5.89160728e+01 ]
      - [ 7.80283127e+01, 7.87203674e+01, 6.50497627e+00, 5.32843552e+01,
          9.60478058e+01, 3.13168583e+01 ]
      - [ 5.58191490e+01, 6.00024643e+01, 6.89676132e+01, 2.91080742e+01,
          4.67898369e+01, 5.69364204e+01 ]
      - [ 2.53567429e+02, 1.13604164e+02, 2.08825287e+02, 3.97221031e+01,
          3.83091583e+01, 1.51043911e+01 ]
      - [ 8.13308868e+01, 7.79398575e+01, 8.96283035e+01, 3.43950462e+01,
          5.14781952e+01, 1.43242998e+01 ]
      - [ 9.48742599e+01, 8.46940536e+01, 6.52407455e+01, 3.15987644e+01,
          4.49006691e+01, 3.68209038e+01 ]
      - [ 1.18904495e+02, 9.98404388e+01, 6.64918594e+01, 3.28997231e+01,
          7.60072784e+01, 8.94281845e+01 ]
      - [ 6.87808838e+01, 7.27828598e+01, 5.80231476e+00, 3.08264790e+01,
          4.53066750e+01, 5.13506851e+01 ]
      - [ 8.00566406e+01, 8.51515579e+01, 4.83953619e+00, 5.75908203e+01,
          1.10600967e+02, 1.11685318e+02 ]
      - [ 4.97966843e+01, 6.40276031e+01, 1.90639267e+01, 2.49745693e+01,
          6.19027281e+00, 1.88194981e+01 ]
      - [ 7.45566788e+01, 8.04081650e+01, 9.65974998e+00, 1.41190929e+01,
          2.23874130e+01, 5.51039352e+01 ]
      - [ 6.05898170e+01, 7.82457047e+01, 7.93674927e+01, 3.85877419e+01,
          3.08000069e+01, 1.94292297e+01 ]
      - [ 9.48233795e+01, 8.10369492e+01, 5.07762604e+01, 3.84913406e+01,
          4.81341553e+01, 3.53443909e+01 ]
      - [ 8.18501205e+01, 8.68652267e+01, 7.91542101e+00, 2.11259880e+01,
          2.06977768e+01, 4.88007088e+01 ]
      - [ 8.59768600e+01, 9.64685287e+01, 1.77944965e+01, 5.75914993e+01,
          1.15473679e+02, 1.25733521e+02 ]
      - [ 7.70868607e+01, 7.68206558e+01, 7.61574364e+00, 2.12381649e+01,
          3.80214119e+01, 5.94042015e+01 ]
      - [ 8.53323135e+01, 8.48887329e+01, 5.07682228e+00, 6.57865067e+01,
          9.01497574e+01, 3.67549515e+01 ]
      - [ 7.59512482e+01, 7.71207428e+01, 6.84457588e+00, 5.85955696e+01,
          1.09444702e+02, 6.81385193e+01 ]
      - [ 6.61695938e+01, 5.52143898e+01, 2.47388668e+01, 6.64717712e+01,
          1.10351730e+02, 2.52925339e+01 ]
      - [ 7.26929855e+01, 7.12506180e+01, 4.08067245e+01, 6.45089340e+01,
          7.49502487e+01, 4.45526810e+01 ]
      - [ 8.59550571e+00, 1.17996178e+02, 1.46519501e+02, 2.96544056e+01,
          3.97625580e+01, 2.41561222e+01 ]
      - [ 6.47513123e+01, 6.90758743e+01, 1.02422699e+02, 3.15908661e+01,
          5.42517433e+01, 3.57077179e+01 ]
      - [ 8.58091812e+01, 9.00173492e+01, 1.40521078e+01, 4.81092300e+01,
          1.40252533e+02, 1.42608032e+02 ]
      - [ 8.26269836e+01, 7.70867920e+01, 1.13301897e+01, 6.93612976e+01,
          8.99036942e+01, 4.80947266e+01 ]
      - [ 7.73531876e+01, 7.45874634e+01, 1.48789654e+01, 6.56280365e+01,
          9.10166092e+01, 3.88190651e+01 ]
      - [ 7.87297516e+01, 7.90583191e+01, 7.09244490e+00, 1.06934525e+02,
          8.78763275e+01, 1.03316780e+02 ]
      - [ 9.02488022e+01, 9.74834061e+01, 1.73346672e+01, 5.87411652e+01,
          1.71279861e+02, 1.52867844e+02 ]
      - [ 6.45269394e+01, 6.50867081e+01, 1.83154240e+01, 2.55694752e+01,
          2.14931431e+01, 2.67152119e+01 ]
      - [ 9.02529602e+01, 8.64365005e+01, 6.13301325e+00, 2.48679695e+01,
          2.08705425e+01, 4.21785545e+01 ]
      - [ 8.04574509e+01, 7.89524231e+01, 1.83473740e+01, 6.97679138e+01,
          9.17711487e+01, 2.06563759e+01 ]
      - [ 7.32577667e+01, 9.24430466e+01, 1.25397141e+02, 3.16318512e+01,
          3.14108105e+01, 2.03166103e+01 ]
      - [ 8.16048737e+01, 8.07153931e+01, 4.16009140e+00, 3.73585510e+01,
          3.08381157e+01, 5.28686218e+01 ]
      - [ 8.29909439e+01, 8.41331100e+01, 4.36628771e+00, 5.28809166e+01,
          9.23269348e+01, 9.97387924e+01 ]
      - [ 6.17038460e+01, 1.01020187e+02, 1.27665642e+02, 3.85920219e+01,
          8.62287292e+01, 4.32577820e+01 ]
      - [ 1.07443817e+02, 8.88920135e+01, 1.26234634e+02, 2.59497910e+01,
          2.64813900e+01, 5.28739281e+01 ]
      - [ 6.84231262e+01, 6.79167252e+01, 1.06201420e+01, 7.22069778e+01,
          1.23127266e+02, 2.98707047e+01 ]
      - [ 9.45529785e+01, 8.90363693e+01, 1.11328667e+02, 3.98487663e+01,
          5.53158607e+01, 3.33619385e+01 ]
      - [ 8.30522461e+01, 8.51473770e+01, 8.70486259e+00, 3.06995926e+01,
          1.02787880e+02, 1.22590256e+02 ]
      - [ 7.88686371e+01, 7.62741623e+01, 5.79874563e+00, 5.28259850e+01,
          1.00392387e+02, 6.57286835e+01 ]
      - [ 6.87870178e+01, 7.62276764e+01, 2.67910404e+01, 3.85124550e+01,
          3.31699219e+01, 1.08555632e+01 ]
      - [ 7.32369385e+01, 9.33813171e+01, 1.16507622e+02, 3.21651878e+01,
          6.64401550e+01, 3.60014954e+01 ]
      - [ 8.29305878e+01, 8.10128937e+01, 6.17467461e+01, 4.34231606e+01,
          6.27992744e+01, 3.38474464e+01 ]
      - [ 7.83139114e+01, 7.88796158e+01, 6.95065498e-01, 1.01598442e+02,
          1.41832535e+02, 6.38953514e+01 ]
      - [ 9.02541428e+01, 7.85200729e+01, 1.39499760e+01, 2.22611675e+01,
          1.98266087e+01, 4.86256523e+01 ]
      - [ 6.12345734e+01, 7.36302414e+01, 7.84690018e+01, 3.37661781e+01,
          1.57286167e+01, 2.94515572e+01 ]
      - [ 8.45711746e+01, 7.59059601e+01, 3.07819576e+01, 5.72190285e+01,
          4.81331520e+01, 3.36399689e+01 ]
      - [ 7.44362793e+01, 7.62272110e+01, 2.82930470e+00, 3.75679779e+01,
          3.95297241e+01, 4.32386932e+01 ]
      - [ 7.61595459e+01, 7.51478195e+01, 4.37914734e+01, 5.72293510e+01,
          8.87741470e+01, 4.08756485e+01 ]
      - [ 8.27858429e+01, 8.41989899e+01, 8.31379700e+00, 4.92400513e+01,
          1.10181465e+02, 1.09474525e+02 ]
      - [ 5.15731201e+01, 8.26945419e+01, 1.12632889e+02, 3.65373154e+01,
          3.98361549e+01, 2.64492092e+01 ]
      - [ 6.18048134e+01, 7.03821182e+01, 9.93280411e+00, 2.42100105e+01,
          1.85993824e+01, 4.29931145e+01 ]
      - [ 7.16292114e+01, 7.37608261e+01, 6.87870483e+01, 3.86309013e+01,
          2.64993420e+01, 8.55860996e+00 ]
      - [ 8.01848907e+01, 7.29137039e+01, 1.32131186e+01, 6.30771599e+01,
          8.99715500e+01, 5.06103020e+01 ]
      - [ 1.97695141e+01, 3.08136463e+01, 2.04681778e+01, 3.87445488e+01,
          2.75460701e+01, 1.56351318e+01 ]
      - [ 8.14884338e+01, 8.41994171e+01, 8.93672848e+00, 6.22304573e+01,
          1.22865898e+02, 1.13683891e+02 ]
      - [ 8.03208008e+01, 7.78854446e+01, 7.85583267e+01, 3.39675636e+01,
          3.94064522e+01, 3.17050686e+01 ]
      - [ 7.30826035e+01, 7.42895889e+01, 2.51704903e+01, 4.48933868e+01,
          9.82871933e+01, 3.73793259e+01 ]
      - [ 4.29775276e+01, 6.73160706e+01, 8.94589386e+01, 3.36660118e+01,
          2.58267803e+01, 1.16148329e+01 ]
      - [ 7.32335358e+01, 6.51208191e+01, 6.36203346e+01, 6.43064423e+01,
          9.33889771e+01, 2.44899788e+01 ]
      - [ 8.14544525e+01, 8.65024643e+01, 1.04978542e+01, 1.63437176e+01,
          2.38561821e+01, 6.27031555e+01 ]
      - [ 6.45731659e+01, 8.07481384e+01, 1.34934204e+02, 3.41629829e+01,
          3.88311996e+01, 2.13358555e+01 ]
      - [ 8.08201370e+01, 8.20294952e+01, 5.06554937e+00, 6.11259422e+01,
          1.07076141e+02, 3.89197197e+01 ]
      - [ 8.27993240e+01, 7.96640244e+01, 1.07790375e+01, 7.01768570e+01,
          9.04893494e+01, 4.37582245e+01 ]
      - [ 5.15730400e+01, 9.04848251e+01, 1.29463440e+02, 1.89463310e+01,
          1.06398134e+01, 2.65552578e+01 ]
      - [ 5.01542015e+01, 4.82469711e+01, 4.14367371e+01, 6.57454834e+01,
          1.06732971e+02, 2.43328094e+01 ]
      - [ 8.42462997e+01, 8.28028793e+01, 5.17547750e+00, 5.06442871e+01,
          1.02801796e+02, 7.98591232e+01 ]
      - [ 8.18350449e+01, 7.16208954e+01, 2.20924492e+01, 4.84741516e+01,
          8.79010696e+01, 5.18997116e+01 ]
      - [ 6.78209152e+01, 6.68260574e+01, 3.23885727e+01, 6.02755928e+01,
          8.61274338e+01, 5.25405540e+01 ]
      - [ 7.32203140e+01, 7.88626404e+01, 1.31589546e+01, 2.00284271e+01,
          2.78028908e+01, 4.57648849e+01 ]
      - [ 7.86277618e+01, 7.65986633e+01, 7.52194929e+00, 5.80281944e+01,
          9.05674973e+01, 3.58560982e+01 ]
      - [ 1.99666519e+01, 3.76578102e+01, 2.12602615e+01, 4.53759918e+01,
          5.30683937e+01, 3.19441071e+01 ]
      - [ 7.46523743e+01, 6.52433319e+01, 5.58707962e+01, 3.70854454e+01,
          3.29176216e+01, 8.46482182e+00 ]
      - [ 4.29775276e+01, 4.66505775e+01, 9.49817200e+01, 3.63855133e+01,
          5.64639015e+01, 2.17865486e+01 ]
      - [ 5.41524734e+01, 5.56867981e+01, 2.26724796e+01, 6.61244125e+01,
          1.05117363e+02, 1.91126289e+01 ]
      - [ 7.16292267e+01, 6.17425804e+01, 3.91843758e+01, 4.45891457e+01,
          4.25351982e+01, 2.51251926e+01 ]
      - [ 8.13786545e+01, 8.65308075e+01, 6.56380415e+00, 2.47278023e+01,
          2.01620121e+01, 4.69065857e+01 ]
      - [ 7.03826752e+01, 7.69264679e+01, 5.52090073e+00, 3.31908455e+01,
          2.71044731e+01, 3.50729065e+01 ]
      - [ 9.29986725e+01, 8.62625275e+01, 1.02155571e+01, 4.57281837e+01,
          7.68913422e+01, 5.07625618e+01 ]
      - [ 6.43984680e+01, 9.34880676e+01, 1.21807434e+02, 5.98001633e+01,
          9.60881042e+01, 4.01737175e+01 ]
      - [ 7.02752075e+01, 7.39113235e+01, 9.50780640e+01, 4.47384338e+01,
          9.77268219e+01, 4.39959564e+01 ]
      - [ 7.73159485e+01, 7.91867294e+01, 6.97031689e+00, 7.30839539e+01,
          9.93111267e+01, 4.52198830e+01 ]
      - [ 6.87568359e+01, 6.52497787e+01, 7.40045395e+01, 3.95193253e+01,
          4.49311829e+01, 3.14390202e+01 ]
      - [ 6.01685410e+01, 1.03905228e+02, 1.06141518e+02, 4.00597267e+01,
          6.01425285e+01, 5.00704803e+01 ]
      - [ 6.11042595e+01, 7.52430115e+01, 1.09560989e+02, 3.39460869e+01,
          2.71602535e+01, 4.01913757e+01 ]
      - [ 3.58093414e+01, 6.00414886e+01, 1.31937714e+02, 2.48422108e+01,
          4.03355331e+01, 5.11482239e+01 ]
      - [ 8.71289368e+01, 8.62234573e+01, 1.07142477e+01, 5.18856392e+01,
          1.11684326e+02, 1.27835930e+02 ]
      - [ 5.44321747e+01, 7.01982651e+01, 9.87387543e+01, 4.94873466e+01,
          8.93550491e+01, 6.45765076e+01 ]
      - [ 8.00615158e+01, 8.36881027e+01, 4.97672195e+01, 4.27160263e+01,
          5.08407478e+01, 1.29356432e+01 ]
      - [ 7.91275787e+01, 8.05234833e+01, 3.49381471e+00, 7.98847351e+01,
          1.07687225e+02, 6.29805450e+01 ]
      - [ 7.27601624e+01, 7.26082382e+01, 1.70435486e+01, 6.84750443e+01,
          1.09291595e+02, 2.99490261e+01 ]
      - [ 7.33913956e+01, 9.12988129e+01, 1.07734108e+02, 3.26181259e+01,
          3.27241898e+01, 2.85080814e+01 ]
      - [ 7.43421249e+01, 7.75569382e+01, 4.95145893e+00, 6.31395721e+01,
          1.04371284e+02, 3.06893559e+01 ]
      - [ 9.02347412e+01, 9.07660904e+01, 1.45711908e+01, 9.74459534e+01,
          1.40173477e+02, 1.25285599e+02 ]
      - [ 4.29775276e+01, 5.36734848e+01, 3.47238770e+01, 2.47342358e+01,
          3.77746239e+01, 7.64419327e+01 ]
      - [ 9.46125946e+01, 8.84439468e+01, 6.59026718e+00, 7.75574799e+01,
          8.02710800e+01, 9.48659668e+01 ]
      - [ 8.51399536e+01, 8.13464127e+01, 7.05507517e+00, 6.44104156e+01,
          8.74750137e+01, 6.59584579e+01 ]
      - [ 6.17434731e+01, 6.16781769e+01, 6.08662987e+01, 3.74847374e+01,
          4.47401314e+01, 3.63567963e+01 ]
      - [ 4.29775276e+01, 1.13161140e+02, 9.57725754e+01, 3.19441299e+01,
          6.62194977e+01, 4.63923378e+01 ]
      - [ 7.69424515e+01, 7.40129166e+01, 7.32983551e+01, 4.49569283e+01,
          3.27067642e+01, 2.45149899e+01 ]
      - [ 7.29638138e+01, 6.93994141e+01, 4.15931091e+01, 2.69107037e+01,
          4.12039757e+01, 5.33657684e+01 ]
      - [ 7.31037979e+01, 5.90633621e+01, 8.56405945e+01, 4.23196602e+01,
          4.51198387e+01, 2.34823322e+01 ]
      - [ 7.99882050e+01, 7.73512802e+01, 8.68684673e+00, 4.69524002e+01,
          8.24755173e+01, 5.13825645e+01 ]
      - [ 8.15279694e+01, 8.56436768e+01, 6.96678019e+00, 2.70368557e+01,
          1.49934149e+01, 1.47484455e+01 ]
      - [ 5.11680641e+01, 5.42193985e+01, 5.31987991e+01, 3.74546661e+01,
          2.39674969e+01, 1.11877165e+01 ]
      - [ 7.32660904e+01, 6.47054214e+01, 6.47286682e+01, 5.20193558e+01,
          7.51111755e+01, 2.50488644e+01 ]
      - [ 8.30923920e+01, 8.13167496e+01, 5.66054058e+00, 2.57289028e+01,
          4.88276100e+01, 4.57827606e+01 ]
      - [ 7.34545059e+01, 9.04516373e+01, 1.10988190e+02, 6.21098442e+01,
          8.94456558e+01, 4.34096870e+01 ]
      - [ 8.16957855e+01, 8.33425293e+01, 4.34070730e+00, 7.62176514e+01,
          1.16950020e+02, 3.76536407e+01 ]
      - [ 8.13821869e+01, 7.91448135e+01, 1.34534426e+01, 1.75088482e+01,
          2.84528332e+01, 5.40190163e+01 ]
      - [ 7.74758224e+01, 7.53137894e+01, 1.37296829e+01, 6.23258705e+01,
          1.05843414e+02, 3.47307396e+01 ]
      - [ 8.16871872e+01, 8.50699844e+01, 8.40866756e+00, 3.64971924e+01,
          7.86326752e+01, 6.03820953e+01 ]
      - [ 6.16371002e+01, 6.77369232e+01, 1.37484407e+01, 3.17916565e+01,
          7.58669281e+01, 6.82358170e+01 ]
      - [ 8.02317123e+01, 6.31329803e+01, 3.49043236e+01, 4.00736198e+01,
          4.90356789e+01, 4.37642937e+01 ]
      - [ 8.26036377e+01, 8.28703232e+01, 5.50704336e+00, 4.20697975e+01,
          8.57393417e+01, 9.03851547e+01 ]
      - [ 5.44757195e+01, 5.96816673e+01, 8.03464317e+00, 3.18871174e+01,
          2.52295399e+01, 7.05111837e+00 ]
      - [ 8.14005966e+01, 8.39988708e+01, 1.09313383e+01, 2.47693615e+01,
          3.12270374e+01, 4.00461884e+01 ]
      - [ 6.48975372e+01, 7.13890381e+01, 7.66398144e+00, 5.14177246e+01,
          9.50035477e+01, 3.55380287e+01 ]
      - [ 8.05545731e+01, 7.09216003e+01, 4.02718735e+01, 5.04180756e+01,
          5.32027016e+01, 3.87260742e+01 ]
      - [ 7.30264587e+01, 7.92718048e+01, 6.47033405e+00, 6.33245277e+01,
          1.09566574e+02, 3.22545128e+01 ]
      - [ 8.30492096e+01, 8.19344864e+01, 3.67977476e+00, 7.99976959e+01,
          8.42763062e+01, 7.54565125e+01 ]
      - [ 3.58146210e+01, 8.72954941e+01, 1.60391891e+02, 2.73561954e+01,
          1.56808767e+01, 4.16702156e+01 ]
      - [ 9.02557373e+01, 8.93690720e+01, 1.15891876e+01, 3.61369057e+01,
          1.20177956e+02, 1.31222076e+02 ]
      - [ 3.58146248e+01, 7.35379715e+01, 1.45625610e+02, 3.20838890e+01,
          4.43118057e+01, 1.65947056e+01 ]
      - [ 7.89103928e+01, 8.54402466e+01, 1.56358566e+01, 6.69816971e+01,
          7.90645218e+01, 8.30288010e+01 ]
      - [ 4.90513268e+01, 5.69309883e+01, 1.67484741e+01, 3.67479477e+01,
          2.53105602e+01, 1.01064987e+01 ]
      - [ 7.67838287e+01, 8.51968994e+01, 8.30791702e+01, 4.90292320e+01,
          8.28463821e+01, 4.20422287e+01 ]
      - [ 7.32567596e+01, 7.81629868e+01, 9.37104321e+00, 4.13019218e+01,
          7.81616516e+01, 6.18934174e+01 ]
      - [ 6.65699692e+01, 6.71511307e+01, 6.28537445e+01, 3.29539490e+01,
          5.75476952e+01, 3.85745811e+01 ]
      - [ 8.30796738e+01, 8.75670624e+01, 1.01688051e+01, 4.60792313e+01,
          1.13104805e+02, 1.31775681e+02 ]
      - [ 9.02503967e+01, 8.96519241e+01, 1.01600056e+01, 3.17821808e+01,
          1.23472122e+02, 1.19860794e+02 ]
      - [ 4.29775543e+01, 8.76333313e+01, 1.01858803e+02, 3.97553978e+01,
          3.36840820e+01, 4.59495811e+01 ]
      - [ 4.91982040e+01, 5.50863838e+01, 7.88138580e+01, 2.57389336e+01,
          2.06235790e+01, 3.44687881e+01 ]
      - [ 6.60847473e+01, 5.72631111e+01, 2.42998219e+01, 6.49475174e+01,
          1.11686577e+02, 2.78966064e+01 ]
      - [ 7.89545517e+01, 7.87246780e+01, 5.00385046e+00, 6.93334579e+01,
          1.08591629e+02, 3.09261265e+01 ]
      - [ 8.32439346e+01, 8.37529907e+01, 3.68955803e+00, 6.37043343e+01,
          1.18335831e+02, 4.64453888e+01 ]
      - [ 4.29786491e+01, 4.67371140e+01, 9.35819016e+01, 3.99028893e+01,
          5.51779404e+01, 3.15867271e+01 ]
      - [ 8.26337280e+01, 7.48369064e+01, 1.17798481e+01, 2.50398636e+01,
          4.85429153e+01, 4.66977882e+01 ]
      - [ 4.29775276e+01, 6.51048431e+01, 1.19011147e+02, 2.69454708e+01,
          1.94792461e+01, 3.88881149e+01 ]
      - [ 8.02051544e+01, 8.26391830e+01, 5.03718519e+00, 5.41656113e+01,
          9.22751694e+01, 3.91907310e+01 ]
      - [ 6.88374023e+01, 6.07901421e+01, 3.11358852e+01, 2.79956417e+01,
          4.15071449e+01, 4.15364723e+01 ]
      - [ 6.87653656e+01, 9.39377136e+01, 1.08447380e+02, 4.02995415e+01,
          5.73228569e+01, 1.74418583e+01 ]
      - [ 9.43667450e+01, 1.10658920e+02, 2.44458942e+01, 1.53940094e+02,
          1.67671844e+02, 1.69033844e+02 ]
      - [ 8.22146988e+01, 8.14738464e+01, 7.07322645e+00, 7.41581802e+01,
          1.09095200e+02, 5.20575027e+01 ]
      - [ 4.29776039e+01, 6.33824425e+01, 3.15906029e+01, 2.61034622e+01,
          2.21085339e+01, 2.00382900e+01 ]
      - [ 8.00189285e+01, 8.53591690e+01, 5.15506983e+00, 1.99769592e+01,
          1.06335350e+02, 1.07223312e+02 ]
      - [ 5.12403030e+01, 1.00633125e+02, 1.45093460e+02, 2.84306850e+01,
          2.03756809e+01, 2.31739197e+01 ]
      - [ 5.73761177e+01, 6.29365234e+01, 7.24375200e+00, 3.68721809e+01,
          3.72281723e+01, 1.70451641e+01 ]
      - [ 8.88135757e+01, 8.27287903e+01, 6.95888186e+00, 5.97164078e+01,
          7.66169434e+01, 7.62132263e+01 ]
      - [ 7.62747879e+01, 7.65398331e+01, 8.08737373e+00, 4.80401688e+01,
          9.88915482e+01, 3.71211090e+01 ]
      - [ 8.19278793e+01, 8.28338089e+01, 3.86833596e+00, 3.65625114e+01,
          7.64104843e+01, 7.92379532e+01 ]
      - [ 6.11190453e+01, 7.05160980e+01, 8.30413628e+00, 5.16271935e+01,
          8.74233627e+01, 4.53556252e+01 ]
      - [ 8.27882690e+01, 8.08100052e+01, 2.93456769e+00, 2.34948273e+01,
          3.31851311e+01, 4.80715256e+01 ]
      - [ 7.70047531e+01, 8.05607224e+01, 1.28894539e+01, 3.13663158e+01,
          5.95417881e+00, 2.40158138e+01 ]
      - [ 7.58599014e+01, 7.82857056e+01, 6.90372314e+01, 4.80020638e+01,
          7.79855728e+01, 4.06268234e+01 ]
      - [ 7.59997864e+01, 7.86419601e+01, 5.51191759e+00, 2.59277172e+01,
          1.53790932e+01, 3.78594437e+01 ]
      - [ 9.01894684e+01, 7.92375183e+01, 7.65395355e+01, 4.21868019e+01,
          4.74950600e+01, 3.49636192e+01 ]
      - [ 8.02717819e+01, 7.92645187e+01, 5.66532469e+00, 5.74647102e+01,
          9.24988480e+01, 3.64468956e+01 ]
      - [ 7.42443542e+01, 6.82242279e+01, 1.93458633e+01, 7.91663055e+01,
          8.62888947e+01, 4.99598961e+01 ]
      - [ 7.92269516e+01, 8.81545410e+01, 1.12302734e+02, 3.75465851e+01,
          5.49454651e+01, 3.45889854e+01 ]
      - [ 7.74985733e+01, 8.35949707e+01, 8.33046246e+00, 5.64439240e+01,
          9.42398148e+01, 2.89733944e+01 ]
      - [ 6.16587639e+01, 6.26141815e+01, 6.91837931e+00, 3.19804478e+01,
          2.44765892e+01, 5.15689182e+00 ]
      - [ 7.76579895e+01, 7.92724609e+01, 8.12232876e+00, 4.59004250e+01,
          1.01782166e+02, 5.62695541e+01 ]
      - [ 7.46016312e+01, 6.61136169e+01, 8.42284012e+01, 3.62344246e+01,
          6.74484406e+01, 3.46103401e+01 ]
      - [ 1.13156538e+01, 3.10714321e+01, 2.06816635e+01, 4.10448761e+01,
          5.20127563e+01, 2.93804207e+01 ]
      - [ 8.31211624e+01, 9.12376251e+01, 1.54224195e+01, 5.87613487e+01,
          1.14591232e+02, 1.33315735e+02 ]
      - [ 7.83662720e+01, 6.96246033e+01, 6.80869064e+01, 4.02344170e+01,
          6.85307007e+01, 2.23305359e+01 ]
      - [ 7.05277252e+01, 6.35721054e+01, 3.04280224e+01, 6.02984238e+01,
          7.64883041e+01, 4.04128304e+01 ]
      - [ 3.46295128e+01, 8.76721191e+01, 1.71114105e+02, 1.88260841e+01,
          2.99202919e+01, 2.53851051e+01 ]
      - [ 1.86396790e+01, 5.78075600e+01, 1.20431129e+02, 4.50022392e+01,
          5.12686729e+01, 1.47892704e+01 ]
      - [ 7.16292114e+01, 7.23836212e+01, 1.16973946e+02, 3.98436928e+01,
          5.13706245e+01, 1.25154724e+01 ]
      - [ 6.85088196e+01, 7.02654953e+01, 1.14886673e+02, 4.58290443e+01,
          4.25702286e+01, 2.75075245e+01 ]
      - [ 6.85639572e+01, 6.75028381e+01, 1.40370541e+01, 6.81857605e+01,
          9.68614883e+01, 5.60493317e+01 ]
      - [ 6.56148453e+01, 6.33570213e+01, 2.13319321e+01, 7.96885986e+01,
          8.21789398e+01, 4.69407387e+01 ]
      - [ 7.98108368e+01, 8.11661453e+01, 2.62651157e+00, 6.69050140e+01,
          1.41004150e+02, 4.82399940e+01 ]
      - [ 7.06381989e+01, 7.01849136e+01, 8.17965317e+01, 6.93553696e+01,
          1.00261192e+02, 3.79672585e+01 ]
      - [ 7.19843903e+01, 9.83707886e+01, 1.17085167e+02, 2.50100212e+01,
          2.39019146e+01, 3.25354614e+01 ]
      - [ 6.55973282e+01, 6.63908691e+01, 3.40850983e+01, 2.83236809e+01,
          6.34794350e+01, 4.97610588e+01 ]
      - [ 5.73029251e+01, 8.21354599e+01, 1.23575714e+02, 4.09723930e+01,
          7.11038361e+01, 2.49044971e+01 ]
      - [ 6.60849075e+01, 8.87339325e+01, 1.26078613e+02, 3.54563980e+01,
          6.12027931e+01, 4.20814247e+01 ]
      - [ 7.89997711e+01, 8.19410629e+01, 6.17377806e+00, 4.00846214e+01,
          7.73092422e+01, 8.31769791e+01 ]
      - [ 6.14875374e+01, 6.75031433e+01, 1.26515980e+01, 3.19436321e+01,
          6.96363068e+01, 5.98678741e+01 ]
      - [ 7.90511475e+01, 8.08645325e+01, 2.55800080e+00, 7.19460526e+01,
          1.42948532e+02, 4.79525986e+01 ]
      - [ 5.57222595e+01, 4.75537415e+01, 5.41177902e+01, 6.91533890e+01,
          4.62612572e+01, 5.10304184e+01 ]
      - [ 3.57815819e+01, 5.28830757e+01, 3.66691704e+01, 6.33855247e+01,
          7.40892792e+01, 4.32816277e+01 ]
      - [ 3.00842533e+01, 4.06584587e+01, 2.08113365e+01, 3.61390686e+01,
          5.43503799e+01, 3.63989143e+01 ]
      - [ 4.29775887e+01, 4.95878601e+01, 3.92088623e+01, 6.01440926e+01,
          9.96265259e+01, 1.90525551e+01 ]
      - [ 5.72970047e+01, 5.71114998e+01, 3.91725082e+01, 2.33654881e+01,
          2.85056019e+01, 3.94069748e+01 ]
      - [ 6.63693314e+01, 7.80346069e+01, 6.60938416e+01, 2.83818207e+01,
          6.46881943e+01, 4.40251389e+01 ]
      - [ 8.15188446e+01, 8.40347290e+01, 3.71741843e+00, 6.59833527e+01,
          1.18188103e+02, 4.58984947e+01 ]
      - [ 3.43820229e+01, 5.79127541e+01, 1.19255371e+01, 3.71803436e+01,
          3.22096672e+01, 2.06174679e+01 ]
      - [ 7.68307800e+01, 9.87528381e+01, 1.09037849e+02, 3.66295204e+01,
          4.05187874e+01, 6.17724133e+00 ]
      - [ 7.88144760e+01, 9.36246567e+01, 9.94324417e+01, 4.54961433e+01,
          6.39135590e+01, 4.60877151e+01 ]
      - [ 8.13277588e+01, 8.30023575e+01, 4.62493801e+00, 5.90648003e+01,
          1.35690231e+02, 9.27678757e+01 ]
      - [ 3.55028419e+01, 5.46605873e+01, 2.06120014e+01, 3.77171898e+01,
          6.66650772e+01, 4.13054237e+01 ]
      - [ 7.62186432e+01, 7.91748123e+01, 3.81620431e+00, 6.11556664e+01,
          1.21842949e+02, 5.28825188e+01 ]
      - [ 8.45600357e+01, 8.27575302e+01, 5.42194557e+00, 5.97499008e+01,
          1.19904785e+02, 4.67181168e+01 ]
      - [ 6.87524796e+01, 7.27222519e+01, 9.94125843e+00, 4.34533730e+01,
          7.16708603e+01, 8.78851242e+01 ]
      - [ 7.45143280e+01, 7.94036331e+01, 9.67834091e+00, 1.75418892e+01,
          2.34239216e+01, 5.54315491e+01 ]
      - [ 7.31705399e+01, 6.94272385e+01, 1.36134138e+01, 7.04406204e+01,
          1.03675133e+02, 3.91447716e+01 ]
      - [ 6.86603012e+01, 8.53126678e+01, 9.46408539e+01, 3.19643250e+01,
          4.47985573e+01, 3.45709763e+01 ]
      - [ 7.88848267e+01, 8.25794601e+01, 4.55481195e+00, 1.02235023e+02,
          9.16200256e+01, 9.13036880e+01 ]
      - [ 8.19628830e+01, 7.98438492e+01, 1.05965691e+01, 5.30523376e+01,
          8.92442780e+01, 4.28887863e+01 ]
      - [ 6.07980995e+01, 6.46120529e+01, 8.80807343e+01, 4.69523811e+01,
          8.86264343e+01, 5.36275482e+01 ]
      - [ 6.89060516e+01, 7.02545242e+01, 6.07910061e+00, 6.93319168e+01,
          1.04305153e+02, 6.12785950e+01 ]
      - [ 5.13578110e+01, 9.41611099e+01, 1.30435013e+02, 2.84555130e+01,
          1.97273979e+01, 4.18245926e+01 ]
      - [ 6.58849640e+01, 6.25579071e+01, 5.06965942e+01, 7.98841629e+01,
          1.06773048e+02, 3.37976379e+01 ]
      - [ 4.29777107e+01, 9.21413345e+01, 1.31632736e+02, 7.98440475e+01,
          1.04987083e+02, 6.75007782e+01 ]
      - [ 8.59560318e+01, 7.73660812e+01, 7.93990631e+01, 3.76506844e+01,
          5.31580124e+01, 3.62273827e+01 ]
      - [ 7.18112946e+01, 7.54313812e+01, 4.39419365e+00, 2.49520264e+01,
          6.70930405e+01, 5.24781151e+01 ]
      - [ 5.44318962e+01, 6.66823654e+01, 1.17320461e+01, 5.73291473e+01,
          9.98173065e+01, 2.50242348e+01 ]
      - [ 1.04578171e+02, 8.16580276e+01, 1.72754650e+01, 2.72956734e+01,
          2.25818596e+01, 4.06547661e+01 ]
      - [ 7.41769485e+01, 7.30895767e+01, 3.23182259e+01, 4.31183128e+01,
          2.99766445e+01, 1.40498161e+01 ]
      - [ 6.13155861e+01, 7.02903366e+01, 1.02508278e+02, 6.00395966e+01,
          9.25749054e+01, 5.84012566e+01 ]
      - [ 7.33942413e+01, 8.67193146e+01, 1.02040680e+02, 3.98853836e+01,
          3.82672539e+01, 9.62106800e+00 ]
      - [ 5.56290512e+01, 5.35499001e+01, 8.10692215e+01, 2.37534294e+01,
          3.56091766e+01, 4.81996422e+01 ]
      - [ 8.87365952e+01, 8.69269180e+01, 1.10573568e+01, 2.81311512e+01,
          2.04880543e+01, 1.26227903e+01 ]
      - [ 8.92566986e+01, 8.70783234e+01, 1.31096039e+01, 3.86140022e+01,
          8.44345245e+01, 4.78569298e+01 ]
      - [ 9.18227310e+01, 8.55789490e+01, 1.05499496e+01, 3.18161964e+01,
          6.88435364e+01, 5.01549950e+01 ]
      - [ 4.97810287e+01, 4.70335121e+01, 4.55332565e+01, 5.03514748e+01,
          4.60981216e+01, 4.44330864e+01 ]
      - [ 7.31324310e+01, 6.17210617e+01, 7.06640244e+01, 4.59496384e+01,
          6.50779114e+01, 3.28131943e+01 ]
      - [ 7.16374969e+01, 7.41492004e+01, 1.49623661e+01, 2.12316704e+01,
          0., 3.46590042e+01 ]
      - [ 5.01418457e+01, 6.53463364e+01, 1.01735451e+02, 2.49526043e+01,
          3.70162315e+01, 5.19956932e+01 ]
      - [ 6.16639900e+01, 6.12885857e+01, 1.86883640e+01, 4.78735313e+01,
          7.91248169e+01, 4.42871246e+01 ]
      - [ 7.45571365e+01, 8.21308289e+01, 8.14064636e+01, 3.78315353e+01,
          5.44392929e+01, 4.32102890e+01 ]
      - [ 9.35686340e+01, 8.34041214e+01, 2.33113613e+01, 3.29200211e+01,
          5.81008720e+01, 3.42010307e+01 ]
      - [ 6.86267395e+01, 5.93133698e+01, 6.43504562e+01, 3.64080505e+01,
          7.61484222e+01, 6.12286034e+01 ]
      - [ 5.01299591e+01, 5.68909912e+01, 2.24814949e+01, 5.39715843e+01,
          9.88494568e+01, 1.87421379e+01 ]
      - [ 5.46484833e+01, 6.26342430e+01, 8.73571243e+01, 2.60228634e+01,
          2.58978481e+01, 3.67347107e+01 ]
      - [ 6.84790955e+01, 6.62486038e+01, 1.00249767e+01, 5.52231827e+01,
          8.52440567e+01, 5.13791809e+01 ]
      - [ 6.87244797e+01, 6.18007660e+01, 6.20369682e+01, 4.23026314e+01,
          4.79500504e+01, 3.84805565e+01 ]
      - [ 8.05066757e+01, 7.81939774e+01, 1.71002979e+01, 2.05315762e+01,
          4.07296600e+01, 5.22434807e+01 ]
      - [ 6.01800804e+01, 6.96358337e+01, 3.87425270e+01, 3.85142708e+01,
          2.93295403e+01, 6.89619446e+00 ]
      - [ 8.05910568e+01, 6.84560165e+01, 1.21709305e+02, 4.00421562e+01,
          6.58994141e+01, 2.09370480e+01 ]
      - [ 7.04541321e+01, 7.22032852e+01, 5.15496254e+00, 2.85240974e+01,
          5.26285896e+01, 4.68206596e+01 ]
      - [ 8.51213379e+01, 8.39520264e+01, 5.80015182e+00, 5.43671532e+01,
          1.22150818e+02, 1.05117867e+02 ]
      - [ 2.85779171e+01, 5.31128998e+01, 4.95892868e+01, 6.55594254e+01,
          9.31572876e+01, 4.09282722e+01 ]
      - [ 7.73308411e+01, 6.93300934e+01, 8.67187119e+01, 4.78040237e+01,
          7.09389343e+01, 3.07464390e+01 ]
      - [ 7.16292114e+01, 7.91185532e+01, 4.39142609e+01, 2.58980713e+01,
          4.95655670e+01, 6.44810410e+01 ]
      - [ 5.47107162e+01, 5.47408981e+01, 6.89814606e+01, 3.57755928e+01,
          5.28711510e+01, 4.92785454e+01 ]
      - [ 5.33913956e+01, 7.43853912e+01, 1.66732235e+01, 4.16436577e+01,
          5.12578239e+01, 4.41247988e+00 ]
      - [ 8.14540405e+01, 7.85921555e+01, 9.05440750e+01, 4.72611771e+01,
          8.52389450e+01, 5.53504524e+01 ]
      - [ 8.19358597e+01, 8.20509262e+01, 2.98222136e+00, 5.76160469e+01,
          6.94215698e+01, 6.80574722e+01 ]
      - [ 5.44882545e+01, 5.16845322e+01, 9.85799561e+01, 3.27882652e+01,
          7.11940308e+01, 6.98982544e+01 ]
      - [ 5.01089287e+01, 5.13731537e+01, 3.52947769e+01, 6.12508392e+01,
          7.25713120e+01, 4.14158058e+01 ]
      - [ 4.29775200e+01, 6.12460213e+01, 9.53318939e+01, 2.34574146e+01,
          2.98981285e+01, 6.10071335e+01 ]
      - [ 8.09388809e+01, 8.16560211e+01, 6.94127989e+00, 6.00825195e+01,
          8.03246155e+01, 4.54372787e+01 ]
      - [ 8.12358475e+01, 8.38656693e+01, 2.86735964e+00, 8.69585266e+01,
          1.04707085e+02, 3.32622108e+01 ]
      - [ 7.77280579e+01, 7.30790939e+01, 1.15011568e+01, 6.60406265e+01,
          8.61507339e+01, 4.17267570e+01 ]
      - [ 5.44403534e+01, 5.71368446e+01, 1.16722250e+01, 3.19232121e+01,
          2.31797829e+01, 5.50088167e+00 ]
      - [ 6.87159424e+01, 7.21991272e+01, 1.05605955e+01, 7.03935089e+01,
          1.19500702e+02, 2.62150154e+01 ]
      - [ 5.44381981e+01, 5.05417442e+01, 1.13325127e+02, 4.92177162e+01,
          7.79918442e+01, 4.19579353e+01 ]
      - [ 8.59562225e+01, 9.40098495e+01, 1.56117153e+01, 7.40328445e+01,
          1.50578247e+02, 1.50127914e+02 ]
      - [ 7.73576050e+01, 6.69843292e+01, 9.51114349e+01, 4.18721352e+01,
          7.13420258e+01, 3.21221619e+01 ]
      - [ 7.83114014e+01, 7.65739975e+01, 1.93683434e+01, 4.81087151e+01,
          9.08876724e+01, 4.12603645e+01 ]
      - [ 6.57488785e+01, 6.41553802e+01, 6.60043564e+01, 4.58338470e+01,
          6.69502106e+01, 4.22060432e+01 ]
      - [ 7.83301239e+01, 7.62681656e+01, 8.32533455e+00, 3.91025734e+01,
          9.45510483e+01, 4.93373184e+01 ]
      - [ 7.88505325e+01, 7.99184113e+01, 2.51190019e+00, 7.29778061e+01,
          1.08355782e+02, 5.55406952e+01 ]
      - [ 8.01837158e+01, 8.35011597e+01, 8.89590549e+00, 7.76227188e+01,
          1.17181129e+02, 1.08864883e+02 ]
      - [ 9.02317047e+01, 9.24986267e+01, 1.66124821e+01, 1.16540359e+02,
          1.51594223e+02, 1.43841629e+02 ]
      - [ 3.27849655e+01, 3.85113831e+01, 1.86392822e+01, 5.78957710e+01,
          5.91193123e+01, 2.47319946e+01 ]
      - [ 6.87727356e+01, 7.85740891e+01, 1.17204430e+02, 4.22760735e+01,
          8.56793060e+01, 4.31560249e+01 ]
      - [ 1.07443810e+02, 1.34245316e+02, 1.36107681e+02, 2.95452366e+01,
          1.94541264e+01, 2.15890827e+01 ]
      - [ 7.29952011e+01, 7.48636246e+01, 5.30425072e+00, 5.88383255e+01,
          9.87051544e+01, 3.81711121e+01 ]
      - [ 7.35314560e+01, 8.05036392e+01, 1.05825844e+02, 3.98038406e+01,
          5.35047989e+01, 3.21303215e+01 ]
      - [ 6.86998749e+01, 6.65440826e+01, 1.10927038e+01, 9.07998886e+01,
          9.80640106e+01, 5.30451660e+01 ]
      - [ 8.02053146e+01, 8.74018631e+01, 5.57375622e+00, 3.56285133e+01,
          1.18327484e+02, 1.11043938e+02 ]
      - [ 7.34663391e+01, 6.82323303e+01, 8.62163849e+01, 5.99510841e+01,
          9.69176941e+01, 4.01556587e+01 ]
      - [ 6.01685448e+01, 6.73046417e+01, 9.13195114e+01, 4.17073326e+01,
          6.26482506e+01, 4.11896629e+01 ]
      - [ 7.89183807e+01, 7.97165070e+01, 4.91698694e+00, 6.20696297e+01,
          1.00517517e+02, 4.78868332e+01 ]
      - [ 6.16477890e+01, 7.97107391e+01, 1.22333046e+02, 6.55834122e+01,
          1.03910210e+02, 3.49017677e+01 ]
      - [ 9.02309952e+01, 9.06973877e+01, 1.70871296e+01, 8.81465530e+01,
          9.49089508e+01, 1.08516495e+02 ]
      - [ 5.01428795e+01, 5.03368034e+01, 4.08976173e+01, 6.50325928e+01,
          1.08264313e+02, 2.75969162e+01 ]
      - [ 8.00581589e+01, 7.84073257e+01, 5.04983425e+00, 1.90771313e+01,
          1.58550129e+01, 4.04550438e+01 ]
      - [ 7.32077789e+01, 6.19562302e+01, 6.98870850e+01, 4.62847443e+01,
          6.36123161e+01, 3.44862213e+01 ]
      - [ 8.16416245e+01, 8.13940201e+01, 4.56305809e+01, 4.35601349e+01,
          5.18462372e+01, 1.36489286e+01 ]
      - [ 9.47434464e+01, 7.96560593e+01, 7.81637115e+01, 3.53396988e+01,
          4.59892387e+01, 3.19828148e+01 ]
      - [ 6.59253769e+01, 7.10349197e+01, 7.78618908e+00, 5.28801918e+01,
          8.27656479e+01, 5.71036263e+01 ]
      - [ 6.87381668e+01, 7.11174393e+01, 1.02115303e+02, 4.20517960e+01,
          4.04221306e+01, 2.61625156e+01 ]
      - [ 7.16292191e+01, 6.63016891e+01, 3.45628014e+01, 1.64517460e+01,
          4.33438072e+01, 8.84018936e+01 ]
      - [ 1.86235962e+01, 4.76667480e+01, 2.12637348e+01, 5.19784775e+01,
          5.44624176e+01, 3.39919472e+01 ]
      - [ 8.29685745e+01, 8.53267517e+01, 4.98693514e+00, 8.07548599e+01,
          8.93373795e+01, 1.07099930e+02 ]
      - [ 8.89428482e+01, 9.02253647e+01, 6.31320524e+00, 1.09285713e+02,
          8.11382751e+01, 9.91789780e+01 ]
      - [ 8.03005676e+01, 8.11065903e+01, 2.61873364e+00, 6.44619293e+01,
          1.11520668e+02, 4.36750755e+01 ]
      - [ 4.29775200e+01, 6.54978409e+01, 1.43055466e+02, 2.38705959e+01,
          2.39443569e+01, 2.81366959e+01 ]
      - [ 6.87667084e+01, 6.16176910e+01, 9.04902725e+01, 4.21217232e+01,
          6.70149231e+01, 3.51606865e+01 ]
      - [ 7.43806915e+01, 7.57611237e+01, 7.25650940e+01, 3.99418526e+01,
          8.50845413e+01, 3.78663597e+01 ]
      - [ 7.43164673e+01, 7.67621994e+01, 4.05297136e+00, 2.71203175e+01,
          5.55709953e+01, 4.87824669e+01 ]
      - [ 6.16197319e+01, 8.55056534e+01, 1.29180939e+02, 3.62863655e+01,
          5.47856750e+01, 3.80089417e+01 ]
      - [ 5.14728775e+01, 6.87705765e+01, 1.35419922e+02, 3.77067947e+01,
          6.15981750e+01, 3.38013649e+01 ]
      - [ 7.91913910e+01, 7.96823425e+01, 3.28836179e+00, 7.85112228e+01,
          1.32516632e+02, 3.33536110e+01 ]
      - [ 6.47414551e+01, 6.47256241e+01, 4.49851875e+01, 3.05282288e+01,
          5.72004128e+01, 5.46598053e+01 ]
      - [ 5.50084839e+01, 6.54460831e+01, 8.78501892e+00, 3.20946426e+01,
          2.69963837e+01, 2.68698921e+01 ]
      - [ 5.44207115e+01, 6.45741882e+01, 1.28303080e+01, 3.45624580e+01,
          3.18378010e+01, 7.54286718e+00 ]
      - [ 5.44381104e+01, 5.23726501e+01, 1.13353622e+02, 3.89004822e+01,
          7.41993484e+01, 3.85920639e+01 ]
      - [ 9.02416000e+01, 9.00446548e+01, 9.34105587e+00, 6.72979965e+01,
          1.24115433e+02, 1.17846611e+02 ]
      - [ 8.11547241e+01, 7.96897964e+01, 4.06134844e+00, 8.80866394e+01,
          1.11526642e+02, 2.79295139e+01 ]
      - [ 7.54277496e+01, 8.13061523e+01, 1.00131004e+02, 4.21732063e+01,
          8.04584503e+01, 4.71338997e+01 ]
      - [ 6.59172363e+01, 1.00953529e+02, 1.50998245e+02, 2.98742790e+01,
          7.18239899e+01, 4.63532906e+01 ]
      - [ 7.48584747e+01, 1.02289993e+02, 1.50611404e+02, 4.12272568e+01,
          7.86266708e+01, 4.74277115e+01 ]
      - [ 1.00646248e+02, 8.60684433e+01, 1.86772537e+01, 3.63552475e+01,
          4.17977638e+01, 1.74469814e+01 ]
      - [ 3.46774750e+01, 4.68390503e+01, 5.04999008e+01, 3.54217949e+01,
          3.48717003e+01, 1.27793798e+01 ]
      - [ 1.18874847e+02, 1.08289665e+02, 6.07346039e+01, 4.20631180e+01,
          5.06303673e+01, 5.28685951e+01 ]
      - [ 6.58617630e+01, 6.63158646e+01, 8.32903137e+01, 6.36419716e+01,
          9.85312271e+01, 2.62515888e+01 ]
      - [ 5.45562057e+01, 6.71689529e+01, 8.91379547e+01, 5.24854126e+01,
          8.74555130e+01, 6.51839447e+01 ]
      - [ 6.14475555e+01, 6.12283974e+01, 4.44473457e+01, 3.55892830e+01,
          8.24806137e+01, 5.13096237e+01 ]
      - [ 7.74330826e+01, 8.16310120e+01, 8.45838261e+00, 5.65224762e+01,
          9.66881332e+01, 2.76270962e+01 ]
      - [ 7.92032471e+01, 8.19912262e+01, 2.81455231e+00, 5.53560638e+01,
          1.05503647e+02, 4.58006325e+01 ]
      - [ 5.47468796e+01, 6.07435188e+01, 1.05216103e+01, 4.68271103e+01,
          8.20537338e+01, 5.13447647e+01 ]
      - [ 7.88551483e+01, 7.69663544e+01, 8.36272717e+00, 6.98572006e+01,
          1.10090446e+02, 3.10276833e+01 ]
      - [ 8.02779007e+01, 8.04956589e+01, 9.91698742e+00, 5.76470642e+01,
          9.19679413e+01, 3.75282364e+01 ]
      - [ 6.16711769e+01, 5.94618683e+01, 2.28447533e+01, 6.93240662e+01,
          7.78211746e+01, 4.48973770e+01 ]
      - [ 4.91335411e+01, 7.75488281e+01, 1.13263397e+02, 7.52542496e+01,
          9.79533920e+01, 6.12003098e+01 ]
      - [ 6.42764511e+01, 5.61326408e+01, 4.12720985e+01, 4.59335747e+01,
          7.06256409e+01, 3.59539680e+01 ]
      - [ 4.87159042e+01, 7.05395737e+01, 1.21041580e+02, 2.15863171e+01,
          3.74293747e+01, 5.27958565e+01 ]
      - [ 6.01992455e+01, 6.98302917e+01, 3.56848145e+01, 2.36754246e+01,
          1.39815245e+01, 3.06498508e+01 ]
      - [ 5.45705261e+01, 6.77566299e+01, 1.16991249e+02, 3.56183128e+01,
          4.35312576e+01, 3.27111893e+01 ]
      - [ 7.61889191e+01, 7.73053741e+01, 5.26555252e+01, 5.86812820e+01,
          7.78513184e+01, 4.30328903e+01 ]
      - [ 6.87443085e+01, 6.57226639e+01, 2.87614269e+01, 5.28635635e+01,
          8.08769226e+01, 4.87392006e+01 ]
      - [ 4.29775238e+01, 7.78425446e+01, 6.85258713e+01, 4.60797615e+01,
          3.38284798e+01, 1.97884579e+01 ]
      - [ 6.46509323e+01, 9.24797058e+01, 1.11250343e+02, 3.17159386e+01,
          4.58507347e+01, 3.78484344e+01 ]
      - [ 5.58226738e+01, 5.17677994e+01, 7.67540207e+01, 6.69815369e+01,
          5.08797264e+01, 3.01186428e+01 ]
      - [ 6.16035309e+01, 5.36528244e+01, 6.05849953e+01, 6.11059914e+01,
          5.01022415e+01, 3.08930912e+01 ]
      - [ 6.89825821e+01, 6.24380341e+01, 4.47548943e+01, 5.16176605e+01,
          7.87138901e+01, 6.29291611e+01 ]
      - [ 6.45985107e+01, 7.11348114e+01, 1.10089760e+01, 2.35503101e+01,
          6.39366455e+01, 7.86069183e+01 ]
      - [ 6.58934784e+01, 6.63909607e+01, 6.72374878e+01, 7.62543335e+01,
          1.04567795e+02, 3.68079300e+01 ]
      - [ 8.41759338e+01, 8.46972427e+01, 6.17742300e+00, 7.05369949e+01,
          1.05302925e+02, 1.08825668e+02 ]
      - [ 4.95326920e+01, 5.16720886e+01, 2.09777393e+01, 3.29410210e+01,
          1.33054323e+01, 2.74124184e+01 ]
      - [ 6.48289566e+01, 6.05378151e+01, 2.99539833e+01, 2.71201172e+01,
          4.57940712e+01, 3.55446587e+01 ]
      - [ 4.29775276e+01, 6.43643875e+01, 9.75607452e+01, 4.06807137e+01,
          6.57283630e+01, 4.01039658e+01 ]
      - [ 7.77779160e+01, 7.29977112e+01, 5.11745300e+01, 6.57069321e+01,
          7.70900803e+01, 3.62214394e+01 ]
      - [ 8.01704254e+01, 7.78758240e+01, 7.54481840e+00, 6.72797470e+01,
          1.03274422e+02, 6.61447678e+01 ]
      - [ 7.37632065e+01, 8.23988419e+01, 1.36642990e+01, 2.36574974e+01,
          5.45899200e+01, 5.12563362e+01 ]
      - [ 7.89749680e+01, 8.01116943e+01, 4.15800858e+00, 3.01044254e+01,
          2.85586376e+01, 5.00824547e+01 ]
      - [ 8.00666733e+01, 9.92550659e+01, 6.52328033e+01, 3.51282158e+01,
          3.29526939e+01, 3.94753647e+01 ]
      - [ 7.05136566e+01, 7.88162308e+01, 9.18788910e+01, 6.56320038e+01,
          9.31153870e+01, 3.82801094e+01 ]
      - [ 8.33329773e+01, 8.83787384e+01, 1.05894766e+01, 8.45982437e+01,
          1.29149857e+02, 1.44875519e+02 ]
      - [ 6.17467995e+01, 8.18264313e+01, 1.08025963e+02, 3.30583534e+01,
          5.22838326e+01, 3.47680397e+01 ]
      - [ 8.59587402e+01, 1.11502899e+02, 2.59108791e+01, 1.12755531e+02,
          1.45313873e+02, 1.35096664e+02 ]
      - [ 3.58146095e+01, 5.31317177e+01, 7.49030914e+01, 2.32432365e+01,
          3.10871639e+01, 5.21446915e+01 ]
      - [ 7.46167297e+01, 7.77490387e+01, 4.52302408e+00, 2.11520882e+01,
          2.72518101e+01, 1.99506321e+01 ]
      - [ 1.40247360e+02, 1.39529739e+02, 1.62879868e+01, 1.72741943e+02,
          2.00758636e+02, 1.43852325e+02 ]
      - [ 9.02541809e+01, 8.73942337e+01, 5.90378761e+00, 3.17737255e+01,
          2.17691441e+01, 5.24675903e+01 ]
      - [ 7.77558670e+01, 7.74556274e+01, 3.19226432e+00, 7.55561600e+01,
          7.94923477e+01, 4.39653778e+01 ]
      - [ 3.58146057e+01, 4.63352928e+01, 2.83867989e+01, 2.46837120e+01,
          1.35424700e+01, 1.50409222e+01 ]
      - [ 4.29780235e+01, 8.15669556e+01, 1.38279175e+02, 4.49050827e+01,
          8.63195953e+01, 7.37528381e+01 ]
      - [ 6.16640511e+01, 6.29266624e+01, 1.05502005e+01, 3.79040070e+01,
          8.08583832e+01, 4.30602341e+01 ]
      - [ 6.74023056e+01, 7.47393875e+01, 1.04186373e+01, 5.75280342e+01,
          9.75245056e+01, 4.84498291e+01 ]
      - [ 7.71499634e+01, 6.87641983e+01, 1.08371536e+02, 5.52375145e+01,
          8.78729706e+01, 4.16884346e+01 ]
      - [ 6.01685410e+01, 7.45154037e+01, 1.52319031e+01, 2.31133499e+01,
          3.03577156e+01, 4.69087868e+01 ]
      - [ 7.47775497e+01, 7.63338852e+01, 5.31835127e+00, 5.67272797e+01,
          1.09652283e+02, 3.18354626e+01 ]
      - [ 6.86984634e+01, 6.70160141e+01, 1.15105343e+01, 8.11179276e+01,
          9.79221573e+01, 5.40085526e+01 ]
      - [ 4.29775238e+01, 9.99516983e+01, 1.43879379e+02, 2.11331673e+01,
          1.46991892e+01, 2.75805626e+01 ]
      - [ 7.89511261e+01, 7.98817673e+01, 7.28729172e+01, 2.34752464e+01,
          1.59478035e+01, 2.97101955e+01 ]
      - [ 6.58947372e+01, 6.97935181e+01, 5.78552580e+00, 3.40450974e+01,
          2.80506287e+01, 3.22694492e+00 ]
      - [ 1.00279175e+02, 9.95443802e+01, 1.07796049e+01, 7.41520691e+01,
          1.58565033e+02, 1.34333771e+02 ]
      - [ 4.29783707e+01, 5.04548416e+01, 1.90684376e+01, 3.64414482e+01,
          2.59574928e+01, 6.30218601e+00 ]
      - [ 4.87088356e+01, 8.16065292e+01, 1.21192314e+02, 2.96734505e+01,
          5.09769020e+01, 4.07421913e+01 ]
      - [ 8.01075058e+01, 8.05192184e+01, 2.53259754e+00, 6.61177597e+01,
          1.25863228e+02, 5.50307426e+01 ]
      - [ 6.28309937e+01, 5.89784012e+01, 2.63237972e+01, 5.06163521e+01,
          7.83166275e+01, 4.99676743e+01 ]
      - [ 1.08876373e+02, 8.55102692e+01, 1.80068684e+01, 3.41405296e+01,
          3.26439857e+01, 1.84509926e+01 ]
      - [ 8.03396378e+01, 8.00937271e+01, 6.66689873e+00, 6.33611259e+01,
          1.07872414e+02, 6.00580940e+01 ]
      - [ 8.03476562e+01, 8.55045319e+01, 6.60101461e+00, 9.16589890e+01,
          1.04372551e+02, 1.13693703e+02 ]
      - [ 8.29245987e+01, 8.49469757e+01, 1.30334902e+01, 3.05888500e+01,
          6.00227318e+01, 6.49513779e+01 ]
      - [ 7.33529892e+01, 7.16184311e+01, 1.25798521e+01, 7.03981018e+01,
          9.23853912e+01, 4.19077568e+01 ]
      - [ 6.88847427e+01, 8.28178864e+01, 5.44942360e+01, 7.40322495e+01,
          6.77705612e+01, 4.83972435e+01 ]
      - [ 4.96620293e+01, 6.22196541e+01, 1.26398079e+02, 4.95359039e+01,
          4.52985954e+01, 5.97067719e+01 ]
      - [ 7.92047043e+01, 8.00467224e+01, 6.58978939e+00, 5.74858780e+01,
          9.57411118e+01, 2.85186996e+01 ]
      - [ 8.02362366e+01, 8.07941055e+01, 4.12997723e+00, 4.26379395e+01,
          8.43353882e+01, 4.37050400e+01 ]
      - [ 6.45358353e+01, 7.17985153e+01, 1.02267475e+01, 2.33574963e+01,
          2.54699745e+01, 4.23106079e+01 ]
      - [ 4.98804588e+01, 8.49887161e+01, 1.22428368e+02, 8.48218460e+01,
          1.02934135e+02, 6.16581726e+01 ]
      - [ 9.02713394e+01, 8.24230576e+01, 2.06306915e+01, 3.64160423e+01,
          4.92239838e+01, 3.40856857e+01 ]
      - [ 9.61271820e+01, 9.28069916e+01, 6.36181879e+00, 2.73745346e+01,
          3.86000366e+01, 2.87356339e+01 ]
      - [ 7.45422134e+01, 8.75473785e+01, 8.51995468e+01, 3.55512199e+01,
          7.72941589e+01, 4.32625275e+01 ]
      - [ 9.99081879e+01, 8.21455002e+01, 7.31401291e+01, 2.97098789e+01,
          4.59444962e+01, 3.56012955e+01 ]
      - [ 8.10082855e+01, 8.07452469e+01, 3.65828276e+00, 6.18932228e+01,
          1.00790535e+02, 5.25460320e+01 ]
      - [ 7.36267929e+01, 7.05199661e+01, 7.52129517e+01, 6.10858765e+01,
          8.54893951e+01, 4.00547867e+01 ]
      - [ 6.87766037e+01, 6.75148392e+01, 1.81188354e+01, 5.55552979e+01,
          8.16169891e+01, 4.80560532e+01 ]
      - [ 8.11956787e+01, 8.23067474e+01, 7.47743301e+01, 4.11262131e+01,
          7.32102127e+01, 3.98687172e+01 ]
      - [ 9.02496490e+01, 8.32503815e+01, 4.57837944e+01, 3.70743942e+01,
          4.63992844e+01, 3.92503128e+01 ]
      - [ 5.72936821e+01, 5.87139015e+01, 7.15293579e+01, 2.58148708e+01,
          2.93717537e+01, 4.13136444e+01 ]
      - [ 8.86144943e+01, 8.19157486e+01, 6.92161608e+00, 2.83246632e+01,
          3.06145496e+01, 4.48951073e+01 ]
      - [ 7.10274429e+01, 6.84233551e+01, 1.56327677e+01, 7.75208054e+01,
          1.00948250e+02, 5.38848801e+01 ]
      - [ 6.87660065e+01, 7.09866943e+01, 6.70282269e+00, 4.11230850e+01,
          4.98484573e+01, 5.49375038e+01 ]
      - [ 4.97831650e+01, 4.65663795e+01, 5.37156067e+01, 6.19379730e+01,
          4.35900764e+01, 4.93375740e+01 ]
      - [ 4.97821884e+01, 6.60746613e+01, 1.40419815e+02, 3.29827538e+01,
          7.43614273e+01, 7.97501907e+01 ]
      - [ 6.12431183e+01, 8.05032806e+01, 1.15530266e+02, 2.22447109e+01,
          6.17128334e+01, 8.09653549e+01 ]
      - [ 9.02355881e+01, 8.78854294e+01, 8.02388382e+00, 3.22320061e+01,
          1.32127295e+01, 2.88857460e+01 ]
      - [ 6.05204315e+01, 8.37133331e+01, 2.78682213e+01, 3.64321899e+01,
          3.46634102e+01, 5.11691895e+01 ]
      - [ 4.91158485e+01, 6.12265892e+01, 1.95270615e+01, 2.48569736e+01,
          8.99739647e+00, 1.99249821e+01 ]
      - [ 6.47057419e+01, 6.07139244e+01, 5.45365219e+01, 4.35623474e+01,
          7.76990509e+01, 6.34114265e+01 ]
      - [ 5.45414619e+01, 4.95032005e+01, 4.55381012e+01, 5.38776550e+01,
          5.63806076e+01, 2.34660244e+01 ]
      - [ 7.32974701e+01, 6.57392273e+01, 4.16846809e+01, 3.30631790e+01,
          4.82255287e+01, 3.20090408e+01 ]
      - [ 5.73827782e+01, 5.36063881e+01, 3.86512794e+01, 5.98623962e+01,
          1.04437607e+02, 3.12493305e+01 ]
      - [ 6.60037308e+01, 6.21470375e+01, 6.71169891e+01, 5.05136490e+01,
          5.60215416e+01, 3.03862286e+01 ]
      - [ 7.27718201e+01, 7.43903427e+01, 1.08555613e+01, 5.51249619e+01,
          9.00871811e+01, 4.80502052e+01 ]
      - [ 7.56330566e+01, 7.90287704e+01, 4.25702477e+00, 8.38542709e+01,
          1.35135834e+02, 6.83959961e+01 ]
      - [ 8.59591827e+01, 1.04843712e+02, 1.89007530e+01, 6.23482285e+01,
          1.21821335e+02, 1.23891289e+02 ]
      - [ 9.02548141e+01, 1.04183891e+02, 2.22473717e+01, 1.37488480e+02,
          1.77709015e+02, 1.68564407e+02 ]
      - [ 6.87592773e+01, 7.20742340e+01, 9.43191624e+00, 7.75629349e+01,
          6.66172409e+01, 8.17025604e+01 ]
      - [ 8.00036926e+01, 8.24487381e+01, 8.41118526e+00, 6.10216827e+01,
          9.05597382e+01, 2.47588634e+01 ]
      - [ 6.99635162e+01, 6.71910782e+01, 2.82112064e+01, 6.80267868e+01,
          9.64046478e+01, 5.66402664e+01 ]
      - [ 8.17199249e+01, 8.32985153e+01, 3.41082430e+00, 3.41248627e+01,
          7.26492615e+01, 8.67072678e+01 ]
      - [ 8.59199829e+01, 7.51547394e+01, 6.30853577e+01, 4.13775253e+01,
          5.54655151e+01, 3.47806625e+01 ]
      - [ 5.15689163e+01, 5.94909210e+01, 6.71647263e+01, 4.26530533e+01,
          8.65994492e+01, 4.64753380e+01 ]
      - [ 4.87083511e+01, 6.51012192e+01, 1.24588692e+02, 2.22435532e+01,
          3.90414848e+01, 5.05619812e+01 ]
      - [ 7.87060623e+01, 7.90684433e+01, 4.38642788e+00, 5.30569649e+01,
          1.11545662e+02, 2.75348015e+01 ]
      - [ 7.87262878e+01, 7.94199295e+01, 7.78001404e+01, 3.86985817e+01,
          4.54830933e+01, 5.48898010e+01 ]
      - [ 5.01114502e+01, 7.25586395e+01, 1.09121574e+02, 4.11022148e+01,
          8.80345154e+01, 7.15488968e+01 ]
      - [ 5.44288521e+01, 5.69743423e+01, 7.66361771e+01, 3.06794834e+01,
          7.24519958e+01, 6.78879623e+01 ]
      - [ 7.89779587e+01, 9.12835312e+01, 9.83819885e+01, 2.50119648e+01,
          3.07219315e+01, 3.08687611e+01 ]
      - [ 9.02490234e+01, 9.52646561e+01, 1.55189667e+01, 9.04858398e+01,
          1.60780624e+02, 1.35534637e+02 ]
      - [ 6.76138840e+01, 6.90595551e+01, 8.37362957e+00, 8.44937897e+01,
          1.01749733e+02, 5.28684273e+01 ]
      - [ 6.01685410e+01, 5.92529297e+01, 3.58993073e+01, 2.74825783e+01,
          2.43267231e+01, 5.71483078e+01 ]
      - [ 8.02245712e+01, 8.30912933e+01, 1.46247425e+01, 1.77832088e+01,
          3.88210869e+01, 9.71046982e+01 ]
      - [ 8.87300873e+01, 9.21143799e+01, 6.70021343e+00, 3.06053791e+01,
          6.79762344e+01, 6.67067871e+01 ]
      - [ 5.00082207e+01, 5.69472580e+01, 1.05778641e+02, 3.03867588e+01,
          4.67872849e+01, 5.11828995e+01 ]
      - [ 4.94353409e+01, 7.51803207e+01, 1.22877678e+02, 3.54018631e+01,
          4.81893616e+01, 4.69596291e+01 ]
      - [ 8.15446091e+01, 7.07291718e+01, 4.12699089e+01, 3.79197464e+01,
          6.54306793e+01, 1.55753050e+01 ]
      - [ 0., 4.13632011e+01, 1.37133179e+02, 4.93536224e+01,
          6.58782578e+01, 3.65869665e+00 ]
      - [ 7.44648438e+01, 8.84331818e+01, 1.19693413e+02, 4.78566475e+01,
          8.43762436e+01, 5.57727242e+01 ]
      - [ 7.17664108e+01, 7.00142212e+01, 4.70738907e+01, 6.34716606e+01,
          9.86940918e+01, 3.72452049e+01 ]
      - [ 6.48881454e+01, 7.52740784e+01, 7.34765396e+01, 3.45201607e+01,
          4.48140068e+01, 3.27589989e+01 ]
      - [ 8.58003540e+01, 8.22599106e+01, 7.50140715e+00, 3.18955269e+01,
          7.20626144e+01, 6.63623886e+01 ]
      - [ 6.01947174e+01, 6.51597824e+01, 2.71907082e+01, 2.70110474e+01,
          4.41365929e+01, 6.58956985e+01 ]
      - [ 7.85912552e+01, 7.60456924e+01, 1.00122461e+01, 6.92140045e+01,
          1.08998314e+02, 3.23773727e+01 ]
      - [ 5.73318596e+01, 8.89631653e+01, 1.39250015e+02, 3.02927361e+01,
          3.52266464e+01, 2.30281849e+01 ]
      - [ 8.60846405e+01, 8.59330521e+01, 8.51713943e+00, 2.48197727e+01,
          2.51736145e+01, 3.76701508e+01 ]
      - [ 7.87202835e+01, 7.81759415e+01, 5.97560921e+01, 4.91991882e+01,
          8.29628601e+01, 4.01962433e+01 ]
      - [ 3.79994987e-08, 7.81283951e+01, 2.09049545e+02, 3.38638611e+01,
          3.32565460e+01, 1.97152271e+01 ]
      - [ 7.58765945e+01, 7.97977905e+01, 5.70939302e+00, 4.45677414e+01,
          4.48241997e+01, 9.59666672e+01 ]
      - [ 7.30803070e+01, 8.76363754e+01, 3.49117737e+01, 3.16534882e+01,
          5.90615158e+01, 5.91412544e+01 ]
      - [ 7.86344452e+01, 7.78994064e+01, 4.79296541e+00, 6.74288406e+01,
          1.07546280e+02, 3.15671844e+01 ]
      - [ 1.20037660e-08, 8.12176208e+01, 1.74178589e+02, 2.93304443e+01,
          1.35161047e+01, 4.07604103e+01 ]
      - [ 6.59809494e+01, 7.16605453e+01, 1.17933302e+01, 6.57346191e+01,
          9.05709839e+01, 2.29562893e+01 ]
      - [ 7.86674423e+01, 7.41330872e+01, 8.64254856e+00, 6.46856918e+01,
          8.94741516e+01, 3.29366875e+01 ]
      - [ 3.02774544e+01, 5.20639992e+01, 2.62942657e+01, 3.58856621e+01,
          8.22974701e+01, 6.99824295e+01 ]
      - [ 7.77170029e+01, 8.73095474e+01, 9.74871979e+01, 3.29581375e+01,
          5.80107880e+01, 3.30618782e+01 ]
      - [ 7.29197617e+01, 7.35803986e+01, 4.10338974e+00, 3.77886238e+01,
          8.19154510e+01, 5.55797119e+01 ]
      - [ 7.87524490e+01, 7.35865326e+01, 1.35633793e+01, 5.99859009e+01,
          1.09325935e+02, 2.84248581e+01 ]
      - [ 7.91169891e+01, 7.67759323e+01, 5.04259109e+00, 4.69633369e+01,
          1.08385933e+02, 5.64133377e+01 ]
      - [ 7.57691727e+01, 7.47148972e+01, 7.06598892e+01, 4.77018623e+01,
          3.09456997e+01, 2.44290905e+01 ]
      - [ 7.74301987e+01, 7.84154816e+01, 8.83294773e+00, 1.02055748e+02,
          1.52433456e+02, 4.98462830e+01 ]
      - [ 8.26321716e+01, 8.66937485e+01, 7.13676405e+00, 3.05584126e+01,
          7.41561279e+01, 6.31396255e+01 ]
      - [ 7.85347748e+01, 7.46256485e+01, 1.41747599e+01, 1.89487152e+01,
          3.51020169e+00, 3.39581108e+01 ]
      - [ 3.46381340e+01, 7.61368790e+01, 1.24747581e+02, 6.82207031e+01,
          9.99689789e+01, 5.55886002e+01 ]
      - [ 8.08501511e+01, 7.87519150e+01, 7.25242949e+00, 5.99445267e+01,
          8.54557266e+01, 4.84910774e+01 ]
      - [ 5.44702873e+01, 6.15547600e+01, 1.05606451e+01, 4.08681946e+01,
          7.73703232e+01, 4.85671463e+01 ]
      - [ 1.83822289e+01, 6.84838562e+01, 1.25717957e+02, 7.03953552e+01,
          1.04313477e+02, 4.39412918e+01 ]
      - [ 3.43809013e+01, 4.71029549e+01, 5.76727295e+01, 5.40266228e+01,
          1.01650803e+02, 3.31768112e+01 ]
      - [ 6.89012299e+01, 6.48479080e+01, 3.46257172e+01, 5.16044922e+01,
          7.79718628e+01, 5.82199249e+01 ]
      - [ 6.01685410e+01, 1.34770508e+02, 1.71691742e+02, 3.12673225e+01,
          2.94650116e+01, 1.69423771e+01 ]
      - [ 7.18660583e+01, 7.61813202e+01, 1.73661442e+01, 2.20067158e+01,
          1.70808411e+01, 4.10338058e+01 ]
      - [ 8.19682007e+01, 7.95125580e+01, 7.17843056e+00, 6.10819626e+01,
          8.27127533e+01, 5.05360985e+01 ]
      - [ 6.87692490e+01, 7.60737152e+01, 1.17567940e+02, 3.88468628e+01,
          4.03440704e+01, 2.53775845e+01 ]
      - [ 6.44363403e+01, 5.78975143e+01, 7.39348450e+01, 3.99729805e+01,
          3.26074448e+01, 1.12076921e+01 ]
      - [ 5.37587662e+01, 6.21919365e+01, 1.02326460e+01, 4.50382690e+01,
          8.61661453e+01, 5.27494392e+01 ]
      - [ 6.14144325e+01, 6.47093277e+01, 2.98380966e+01, 3.74804001e+01,
          8.41024094e+01, 4.62546463e+01 ]
      - [ 7.18286057e+01, 6.94019394e+01, 8.69549866e+01, 2.53786049e+01,
          2.09591713e+01, 2.09592438e+01 ]
      - [ 7.60851364e+01, 7.36113205e+01, 8.90710258e+00, 7.13818436e+01,
          1.32994400e+02, 3.27881355e+01 ]
      - [ 1.00280899e+02, 1.03004929e+02, 1.75015240e+01, 8.22580643e+01,
          1.89601898e+02, 1.65824036e+02 ]
      - [ 7.89282379e+01, 8.06872482e+01, 3.02380610e+00, 5.16902390e+01,
          1.31039780e+02, 5.96335907e+01 ]
      - [ 2.85700397e+01, 5.73033333e+01, 8.60205307e+01, 6.32717323e+01,
          9.32664566e+01, 4.35737305e+01 ]
      - [ 7.19003754e+01, 7.17586288e+01, 2.38320007e+01, 7.36265411e+01,
          1.06873116e+02, 3.31826820e+01 ]
      - [ 8.46091232e+01, 8.46503525e+01, 2.87233782e+00, 8.80412369e+01,
          1.16234962e+02, 5.52676277e+01 ]
      - [ 6.60621185e+01, 6.15167046e+01, 2.71324253e+01, 5.52302589e+01,
          7.67665405e+01, 6.01384010e+01 ]
      - [ 8.14131851e+01, 8.21127167e+01, 4.53348494e+00, 2.00974064e+01,
          8.42097778e+01, 8.81190109e+01 ]
      - [ 8.14164963e+01, 7.31522141e+01, 5.95354652e+01, 4.08135719e+01,
          8.51684647e+01, 5.31253090e+01 ]
      - [ 8.44721832e+01, 8.47222595e+01, 6.04922009e+00, 6.36293068e+01,
          9.02801285e+01, 3.78818169e+01 ]
      - [ 7.65572433e+01, 7.72620010e+01, 4.72055817e+00, 5.82926636e+01,
          1.05079048e+02, 3.34437752e+01 ]
      - [ 2.72234135e+01, 4.11318550e+01, 6.34356918e+01, 6.57147446e+01,
          1.03864403e+02, 2.73129940e+01 ]
      - [ 8.85015488e+01, 8.52862320e+01, 6.78603792e+00, 7.04677277e+01,
          1.01980194e+02, 4.78499947e+01 ]
      - [ 7.15485458e+01, 6.50106812e+01, 1.04830055e+01, 8.22029190e+01,
          8.78490677e+01, 4.50478630e+01 ]
      - [ 5.43694191e+01, 6.70741348e+01, 1.27768497e+01, 3.65114899e+01,
          7.76088791e+01, 6.80223999e+01 ]
      - [ 6.70867081e+01, 6.18569412e+01, 1.49103346e+01, 7.15120392e+01,
          1.15822952e+02, 2.67013454e+01 ]
      - [ 8.17541122e+01, 8.42764664e+01, 3.96935272e+00, 3.71459846e+01,
          8.43381882e+01, 8.73584671e+01 ]
      - [ 4.87503777e+01, 6.08962898e+01, 9.74152470e+00, 4.03700294e+01,
          8.22220688e+01, 5.18867874e+01 ]
      - [ 5.44356728e+01, 6.98787155e+01, 1.11242355e+02, 3.19612026e+01,
          3.88075905e+01, 3.66427269e+01 ]
      - [ 8.32373657e+01, 8.36204529e+01, 5.47386074e+00, 4.81851082e+01,
          1.21816490e+02, 9.48007278e+01 ]
      - [ 7.99488754e+01, 9.28070526e+01, 7.11792526e+01, 3.99707985e+01,
          4.47418213e+01, 2.60318527e+01 ]
      - [ 6.12270927e+01, 5.83700714e+01, 3.46081467e+01, 7.03712616e+01,
          9.45594940e+01, 4.04595566e+01 ]
      - [ 7.73529205e+01, 8.07992783e+01, 5.63447905e+00, 4.55355873e+01,
          8.82260437e+01, 6.13737984e+01 ]
      - [ 8.30549011e+01, 8.74178619e+01, 1.10616550e+01, 4.72071953e+01,
          1.30055649e+02, 1.36286270e+02 ]
      - [ 9.45952148e+01, 8.77963715e+01, 1.15267441e+02, 3.54820175e+01,
          5.50256424e+01, 3.16303368e+01 ]
      - [ 8.35105057e+01, 8.21345901e+01, 3.55535245e+00, 6.09344978e+01,
          8.24468307e+01, 7.54137955e+01 ]
      - [ 9.34414291e+01, 9.76358185e+01, 3.32071419e+01, 2.77825508e+01,
          3.06832886e+01, 1.99362926e+01 ]
      - [ 6.63772583e+01, 5.84467239e+01, 2.44420776e+01, 5.14101448e+01,
          8.22539215e+01, 5.16125641e+01 ]
      - [ 8.60621719e+01, 8.61200790e+01, 3.85756159e+00, 8.81306000e+01,
          1.36991318e+02, 5.86669273e+01 ]
      - [ 4.29775238e+01, 4.55403938e+01, 3.29492264e+01, 3.75522156e+01,
          2.27850285e+01, 4.29420967e+01 ]
      - [ 7.19551620e+01, 7.68646393e+01, 6.46610546e+00, 5.41089897e+01,
          9.49263687e+01, 6.84228973e+01 ]
      - [ 5.44875984e+01, 6.28473358e+01, 1.05102644e+01, 5.52103386e+01,
          7.39270401e+01, 5.10493202e+01 ]
      - [ 5.46516495e+01, 6.13617668e+01, 1.27905025e+01, 5.52261963e+01,
          6.97386475e+01, 4.72972221e+01 ]
      - [ 4.99169044e+01, 5.55165977e+01, 7.21173172e+01, 2.57315731e+01,
          3.95709457e+01, 5.67573280e+01 ]
      - [ 8.34542236e+01, 8.58195801e+01, 8.76185322e+00, 6.70050278e+01,
          1.06755096e+02, 1.26991127e+02 ]
      - [ 9.68024521e+01, 9.58984451e+01, 1.43278656e+01, 3.68038063e+01,
          3.82903099e+01, 4.09686623e+01 ]
      - [ 6.15778999e+01, 6.69288712e+01, 9.58096313e+01, 4.02074280e+01,
          4.88248558e+01, 2.51775970e+01 ]
      - [ 7.30411606e+01, 6.25781784e+01, 8.81207962e+01, 3.87562752e+01,
          3.37070503e+01, 1.85464439e+01 ]
      - [ 7.21068344e+01, 6.40805664e+01, 1.43441067e+01, 7.06774445e+01,
          1.17397690e+02, 2.80660610e+01 ]
      - [ 6.01685410e+01, 7.31134872e+01, 1.06731667e+02, 3.74933205e+01,
          6.20086060e+01, 4.40771446e+01 ]
      - [ 6.04930534e+01, 6.35366631e+01, 9.99887848e+00, 6.19348984e+01,
          8.14853745e+01, 5.02624474e+01 ]
      - [ 4.89393158e+01, 6.02589188e+01, 1.23260813e+01, 4.09861755e+01,
          7.23508987e+01, 4.56725769e+01 ]
      - [ 8.04884109e+01, 8.23644028e+01, 4.73782063e+00, 2.58059044e+01,
          7.74503403e+01, 9.34537201e+01 ]
      - [ 6.13691521e+01, 7.51027908e+01, 2.60189095e+01, 5.58922768e+01,
          1.04008034e+02, 4.54418297e+01 ]
      - [ 7.45328522e+01, 7.26950836e+01, 3.75222282e+01, 6.36361694e+01,
          8.02215576e+01, 4.34985733e+01 ]
      - [ 7.16292267e+01, 8.40903625e+01, 1.04164307e+02, 2.97961178e+01,
          2.14507141e+01, 9.24664307e+00 ]
      - [ 6.05071602e+01, 6.55413361e+01, 1.18033609e+01, 5.64967880e+01,
          1.11038696e+02, 2.47032204e+01 ]
      - [ 6.63066101e+01, 6.64011383e+01, 1.11091633e+01, 6.69185791e+01,
          1.18976379e+02, 2.48725166e+01 ]
      - [ 8.03327179e+01, 8.66112595e+01, 8.08060226e+01, 3.53128395e+01,
          6.91603928e+01, 3.87367096e+01 ]
      - [ 1.00280846e+02, 1.00667870e+02, 1.57327337e+01, 9.64424057e+01,
          1.79963364e+02, 1.50878738e+02 ]
      - [ 4.29775276e+01, 5.94878769e+01, 8.87682190e+01, 2.59540710e+01,
          2.21760693e+01, 2.07861557e+01 ]
      - [ 6.25958672e+01, 6.58902893e+01, 9.12036228e+00, 4.39384727e+01,
          9.22943115e+01, 5.50747375e+01 ]
      - [ 6.05276718e+01, 6.27336159e+01, 9.40882492e+00, 4.67078400e+01,
          8.68836975e+01, 5.32742500e+01 ]
      - [ 4.88363647e+01, 5.99175911e+01, 1.12172394e+01, 4.04701042e+01,
          7.63428040e+01, 4.81312294e+01 ]
      - [ 5.72007484e+01, 7.00271454e+01, 1.09049789e+02, 3.39610786e+01,
          3.11943321e+01, 1.97035904e+01 ]
      - [ 4.29775276e+01, 9.96918411e+01, 1.34375504e+02, 3.05374508e+01,
          2.64250908e+01, 6.39549446e+01 ]
      - [ 8.08027496e+01, 8.20136795e+01, 2.33351135e+00, 6.36861649e+01,
          1.09944672e+02, 3.65039711e+01 ]
      - [ 7.87527313e+01, 7.86040192e+01, 2.88318062e+00, 7.96731415e+01,
          1.05837624e+02, 6.84365082e+01 ]
      - [ 7.59788132e+01, 8.50625992e+01, 9.74305115e+01, 3.58786507e+01,
          5.96385193e+01, 3.52043724e+01 ]
      - [ 8.89055557e+01, 8.58600159e+01, 1.51904440e+01, 3.50590096e+01,
          2.19500141e+01, 3.60706100e+01 ]
      - [ 6.60630569e+01, 6.96662064e+01, 1.16994038e+01, 6.58329926e+01,
          1.04183250e+02, 2.72531834e+01 ]
      - [ 6.61767960e+01, 6.89982071e+01, 1.19291286e+01, 6.23381653e+01,
          1.16452774e+02, 2.67521572e+01 ]
      - [ 7.88913193e+01, 8.60400009e+01, 9.95337067e+01, 2.12060242e+01,
          1.69168892e+01, 2.76398277e+01 ]
      - [ 7.99550247e+01, 7.97192383e+01, 4.22406197e+00, 1.98815517e+01,
          2.88950710e+01, 6.33644905e+01 ]
      - [ 6.85119019e+01, 6.99714813e+01, 1.10948095e+01, 7.06287918e+01,
          1.25953545e+02, 2.68784142e+01 ]
      - [ 6.57265778e+01, 7.85265503e+01, 9.76704330e+01, 4.68809814e+01,
          8.87548218e+01, 4.42859688e+01 ]
      - [ 9.06710968e+01, 9.00808792e+01, 2.16709499e+01, 1.64836121e+01,
          5.18214531e+01, 9.36316147e+01 ]
      - [ 6.59456558e+01, 5.70225296e+01, 8.16247177e+01, 6.45624695e+01,
          6.23822937e+01, 4.26344719e+01 ]
      - [ 7.31627350e+01, 7.38904419e+01, 5.75376968e+01, 5.16586533e+01,
          9.20113907e+01, 3.72876854e+01 ]
      - [ 5.13393555e+01, 5.29948273e+01, 6.62636642e+01, 5.75802460e+01,
          5.88161469e+01, 3.36168480e+01 ]
      - [ 8.31175919e+01, 8.37514801e+01, 5.78951454e+00, 5.09305305e+01,
          9.85762253e+01, 2.86165123e+01 ]
      - [ 5.44381332e+01, 5.14452782e+01, 1.11994827e+02, 4.22566338e+01,
          7.44364319e+01, 4.22248230e+01 ]
      - [ 8.97873001e+01, 8.42308884e+01, 1.16151304e+01, 2.59864197e+01,
          6.60691833e+01, 4.09812241e+01 ]
      - [ 8.28991623e+01, 8.62068634e+01, 1.12143564e+01, 1.99995861e+01,
          9.72776890e+00, 3.46843452e+01 ]
      - [ 4.29774055e+01, 4.41028404e+01, 1.35584564e+01, 4.46294518e+01,
          6.31426544e+01, 2.71880798e+01 ]
      - [ 9.45214310e+01, 7.94178848e+01, 5.64803200e+01, 3.64889984e+01,
          4.25000992e+01, 3.37560005e+01 ]
      - [ 8.92971115e+01, 8.50632095e+01, 1.78389454e+01, 4.57726784e+01,
          8.82435913e+01, 4.43539581e+01 ]
      - [ 6.05247803e+01, 9.19558487e+01, 1.17080841e+02, 1.89531403e+01,
          1.93541927e+01, 2.70397549e+01 ]
      - [ 8.19416199e+01, 8.24508896e+01, 3.27801728e+00, 6.45889893e+01,
          7.60590973e+01, 7.34124680e+01 ]
      - [ 6.46953659e+01, 7.27928391e+01, 1.21144447e+02, 3.05332241e+01,
          6.26134682e+01, 5.69995995e+01 ]
      - [ 9.02679062e+01, 9.35636597e+01, 1.20854807e+01, 3.53709984e+01,
          1.40606201e+02, 1.29536835e+02 ]
      - [ 7.78441696e+01, 7.98097687e+01, 9.59166527e+00, 4.58490372e+01,
          9.08654251e+01, 4.41606102e+01 ]
      - [ 1.37528091e+02, 1.35123810e+02, 4.40635910e+01, 2.71306190e+01,
          4.70168571e+01, 5.87573624e+01 ]
      - [ 7.47314377e+01, 7.54906082e+01, 7.98827314e+00, 2.79383698e+01,
          7.78345337e+01, 7.74463043e+01 ]
      - [ 8.59550571e+00, 1.32397049e+02, 1.98041077e+02, 3.28476410e+01,
          2.47740860e+01, 2.31514835e+01 ]
      - [ 7.43539734e+01, 6.99828796e+01, 5.83262291e+01, 3.86787224e+01,
          4.65147591e+01, 5.34341240e+01 ]
      - [ 7.39603271e+01, 7.16495972e+01, 1.17592878e+01, 2.61266918e+01,
          6.37543793e+01, 4.88828506e+01 ]
      - [ 4.29779968e+01, 4.79863548e+01, 1.35494375e+01, 2.82929726e+01,
          3.01261768e+01, 3.06214352e+01 ]
      - [ 7.87695694e+01, 7.84043350e+01, 3.47626472e+00, 4.37957802e+01,
          1.09361809e+02, 6.53295441e+01 ]
      - [ 7.62982559e+01, 8.67124023e+01, 9.76309586e+01, 3.53341751e+01,
          5.92300415e+01, 3.49852829e+01 ]
      - [ 8.41562347e+01, 8.27595825e+01, 4.22701120e+00, 8.10685806e+01,
          1.20176292e+02, 3.54590874e+01 ]
      - [ 7.43948441e+01, 7.68973007e+01, 8.26852417e+01, 5.51422653e+01,
          6.61740952e+01, 3.43474731e+01 ]
      - [ 2.86518459e+01, 4.74186707e+01, 4.29343185e+01, 2.35027523e+01,
          3.17197437e+01, 2.71298389e+01 ]
      - [ 6.45533752e+01, 5.81596565e+01, 1.47934990e+01, 2.96195545e+01,
          4.03297691e+01, 1.98925686e+01 ]
      - [ 8.00395966e+01, 7.36741257e+01, 6.65468292e+01, 4.70677681e+01,
          3.69623756e+01, 3.61027031e+01 ]
      - [ 7.19110489e+01, 5.91130829e+01, 8.50358734e+01, 2.60656548e+01,
          2.68940697e+01, 2.57870407e+01 ]
      - [ 8.15028610e+01, 7.10698700e+01, 2.99996452e+01, 2.70827866e+01,
          3.89070816e+01, 3.38084221e+01 ]
      - [ 8.02247391e+01, 8.45461044e+01, 1.17494307e+01, 1.65885277e+01,
          3.46696587e+01, 7.57110062e+01 ]
      - [ 7.31083145e+01, 7.66810532e+01, 8.08311691e+01, 2.71511364e+01,
          3.33966866e+01, 3.20571976e+01 ]
      - [ 2.86525078e+01, 1.04577744e+02, 1.53345184e+02, 2.47167110e+01,
          3.40722542e+01, 6.32539673e+01 ]
      - [ 5.00582199e+01, 5.88936844e+01, 2.63885956e+01, 4.36991730e+01,
          2.17884312e+01, 2.61751919e+01 ]
      - [ 8.12353134e+01, 8.09151840e+01, 5.93784189e+00, 6.69628983e+01,
          1.02159851e+02, 3.25847588e+01 ]
      - [ 9.30729370e+01, 9.14493484e+01, 6.65358639e+00, 2.98000393e+01,
          3.62748375e+01, 3.26560631e+01 ]
      - [ 6.01685410e+01, 9.58701630e+01, 1.16302193e+02, 2.48532829e+01,
          2.53466473e+01, 3.41009064e+01 ]
      - [ 8.13777542e+01, 8.46375427e+01, 1.09050417e+01, 8.21544952e+01,
          1.11640785e+02, 1.20825668e+02 ]
      - [ 6.90033493e+01, 7.74530487e+01, 7.46648941e+01, 3.63245049e+01,
          6.11773262e+01, 4.17648315e+01 ]
      - [ 7.91596375e+01, 8.05179749e+01, 2.89572191e+00, 6.60075836e+01,
          1.04766579e+02, 5.53167458e+01 ]
      - [ 7.83046799e+01, 7.49868774e+01, 1.11540480e+01, 6.11553001e+01,
          8.46202393e+01, 4.32830734e+01 ]
      - [ 7.19871216e+01, 7.48061295e+01, 5.13196325e+00, 6.81947479e+01,
          9.56949158e+01, 3.69651909e+01 ]
      - [ 6.74820099e+01, 6.44454269e+01, 1.07085409e+01, 7.07089005e+01,
          9.00413818e+01, 5.38231049e+01 ]
      - [ 6.57601242e+01, 6.41150360e+01, 1.44331636e+01, 6.23346214e+01,
          8.19219360e+01, 4.61762238e+01 ]
      - [ 8.30450287e+01, 8.19977798e+01, 4.00833845e+00, 5.29913750e+01,
          7.38123398e+01, 7.75299530e+01 ]
      - [ 8.59203339e+01, 7.20251007e+01, 4.30879211e+01, 4.19621162e+01,
          5.38635292e+01, 3.41537781e+01 ]
      - [ 6.87686768e+01, 6.87027130e+01, 7.02558517e+01, 3.53647118e+01,
          2.66592789e+01, 9.74654007e+00 ]
      - [ 9.45238953e+01, 8.82760086e+01, 9.46107578e+00, 3.75687828e+01,
          4.21735229e+01, 1.97011909e+01 ]
      - [ 8.17603912e+01, 8.55709610e+01, 1.04567022e+01, 9.16540756e+01,
          1.12582741e+02, 1.21062981e+02 ]
      - [ 5.55936890e+01, 5.66439171e+01, 8.96107941e+01, 2.84969730e+01,
          2.87673569e+01, 2.59636841e+01 ]
      - [ 7.45895691e+01, 8.04143829e+01, 2.90655279e+00, 4.43383408e+01,
          1.22264076e+02, 5.63107300e+01 ]
      - [ 8.03630524e+01, 8.31690598e+01, 5.77347422e+00, 4.81827087e+01,
          1.23052864e+02, 9.35915527e+01 ]
      - [ 8.40483780e+01, 8.72732468e+01, 1.08926678e+01, 1.16336403e+02,
          1.22311325e+02, 1.32584122e+02 ]
      - [ 7.60671005e+01, 7.68397522e+01, 8.87301407e+01, 4.72085228e+01,
          8.20852737e+01, 4.13558235e+01 ]
      - [ 5.01404495e+01, 5.48316422e+01, 3.49819221e+01, 7.51227112e+01,
          7.64591446e+01, 4.45948296e+01 ]
      - [ 7.99719009e+01, 7.95825424e+01, 3.45759916e+00, 3.99079361e+01,
          2.20917892e+01, 4.60196152e+01 ]
      - [ 8.41719360e+01, 8.51095886e+01, 8.72677135e+00, 5.49191208e+01,
          1.24415382e+02, 1.24566368e+02 ]
      - [ 6.46084442e+01, 7.03025742e+01, 9.72076130e+00, 3.40931702e+01,
          6.59337540e+01, 7.37275085e+01 ]
      - [ 7.05751495e+01, 6.53445435e+01, 6.34544373e+01, 5.17126503e+01,
          7.26095352e+01, 3.95288200e+01 ]
      - [ 6.18127213e+01, 7.81965408e+01, 1.05658134e+02, 6.20924339e+01,
          6.14674416e+01, 4.08806000e+01 ]
      - [ 1.92360062e-07, 4.86583824e+01, 1.09381920e+02, 3.90773659e+01,
          4.16644440e+01, 1.49826031e+01 ]
      - [ 8.22519150e+01, 8.46519318e+01, 4.27868605e+00, 4.10540199e+01,
          8.25504608e+01, 9.80892563e+01 ]
      - [ 7.91389999e+01, 9.06512909e+01, 1.05615265e+02, 5.12199669e+01,
          5.86532402e+01, 3.86334114e+01 ]
      - [ 8.14084778e+01, 8.01591263e+01, 2.44907355e+00, 7.61818771e+01,
          1.43896576e+02, 4.59794273e+01 ]
      - [ 5.15730324e+01, 1.02803909e+02, 1.40317017e+02, 2.95484829e+01,
          2.17889671e+01, 3.46810799e+01 ]
      - [ 7.99582443e+01, 7.65484009e+01, 1.10640306e+01, 4.46462402e+01,
          8.56136093e+01, 4.89184608e+01 ]
      - [ 8.86074219e+01, 8.28149948e+01, 4.37938881e+00, 3.85019493e+01,
          9.90560837e+01, 8.85989914e+01 ]
      - [ 8.92823257e+01, 7.40726318e+01, 2.20241127e+01, 3.17497368e+01,
          8.88230286e+01, 1.05357124e+02 ]
      - [ 7.46865692e+01, 7.45983124e+01, 1.22636471e+01, 2.31000538e+01,
          1.18595085e+01, 3.15503445e+01 ]
      - [ 7.16292114e+01, 7.44064331e+01, 8.79362717e+01, 2.96046391e+01,
          4.88414688e+01, 6.91676788e+01 ]
      - [ 7.87006302e+01, 8.10284882e+01, 5.69687128e+00, 5.05531311e+01,
          8.75068817e+01, 6.39683228e+01 ]
      - [ 7.89462662e+01, 8.24021149e+01, 4.34812021e+00, 8.06566086e+01,
          1.04028275e+02, 9.94598541e+01 ]
      - [ 5.15731316e+01, 5.04781456e+01, 3.18292065e+01, 2.64381790e+01,
          1.15508633e+01, 1.99011707e+01 ]
      - [ 4.29781303e+01, 5.75201225e+01, 1.96194019e+01, 3.25670891e+01,
          3.67189713e+01, 3.25832939e+01 ]
      - [ 7.16280746e+01, 7.86716156e+01, 9.47813797e+00, 5.85852394e+01,
          9.60690842e+01, 2.59195538e+01 ]
      - [ 6.59932480e+01, 6.45164871e+01, 6.61627121e+01, 4.01858902e+01,
          6.04971542e+01, 4.26056747e+01 ]
      - [ 6.04192200e+01, 6.87454910e+01, 6.65509491e+01, 3.41045303e+01,
          3.47429314e+01, 5.28411751e+01 ]
      - [ 7.76396942e+01, 7.61156540e+01, 4.36882257e+00, 2.59436378e+01,
          4.50718994e+01, 4.13040886e+01 ]
      - [ 7.59466553e+01, 7.04171600e+01, 1.50021915e+01, 4.91902771e+01,
          8.53246918e+01, 4.68828430e+01 ]
      - [ 7.25860138e+01, 7.49807205e+01, 1.12299261e+01, 4.21084137e+01,
          8.50018768e+01, 6.25376396e+01 ]
      - [ 7.35510254e+01, 7.50942993e+01, 1.25345860e+01, 7.51350250e+01,
          8.29916534e+01, 5.48624954e+01 ]
      - [ 5.72345009e+01, 6.42655640e+01, 7.80220413e+01, 5.09712868e+01,
          8.50015488e+01, 6.32357597e+01 ]
      - [ 8.30349503e+01, 8.59722290e+01, 6.89701796e+00, 5.52277527e+01,
          8.55005798e+01, 9.52750473e+01 ]
      - [ 4.29775238e+01, 5.42079430e+01, 3.55372200e+01, 3.43288689e+01,
          3.78319397e+01, 7.39776535e+01 ]
      - [ 8.06996994e+01, 9.46031952e+01, 1.77181873e+01, 7.87353516e+01,
          1.49828949e+02, 1.52558304e+02 ]
      - [ 6.03968620e+01, 7.38682861e+01, 1.33292675e+01, 2.34952908e+01,
          1.35960398e+01, 1.89726620e+01 ]
      - [ 5.73492317e+01, 6.99324875e+01, 1.01698780e+01, 2.85680199e+01,
          1.92695751e+01, 4.32427940e+01 ]
      - [ 7.63973312e+01, 7.71734467e+01, 6.24188280e+00, 5.81404457e+01,
          9.88454361e+01, 2.50258598e+01 ]
      - [ 7.35011444e+01, 7.63279953e+01, 5.91894388e+00, 2.70884647e+01,
          3.82771378e+01, 5.60344391e+01 ]
      - [ 8.31313858e+01, 7.94450684e+01, 1.00835705e+01, 6.50045547e+01,
          1.17040894e+02, 3.90746803e+01 ]
      - [ 7.89866791e+01, 8.07113876e+01, 2.70928669e+00, 2.00757236e+01,
          2.97874012e+01, 5.04749832e+01 ]
      - [ 8.59572372e+01, 9.96578293e+01, 1.98074036e+01, 1.18671051e+02,
          1.60529572e+02, 1.61957748e+02 ]
      - [ 7.42374573e+01, 6.32269859e+01, 4.65470543e+01, 4.08829918e+01,
          4.41741104e+01, 3.32478256e+01 ]
      - [ 8.59478607e+01, 8.81692581e+01, 1.13868694e+01, 1.21006996e+02,
          1.25262344e+02, 1.22304024e+02 ]
      - [ 8.26216965e+01, 8.02373810e+01, 1.01153183e+01, 7.03424301e+01,
          9.24201813e+01, 3.80108719e+01 ]
      - [ 7.58765945e+01, 7.97305984e+01, 5.56002855e+00, 3.79711876e+01,
          3.54313278e+01, 3.22304611e+01 ]
      - [ 8.30488205e+01, 8.39465103e+01, 3.29981709e+00, 6.60620193e+01,
          8.47039566e+01, 4.41698761e+01 ]
      - [ 1.85915165e+01, 5.37439804e+01, 4.21930199e+01, 5.28633232e+01,
          6.71786652e+01, 4.25795021e+01 ]
      - [ 7.96983948e+01, 7.98127823e+01, 4.54937363e+00, 9.87184982e+01,
          1.04987663e+02, 9.63820801e+01 ]
      - [ 6.87795944e+01, 8.18105621e+01, 1.07346024e+02, 4.81991005e+01,
          6.79406128e+01, 4.75410042e+01 ]
      - [ 8.36022797e+01, 8.76918182e+01, 1.47370405e+01, 8.11386871e+01,
          9.79943924e+01, 1.16400475e+02 ]
      - [ 6.78577423e+01, 6.84767303e+01, 1.48662443e+01, 6.07445869e+01,
          8.86742096e+01, 5.18360672e+01 ]
      - [ 7.30618134e+01, 6.47626343e+01, 2.43255653e+01, 3.51956329e+01,
          2.71733742e+01, 5.70783539e+01 ]
      - [ 7.34819260e+01, 6.58856583e+01, 2.74930153e+01, 7.41219940e+01,
          8.40747757e+01, 5.01940613e+01 ]
      - [ 7.47240219e+01, 7.78912048e+01, 3.78108811e+00, 5.04096794e+01,
          9.28465805e+01, 3.87509270e+01 ]
      - [ 7.34341965e+01, 7.49968948e+01, 9.58425713e+00, 2.12421818e+01,
          2.59290009e+01, 3.14282951e+01 ]
      - [ 6.47340012e+01, 5.98552437e+01, 3.18997860e+01, 7.97640076e+01,
          8.04657822e+01, 4.69548836e+01 ]
      - [ 8.27453079e+01, 8.42531586e+01, 5.27617979e+00, 7.04801407e+01,
          1.02129654e+02, 1.01552628e+02 ]
      - [ 1.86097965e+01, 4.63236694e+01, 3.27653618e+01, 3.05561390e+01,
          2.16122952e+01, 2.69215012e+01 ]
      - [ 7.16292114e+01, 7.41716537e+01, 1.03604027e+02, 4.00865860e+01,
          5.06242409e+01, 1.14847050e+01 ]
      - [ 5.48422737e+01, 8.14604263e+01, 2.18860817e+01, 2.28569527e+01,
          6.21541309e+00, 4.56731377e+01 ]
      - [ 8.85730286e+01, 8.49331360e+01, 1.03275452e+01, 3.27840462e+01,
          1.16610909e+02, 1.23807808e+02 ]
      - [ 8.19814377e+01, 8.65601349e+01, 1.29073191e+01, 2.94557991e+01,
          1.25723740e+02, 1.32953873e+02 ]
      - [ 1.00282547e+02, 9.43657532e+01, 1.71255741e+01, 9.75345612e+01,
          8.84749832e+01, 9.21090469e+01 ]
      - [ 8.09501572e+01, 7.92310638e+01, 1.07952423e+01, 7.55179596e+01,
          8.74999313e+01, 4.31816788e+01 ]
      - [ 8.73542328e+01, 8.36800308e+01, 6.80571508e+00, 2.57975063e+01,
          7.48864517e+01, 6.45263672e+01 ]
      - [ 1.11141720e+01, 3.04474869e+01, 6.88707123e+01, 4.65761528e+01,
          5.29721107e+01, 1.51755953e+01 ]
      - [ 6.50076218e+01, 7.93918152e+01, 1.10078430e+02, 3.60207787e+01,
          3.33019028e+01, 2.92658558e+01 ]
      - [ 8.02874680e+01, 8.14013214e+01, 2.63137937e+00, 6.08783302e+01,
          1.11892067e+02, 4.46682129e+01 ]
      - [ 5.15730324e+01, 5.00414276e+01, 7.44389420e+01, 3.88030205e+01,
          2.24154606e+01, 4.58320007e+01 ]
      - [ 3.58077087e+01, 4.84705772e+01, 3.71953392e+01, 5.28526230e+01,
          7.02223129e+01, 4.03059273e+01 ]
      - [ 3.25453796e+01, 5.56200638e+01, 1.91897030e+01, 3.64606438e+01,
          8.83520813e+01, 7.24226761e+01 ]
      - [ 8.00851974e+01, 8.18267822e+01, 7.29773569e+00, 4.46551514e+01,
          8.61571198e+01, 6.78393097e+01 ]
      - [ 8.40549698e+01, 8.37174377e+01, 5.87124395e+00, 1.02075966e+02,
          1.13400414e+02, 1.05061134e+02 ]
      - [ 6.48480911e+01, 7.11229324e+01, 9.96119404e+00, 2.35632706e+01,
          2.06542511e+01, 4.75742111e+01 ]
      - [ 7.61783676e+01, 7.65525818e+01, 4.11442604e+01, 4.34902611e+01,
          5.02407646e+01, 1.02365866e+01 ]
      - [ 8.63819122e+01, 9.17949219e+01, 1.34506989e+01, 1.64549637e+01,
          1.19391762e+02, 1.76034088e+02 ]
      - [ 6.16902161e+01, 5.83580894e+01, 1.84634743e+01, 4.11303596e+01,
          7.52971497e+01, 4.25524445e+01 ]
      - [ 7.10879059e+01, 7.27408447e+01, 4.53231478e+00, 6.58527908e+01,
          9.05370178e+01, 4.51684303e+01 ]
      - [ 7.84928894e+01, 8.03703461e+01, 4.07776117e+00, 8.57438965e+01,
          1.42772507e+02, 5.41287918e+01 ]
      - [ 4.93419724e+01, 4.91491852e+01, 7.19082794e+01, 6.69302673e+01,
          5.23914032e+01, 5.49076767e+01 ]
      - [ 8.26794281e+01, 7.97861099e+01, 3.99040103e+00, 2.57852783e+01,
          2.29077797e+01, 4.42169609e+01 ]
      - [ 7.31270676e+01, 7.01257629e+01, 1.03764397e+02, 3.76996956e+01,
          4.20790901e+01, 2.61798248e+01 ]
      - [ 6.87507477e+01, 7.19216995e+01, 1.04999208e+01, 2.26124935e+01,
          2.91521721e+01, 3.25554657e+01 ]
      - [ 7.14737167e+01, 7.00951157e+01, 1.99795341e+01, 5.55138435e+01,
          1.04438019e+02, 3.25571365e+01 ]
      - [ 7.19839554e+01, 7.43338699e+01, 1.50879812e+01, 6.59509201e+01,
          7.58744812e+01, 5.66811676e+01 ]
      - [ 7.91386490e+01, 8.40829926e+01, 4.59126616e+00, 5.75846519e+01,
          1.04084145e+02, 9.81185303e+01 ]
      - [ 8.59715347e+01, 8.76816864e+01, 5.50340223e+00, 6.78645782e+01,
          1.17305176e+02, 1.06289360e+02 ]
      - [ 9.02371368e+01, 9.76811218e+01, 1.82254658e+01, 1.18572556e+02,
          1.65766449e+02, 1.57586731e+02 ]
      - [ 7.72174301e+01, 7.84566040e+01, 6.04209785e+01, 5.65456581e+01,
          7.31666260e+01, 4.18809395e+01 ]
      - [ 7.27638779e+01, 7.48728714e+01, 2.99349117e+00, 6.31851578e+01,
          9.09902115e+01, 3.85669250e+01 ]
      - [ 7.38129501e+01, 7.42164993e+01, 1.10130606e+01, 2.27389050e+01,
          4.07112122e+01, 4.34726410e+01 ]
      - [ 9.44886246e+01, 9.82455139e+01, 6.12595482e+01, 3.17251091e+01,
          3.36790810e+01, 2.73766060e+01 ]
      - [ 6.03332863e+01, 7.41631699e+01, 1.44147387e+01, 2.26105766e+01,
          9.01693249e+00, 1.85515594e+01 ]
      - [ 6.60475388e+01, 7.41660004e+01, 5.77925949e+01, 3.87824974e+01,
          9.74057007e+01, 4.56014442e+01 ]
      - [ 6.05190506e+01, 6.91940231e+01, 6.04263077e+01, 5.05057030e+01,
          3.39650726e+01, 1.95282021e+01 ]
      - [ 8.30499344e+01, 8.24651489e+01, 4.41452217e+00, 7.90427399e+01,
          9.90437164e+01, 9.31408081e+01 ]
      - [ 6.16368408e+01, 5.66053658e+01, 3.55133972e+01, 6.13151550e+01,
          6.48172531e+01, 5.56642189e+01 ]
      - [ 8.16625748e+01, 8.26891556e+01, 2.41299129e+00, 5.51908646e+01,
          1.10834984e+02, 4.48151245e+01 ]
      - [ 4.29775276e+01, 5.24421844e+01, 7.30059814e+01, 3.30299759e+01,
          4.40709534e+01, 8.38451843e+01 ]
      - [ 6.13910980e+01, 6.25922089e+01, 6.37783928e+01, 4.33590546e+01,
          8.29530945e+01, 5.88592224e+01 ]
      - [ 7.97799530e+01, 7.91434555e+01, 6.63401794e+00, 6.61410599e+01,
          9.99589996e+01, 3.00062561e+01 ]
      - [ 9.45379410e+01, 9.17040329e+01, 8.35094910e+01, 3.26474342e+01,
          3.51374168e+01, 3.02012367e+01 ]
      - [ 4.29775276e+01, 6.54205170e+01, 3.32693977e+01, 5.76184998e+01,
